{"learner":{"attributes":{"best_iteration":"499","best_ntree_limit":"500"},"feature_names":[],"feature_types":[],"gradient_booster":{"model":{"gbtree_model_param":{"num_parallel_tree":"1","num_trees":"1000","size_leaf_vector":"0"},"tree_info":[0,1,0,1,0,1,0,1,0,1,0,1,0,1,0,1,0,1,0,1,0,1,0,1,0,1,0,1,0,1,0,1,0,1,0,1,0,1,0,1,0,1,0,1,0,1,0,1,0,1,0,1,0,1,0,1,0,1,0,1,0,1,0,1,0,1,0,1,0,1,0,1,0,1,0,1,0,1,0,1,0,1,0,1,0,1,0,1,0,1,0,1,0,1,0,1,0,1,0,1,0,1,0,1,0,1,0,1,0,1,0,1,0,1,0,1,0,1,0,1,0,1,0,1,0,1,0,1,0,1,0,1,0,1,0,1,0,1,0,1,0,1,0,1,0,1,0,1,0,1,0,1,0,1,0,1,0,1,0,1,0,1,0,1,0,1,0,1,0,1,0,1,0,1,0,1,0,1,0,1,0,1,0,1,0,1,0,1,0,1,0,1,0,1,0,1,0,1,0,1,0,1,0,1,0,1,0,1,0,1,0,1,0,1,0,1,0,1,0,1,0,1,0,1,0,1,0,1,0,1,0,1,0,1,0,1,0,1,0,1,0,1,0,1,0,1,0,1,0,1,0,1,0,1,0,1,0,1,0,1,0,1,0,1,0,1,0,1,0,1,0,1,0,1,0,1,0,1,0,1,0,1,0,1,0,1,0,1,0,1,0,1,0,1,0,1,0,1,0,1,0,1,0,1,0,1,0,1,0,1,0,1,0,1,0,1,0,1,0,1,0,1,0,1,0,1,0,1,0,1,0,1,0,1,0,1,0,1,0,1,0,1,0,1,0,1,0,1,0,1,0,1,0,1,0,1,0,1,0,1,0,1,0,1,0,1,0,1,0,1,0,1,0,1,0,1,0,1,0,1,0,1,0,1,0,1,0,1,0,1,0,1,0,1,0,1,0,1,0,1,0,1,0,1,0,1,0,1,0,1,0,1,0,1,0,1,0,1,0,1,0,1,0,1,0,1,0,1,0,1,0,1,0,1,0,1,0,1,0,1,0,1,0,1,0,1,0,1,0,1,0,1,0,1,0,1,0,1,0,1,0,1,0,1,0,1,0,1,0,1,0,1,0,1,0,1,0,1,0,1,0,1,0,1,0,1,0,1,0,1,0,1,0,1,0,1,0,1,0,1,0,1,0,1,0,1,0,1,0,1,0,1,0,1,0,1,0,1,0,1,0,1,0,1,0,1,0,1,0,1,0,1,0,1,0,1,0,1,0,1,0,1,0,1,0,1,0,1,0,1,0,1,0,1,0,1,0,1,0,1,0,1,0,1,0,1,0,1,0,1,0,1,0,1,0,1,0,1,0,1,0,1,0,1,0,1,0,1,0,1,0,1,0,1,0,1,0,1,0,1,0,1,0,1,0,1,0,1,0,1,0,1,0,1,0,1,0,1,0,1,0,1,0,1,0,1,0,1,0,1,0,1,0,1,0,1,0,1,0,1,0,1,0,1,0,1,0,1,0,1,0,1,0,1,0,1,0,1,0,1,0,1,0,1,0,1,0,1,0,1,0,1,0,1,0,1,0,1,0,1,0,1,0,1,0,1,0,1,0,1,0,1,0,1,0,1,0,1,0,1,0,1,0,1,0,1,0,1,0,1,0,1,0,1,0,1,0,1,0,1,0,1,0,1,0,1,0,1,0,1,0,1,0,1,0,1,0,1,0,1,0,1,0,1,0,1,0,1,0,1,0,1,0,1,0,1,0,1,0,1,0,1,0,1,0,1,0,1,0,1,0,1,0,1,0,1,0,1,0,1,0,1,0,1,0,1,0,1,0,1,0,1,0,1,0,1,0,1,0,1,0,1,0,1,0,1,0,1,0,1,0,1,0,1,0,1,0,1,0,1,0,1,0,1,0,1,0,1,0,1,0,1,0,1,0,1,0,1,0,1,0,1,0,1,0,1,0,1,0,1,0,1,0,1,0,1,0,1,0,1,0,1,0,1,0,1,0,1,0,1,0,1,0,1,0,1,0,1,0,1,0,1,0,1,0,1,0,1,0,1,0,1,0,1,0,1,0,1,0,1,0,1,0,1,0,1,0,1,0,1,0,1,0,1,0,1,0,1,0,1,0,1,0,1,0,1,0,1,0,1,0,1,0,1,0,1,0,1,0,1,0,1,0,1,0,1,0,1,0,1,0,1,0,1,0,1,0,1,0,1,0,1,0,1,0,1,0,1,0,1,0,1,0,1,0,1,0,1,0,1,0,1,0,1,0,1,0,1,0,1,0,1,0,1,0,1,0,1,0,1],"trees":[{"base_weights":[-1.5140817E-1,-3.6437908E-1,5.4058313E-2,-1.9792679E-1,-5.3344315E-1,-2.1704657E-1,1.8041117E-1],"categories":[],"categories_nodes":[],"categories_segments":[],"categories_sizes":[],"default_left":[1,1,1,0,0,0,0],"id":0,"left_children":[1,3,5,-1,-1,-1,-1],"loss_changes":[2.7270007E2,8.6006195E1,1.0871276E2,0E0,0E0,0E0,0E0],"parents":[2147483647,0,0,1,1,2,2],"right_children":[2,4,6,-1,-1,-1,-1],"split_conditions":[1.45E1,1.25E1,-1.95E0,-1.979268E-3,-5.3344313E-3,-2.1704657E-3,1.8041118E-3],"split_indices":[51,80,77,0,0,0,0],"split_type":[0,0,0,0,0,0,0],"sum_hessian":[6.2305E3,3.059E3,3.1715E3,1.5425E3,1.5165E3,1.008E3,2.1635E3],"tree_param":{"num_deleted":"0","num_feature":"106","num_nodes":"7","size_leaf_vector":"0"}},{"base_weights":[1.5140817E-1,3.6437908E-1,-5.4058313E-2,1.9792679E-1,5.3344315E-1,2.1704657E-1,-1.8041117E-1],"categories":[],"categories_nodes":[],"categories_segments":[],"categories_sizes":[],"default_left":[1,1,1,0,0,0,0],"id":1,"left_children":[1,3,5,-1,-1,-1,-1],"loss_changes":[2.7270007E2,8.6006195E1,1.0871276E2,0E0,0E0,0E0,0E0],"parents":[2147483647,0,0,1,1,2,2],"right_children":[2,4,6,-1,-1,-1,-1],"split_conditions":[1.45E1,1.25E1,-1.95E0,1.979268E-3,5.3344313E-3,2.1704657E-3,-1.8041118E-3],"split_indices":[51,80,77,0,0,0,0],"split_type":[0,0,0,0,0,0,0],"sum_hessian":[6.2305E3,3.059E3,3.1715E3,1.5425E3,1.5165E3,1.008E3,2.1635E3],"tree_param":{"num_deleted":"0","num_feature":"106","num_nodes":"7","size_leaf_vector":"0"}},{"base_weights":[-1.4989679E-1,-3.6074346E-1,5.3517807E-2,-1.9594951E-1,-5.281273E-1,-2.148793E-1,1.7860849E-1],"categories":[],"categories_nodes":[],"categories_segments":[],"categories_sizes":[],"default_left":[1,1,1,0,0,0,0],"id":2,"left_children":[1,3,5,-1,-1,-1,-1],"loss_changes":[2.672813E2,8.43017E1,1.0655142E2,0E0,0E0,0E0,0E0],"parents":[2147483647,0,0,1,1,2,2],"right_children":[2,4,6,-1,-1,-1,-1],"split_conditions":[1.45E1,1.25E1,-1.95E0,-1.959495E-3,-5.281273E-3,-2.148793E-3,1.7860848E-3],"split_indices":[51,80,77,0,0,0,0],"split_type":[0,0,0,0,0,0,0],"sum_hessian":[6.230439E3,3.058951E3,3.1714883E3,1.542494E3,1.5164569E3,1.00799524E3,2.163493E3],"tree_param":{"num_deleted":"0","num_feature":"106","num_nodes":"7","size_leaf_vector":"0"}},{"base_weights":[1.4989682E-1,3.6074352E-1,-5.3517807E-2,1.9594961E-1,5.281273E-1,2.148793E-1,-1.7860849E-1],"categories":[],"categories_nodes":[],"categories_segments":[],"categories_sizes":[],"default_left":[1,1,1,0,0,0,0],"id":3,"left_children":[1,3,5,-1,-1,-1,-1],"loss_changes":[2.6728137E2,8.430167E1,1.0655142E2,0E0,0E0,0E0,0E0],"parents":[2147483647,0,0,1,1,2,2],"right_children":[2,4,6,-1,-1,-1,-1],"split_conditions":[1.45E1,1.25E1,-1.95E0,1.9594962E-3,5.281273E-3,2.148793E-3,-1.7860848E-3],"split_indices":[51,80,77,0,0,0,0],"split_type":[0,0,0,0,0,0,0],"sum_hessian":[6.230439E3,3.058951E3,3.1714883E3,1.5424939E3,1.5164569E3,1.00799524E3,2.163493E3],"tree_param":{"num_deleted":"0","num_feature":"106","num_nodes":"7","size_leaf_vector":"0"}},{"base_weights":[-1.4840342E-1,-3.5715556E-1,5.2983075E-2,-1.9399364E-1,-5.228937E-1,-2.1273561E-1,1.7682488E-1],"categories":[],"categories_nodes":[],"categories_segments":[],"categories_sizes":[],"default_left":[1,1,1,0,0,0,0],"id":4,"left_children":[1,3,5,-1,-1,-1,-1],"loss_changes":[2.6198013E2,8.264227E1,1.0443381E2,0E0,0E0,0E0,0E0],"parents":[2147483647,0,0,1,1,2,2],"right_children":[2,4,6,-1,-1,-1,-1],"split_conditions":[1.45E1,1.25E1,-1.95E0,-1.9399364E-3,-5.228937E-3,-2.1273561E-3,1.7682487E-3],"split_indices":[51,80,77,0,0,0,0],"split_type":[0,0,0,0,0,0,0],"sum_hessian":[6.2302583E3,3.0588052E3,3.1714534E3,1.542476E3,1.5163291E3,1.00798114E3,2.1634722E3],"tree_param":{"num_deleted":"0","num_feature":"106","num_nodes":"7","size_leaf_vector":"0"}},{"base_weights":[1.484034E-1,3.5715556E-1,-5.298312E-2,1.9399355E-1,5.2289385E-1,2.1273564E-1,-1.7682499E-1],"categories":[],"categories_nodes":[],"categories_segments":[],"categories_sizes":[],"default_left":[1,1,1,0,0,0,0],"id":5,"left_children":[1,3,5,-1,-1,-1,-1],"loss_changes":[2.6198022E2,8.2642365E1,1.0443387E2,0E0,0E0,0E0,0E0],"parents":[2147483647,0,0,1,1,2,2],"right_children":[2,4,6,-1,-1,-1,-1],"split_conditions":[1.45E1,1.25E1,-1.95E0,1.9399355E-3,5.2289385E-3,2.1273564E-3,-1.7682498E-3],"split_indices":[51,80,77,0,0,0,0],"split_type":[0,0,0,0,0,0,0],"sum_hessian":[6.2302583E3,3.0588052E3,3.1714531E3,1.5424761E3,1.5163291E3,1.0079812E3,2.163472E3],"tree_param":{"num_deleted":"0","num_feature":"106","num_nodes":"7","size_leaf_vector":"0"}},{"base_weights":[-1.4692765E-1,1.16098076E-1,-3.0405027E-1,-1.3495359E-1,2.3294921E-1,-8.604352E-2,-4.336141E-1],"categories":[],"categories_nodes":[],"categories_segments":[],"categories_sizes":[],"default_left":[1,1,1,0,0,0,0],"id":6,"left_children":[1,3,5,-1,-1,-1,-1],"loss_changes":[2.575441E2,6.841034E1,1.1015088E2,0E0,0E0,0E0,0E0],"parents":[2147483647,0,0,1,1,2,2],"right_children":[2,4,6,-1,-1,-1,-1],"split_conditions":[4.585E-1,-2.05E0,1.05E1,-1.3495359E-3,2.329492E-3,-8.604352E-4,-4.336141E-3],"split_indices":[3,77,103,0,0,0,0],"split_type":[0,0,0,0,0,0,0],"sum_hessian":[6.2299624E3,2.3299128E3,3.9000493E3,7.3996405E2,1.5899487E3,1.4544412E3,2.4456082E3],"tree_param":{"num_deleted":"0","num_feature":"106","num_nodes":"7","size_leaf_vector":"0"}},{"base_weights":[1.4692765E-1,-1.1609807E-1,3.040503E-1,1.3495368E-1,-2.3294923E-1,8.604349E-2,4.3361416E-1],"categories":[],"categories_nodes":[],"categories_segments":[],"categories_sizes":[],"default_left":[1,1,1,0,0,0,0],"id":7,"left_children":[1,3,5,-1,-1,-1,-1],"loss_changes":[2.5754413E2,6.841036E1,1.1015097E2,0E0,0E0,0E0,0E0],"parents":[2147483647,0,0,1,1,2,2],"right_children":[2,4,6,-1,-1,-1,-1],"split_conditions":[4.585E-1,-2.05E0,1.05E1,1.3495367E-3,-2.3294922E-3,8.604349E-4,4.3361415E-3],"split_indices":[3,77,103,0,0,0,0],"split_type":[0,0,0,0,0,0,0],"sum_hessian":[6.229962E3,2.3299128E3,3.9000493E3,7.3996405E2,1.5899489E3,1.454441E3,2.4456082E3],"tree_param":{"num_deleted":"0","num_feature":"106","num_nodes":"7","size_leaf_vector":"0"}},{"base_weights":[-1.4546688E-1,-3.50751E-1,5.2549202E-2,-1.9032933E-1,-5.13745E-1,-2.0849012E-1,1.7420684E-1],"categories":[],"categories_nodes":[],"categories_segments":[],"categories_sizes":[],"default_left":[1,1,1,0,0,0,0],"id":8,"left_children":[1,3,5,-1,-1,-1,-1],"loss_changes":[2.5329083E2,7.989615E1,1.0078127E2,0E0,0E0,0E0,0E0],"parents":[2147483647,0,0,1,1,2,2],"right_children":[2,4,6,-1,-1,-1,-1],"split_conditions":[1.45E1,1.25E1,-1.95E0,-1.9032932E-3,-5.13745E-3,-2.084901E-3,1.7420683E-3],"split_indices":[51,80,77,0,0,0,0],"split_type":[0,0,0,0,0,0,0],"sum_hessian":[6.2296304E3,3.058303E3,3.1713274E3,1.5424062E3,1.5158969E3,1.0079237E3,2.1634036E3],"tree_param":{"num_deleted":"0","num_feature":"106","num_nodes":"7","size_leaf_vector":"0"}},{"base_weights":[1.4546688E-1,3.50751E-1,-5.25492E-2,1.9032936E-1,5.1374495E-1,2.0849018E-1,-1.7420685E-1],"categories":[],"categories_nodes":[],"categories_segments":[],"categories_sizes":[],"default_left":[1,1,1,0,0,0,0],"id":9,"left_children":[1,3,5,-1,-1,-1,-1],"loss_changes":[2.5329082E2,7.989621E1,1.0078132E2,0E0,0E0,0E0,0E0],"parents":[2147483647,0,0,1,1,2,2],"right_children":[2,4,6,-1,-1,-1,-1],"split_conditions":[1.45E1,1.25E1,-1.95E0,1.9032935E-3,5.1374496E-3,2.0849018E-3,-1.7420684E-3],"split_indices":[51,80,77,0,0,0,0],"split_type":[0,0,0,0,0,0,0],"sum_hessian":[6.2296304E3,3.058303E3,3.1713274E3,1.5424061E3,1.5158967E3,1.0079237E3,2.1634036E3],"tree_param":{"num_deleted":"0","num_feature":"106","num_nodes":"7","size_leaf_vector":"0"}},{"base_weights":[-1.4402495E-1,1.1460788E-1,-2.9854152E-1,-1.3142964E-1,2.291242E-1,-1.4139587E-1,-4.7297618E-1],"categories":[],"categories_nodes":[],"categories_segments":[],"categories_sizes":[],"default_left":[1,1,1,0,0,0,0],"id":10,"left_children":[1,3,5,-1,-1,-1,-1],"loss_changes":[2.4900948E2,6.570039E1,1.0684845E2,0E0,0E0,0E0,0E0],"parents":[2147483647,0,0,1,1,2,2],"right_children":[2,4,6,-1,-1,-1,-1],"split_conditions":[4.585E-1,-2.05E0,1.35E1,-1.3142964E-3,2.291242E-3,-1.4139586E-3,-4.7297617E-3],"split_indices":[3,77,80,0,0,0,0],"split_type":[0,0,0,0,0,0,0],"sum_hessian":[6.2291357E3,2.3297737E3,3.8993623E3,7.399178E2,1.5898558E3,2.0522925E3,1.84707E3],"tree_param":{"num_deleted":"0","num_feature":"106","num_nodes":"7","size_leaf_vector":"0"}},{"base_weights":[1.44025E-1,-1.1460783E-1,2.9854155E-1,1.3142975E-1,-2.2912419E-1,1.413959E-1,4.7297618E-1],"categories":[],"categories_nodes":[],"categories_segments":[],"categories_sizes":[],"default_left":[1,1,1,0,0,0,0],"id":11,"left_children":[1,3,5,-1,-1,-1,-1],"loss_changes":[2.4900948E2,6.570041E1,1.0684848E2,0E0,0E0,0E0,0E0],"parents":[2147483647,0,0,1,1,2,2],"right_children":[2,4,6,-1,-1,-1,-1],"split_conditions":[4.585E-1,-2.05E0,1.35E1,1.3142974E-3,-2.291242E-3,1.413959E-3,4.7297617E-3],"split_indices":[3,77,80,0,0,0,0],"split_type":[0,0,0,0,0,0,0],"sum_hessian":[6.2291357E3,2.3297734E3,3.8993623E3,7.399178E2,1.5898558E3,2.0522925E3,1.8470698E3],"tree_param":{"num_deleted":"0","num_feature":"106","num_nodes":"7","size_leaf_vector":"0"}},{"base_weights":[-1.4259796E-1,-3.4450072E-1,5.2118104E-2,-1.8712899E-1,-5.044615E-1,-2.0425278E-1,1.7159463E-1],"categories":[],"categories_nodes":[],"categories_segments":[],"categories_sizes":[],"default_left":[1,1,1,0,0,0,0],"id":12,"left_children":[1,3,5,-1,-1,-1,-1],"loss_changes":[2.4492667E2,7.689798E1,9.71977E1,0E0,0E0,0E0,0E0],"parents":[2147483647,0,0,1,1,2,2],"right_children":[2,4,6,-1,-1,-1,-1],"split_conditions":[1.45E1,1.25E1,-1.95E0,-1.8712899E-3,-5.0446154E-3,-2.0425278E-3,1.7159464E-3],"split_indices":[51,80,77,0,0,0,0],"split_type":[0,0,0,0,0,0,0],"sum_hessian":[6.2286006E3,3.057492E3,3.1711086E3,1.5423127E3,1.5151791E3,1.00782465E3,2.163284E3],"tree_param":{"num_deleted":"0","num_feature":"106","num_nodes":"7","size_leaf_vector":"0"}},{"base_weights":[1.4259794E-1,3.4450072E-1,-5.2118167E-2,1.8712904E-1,5.044615E-1,2.042527E-1,-1.715947E-1],"categories":[],"categories_nodes":[],"categories_segments":[],"categories_sizes":[],"default_left":[1,1,1,0,0,0,0],"id":13,"left_children":[1,3,5,-1,-1,-1,-1],"loss_changes":[2.4492676E2,7.689795E1,9.719769E1,0E0,0E0,0E0,0E0],"parents":[2147483647,0,0,1,1,2,2],"right_children":[2,4,6,-1,-1,-1,-1],"split_conditions":[1.45E1,1.25E1,-1.95E0,1.8712903E-3,5.0446154E-3,2.042527E-3,-1.715947E-3],"split_indices":[51,80,77,0,0,0,0],"split_type":[0,0,0,0,0,0,0],"sum_hessian":[6.2286006E3,3.057492E3,3.1711086E3,1.5423129E3,1.5151791E3,1.00782465E3,2.163284E3],"tree_param":{"num_deleted":"0","num_feature":"106","num_nodes":"7","size_leaf_vector":"0"}},{"base_weights":[-1.4118886E-1,1.13136806E-1,-2.9315856E-1,-1.279878E-1,2.2536622E-1,-8.134073E-2,-4.191116E-1],"categories":[],"categories_nodes":[],"categories_segments":[],"categories_sizes":[],"default_left":[1,1,1,0,0,0,0],"id":14,"left_children":[1,3,5,-1,-1,-1,-1],"loss_changes":[2.4077945E2,6.309702E1,1.0399692E2,0E0,0E0,0E0,0E0],"parents":[2147483647,0,0,1,1,2,2],"right_children":[2,4,6,-1,-1,-1,-1],"split_conditions":[4.585E-1,-2.05E0,1.05E1,-1.279878E-3,2.253662E-3,-8.134073E-4,-4.191116E-3],"split_indices":[3,77,103,0,0,0,0],"split_type":[0,0,0,0,0,0,0],"sum_hessian":[6.227915E3,2.3295693E3,3.8983457E3,7.398541E2,1.5897152E3,1.4542871E3,2.4440588E3],"tree_param":{"num_deleted":"0","num_feature":"106","num_nodes":"7","size_leaf_vector":"0"}},{"base_weights":[1.4118887E-1,-1.1313675E-1,2.9315856E-1,1.2798771E-1,-2.2536612E-1,8.134073E-2,4.1911158E-1],"categories":[],"categories_nodes":[],"categories_segments":[],"categories_sizes":[],"default_left":[1,1,1,0,0,0,0],"id":15,"left_children":[1,3,5,-1,-1,-1,-1],"loss_changes":[2.4077942E2,6.3096954E1,1.0399692E2,0E0,0E0,0E0,0E0],"parents":[2147483647,0,0,1,1,2,2],"right_children":[2,4,6,-1,-1,-1,-1],"split_conditions":[4.585E-1,-2.05E0,1.05E1,1.2798771E-3,-2.2536612E-3,8.134073E-4,4.1911155E-3],"split_indices":[3,77,103,0,0,0,0],"split_type":[0,0,0,0,0,0,0],"sum_hessian":[6.227915E3,2.3295693E3,3.8983457E3,7.398542E2,1.5897152E3,1.4542871E3,2.4440588E3],"tree_param":{"num_deleted":"0","num_feature":"106","num_nodes":"7","size_leaf_vector":"0"}},{"base_weights":[-1.3979352E-1,-3.3838975E-1,5.168416E-2,-1.0796623E-1,-4.44339E-1,-2.0019552E-1,1.6906118E-1],"categories":[],"categories_nodes":[],"categories_segments":[],"categories_sizes":[],"default_left":[1,1,1,0,0,0,0],"id":16,"left_children":[1,3,5,-1,-1,-1,-1],"loss_changes":[2.3685623E2,7.45932E1,9.3807915E1,0E0,0E0,0E0,0E0],"parents":[2147483647,0,0,1,1,2,2],"right_children":[2,4,6,-1,-1,-1,-1],"split_conditions":[1.45E1,8.5E0,-1.95E0,-1.0796622E-3,-4.44339E-3,-2.0019552E-3,1.6906118E-3],"split_indices":[51,103,77,0,0,0,0],"split_type":[0,0,0,0,0,0,0],"sum_hessian":[6.227216E3,3.0564102E3,3.1708054E3,9.6333093E2,2.0930793E3,1.00769165E3,2.1631138E3],"tree_param":{"num_deleted":"0","num_feature":"106","num_nodes":"7","size_leaf_vector":"0"}},{"base_weights":[1.3979347E-1,3.383897E-1,-5.1684175E-2,1.0796623E-1,4.4433892E-1,2.0019554E-1,-1.6906121E-1],"categories":[],"categories_nodes":[],"categories_segments":[],"categories_sizes":[],"default_left":[1,1,1,0,0,0,0],"id":17,"left_children":[1,3,5,-1,-1,-1,-1],"loss_changes":[2.3685617E2,7.459317E1,9.3807945E1,0E0,0E0,0E0,0E0],"parents":[2147483647,0,0,1,1,2,2],"right_children":[2,4,6,-1,-1,-1,-1],"split_conditions":[1.45E1,8.5E0,-1.95E0,1.0796622E-3,4.443389E-3,2.0019554E-3,-1.690612E-3],"split_indices":[51,103,77,0,0,0,0],"split_type":[0,0,0,0,0,0,0],"sum_hessian":[6.227216E3,3.0564102E3,3.1708057E3,9.6333093E2,2.0930793E3,1.00769165E3,2.163114E3],"tree_param":{"num_deleted":"0","num_feature":"106","num_nodes":"7","size_leaf_vector":"0"}},{"base_weights":[-1.3841526E-1,1.1168311E-1,-2.8789076E-1,-1.819504E-1,2.0074372E-1,-1.3540488E-1,-4.572926E-1],"categories":[],"categories_nodes":[],"categories_segments":[],"categories_sizes":[],"default_left":[1,1,1,0,0,0,0],"id":18,"left_children":[1,3,5,-1,-1,-1,-1],"loss_changes":[2.3283398E2,6.0976746E1,1.0063077E2,0E0,0E0,0E0,0E0],"parents":[2147483647,0,0,1,1,2,2],"right_children":[2,4,6,-1,-1,-1,-1],"split_conditions":[4.585E-1,3.725E-1,1.35E1,-1.819504E-3,2.0074372E-3,-1.3540488E-3,-4.5729256E-3],"split_indices":[3,55,80,0,0,0,0],"split_type":[0,0,0,0,0,0,0],"sum_hessian":[6.2263813E3,2.3293047E3,3.8970764E3,5.4183325E2,1.7874713E3,2.0518853E3,1.8451914E3],"tree_param":{"num_deleted":"0","num_feature":"106","num_nodes":"7","size_leaf_vector":"0"}},{"base_weights":[1.3841528E-1,-1.1168313E-1,2.8789082E-1,1.8195032E-1,-2.0074373E-1,1.3540496E-1,4.5729256E-1],"categories":[],"categories_nodes":[],"categories_segments":[],"categories_sizes":[],"default_left":[1,1,1,0,0,0,0],"id":19,"left_children":[1,3,5,-1,-1,-1,-1],"loss_changes":[2.3283401E2,6.097672E1,1.0063077E2,0E0,0E0,0E0,0E0],"parents":[2147483647,0,0,1,1,2,2],"right_children":[2,4,6,-1,-1,-1,-1],"split_conditions":[4.585E-1,3.725E-1,1.35E1,1.8195031E-3,-2.0074374E-3,1.3540495E-3,4.5729256E-3],"split_indices":[3,55,80,0,0,0,0],"split_type":[0,0,0,0,0,0,0],"sum_hessian":[6.2263813E3,2.3293047E3,3.8970764E3,5.418333E2,1.7874713E3,2.0518853E3,1.8451914E3],"tree_param":{"num_deleted":"0","num_feature":"106","num_nodes":"7","size_leaf_vector":"0"}},{"base_weights":[-1.3705112E-1,-3.324134E-1,5.124746E-2,-4.2679933E-1,-8.158058E-2,-1.9658922E-1,1.6673271E-1],"categories":[],"categories_nodes":[],"categories_segments":[],"categories_sizes":[],"default_left":[1,1,1,0,0,0,0],"id":20,"left_children":[1,3,5,-1,-1,-1,-1],"loss_changes":[2.2906874E2,7.2318085E1,9.080433E1,0E0,0E0,0E0,0E0],"parents":[2147483647,0,0,1,1,2,2],"right_children":[2,4,6,-1,-1,-1,-1],"split_conditions":[1.45E1,3.75E0,-1.95E0,-4.2679934E-3,-8.1580575E-4,-1.965892E-3,1.6673271E-3],"split_indices":[51,77,77,0,0,0,0],"split_type":[0,0,0,0,0,0,0],"sum_hessian":[6.2255254E3,3.0550771E3,3.1704482E3,2.2192817E3,8.3579553E2,1.00753326E3,2.162915E3],"tree_param":{"num_deleted":"0","num_feature":"106","num_nodes":"7","size_leaf_vector":"0"}},{"base_weights":[1.370511E-1,3.324134E-1,-5.1247492E-2,4.2679933E-1,8.158057E-2,1.965892E-1,-1.6673274E-1],"categories":[],"categories_nodes":[],"categories_segments":[],"categories_sizes":[],"default_left":[1,1,1,0,0,0,0],"id":21,"left_children":[1,3,5,-1,-1,-1,-1],"loss_changes":[2.2906879E2,7.2318085E1,9.080434E1,0E0,0E0,0E0,0E0],"parents":[2147483647,0,0,1,1,2,2],"right_children":[2,4,6,-1,-1,-1,-1],"split_conditions":[1.45E1,3.75E0,-1.95E0,4.2679934E-3,8.158057E-4,1.965892E-3,-1.6673274E-3],"split_indices":[51,77,77,0,0,0,0],"split_type":[0,0,0,0,0,0,0],"sum_hessian":[6.225526E3,3.0550771E3,3.1704485E3,2.2192817E3,8.3579553E2,1.00753326E3,2.1629153E3],"tree_param":{"num_deleted":"0","num_feature":"106","num_nodes":"7","size_leaf_vector":"0"}},{"base_weights":[-1.3570322E-1,1.10247955E-1,-2.8274053E-1,-1.7830555E-1,1.9776537E-1,-7.722748E-2,-4.050567E-1],"categories":[],"categories_nodes":[],"categories_segments":[],"categories_sizes":[],"default_left":[1,1,1,0,0,0,0],"id":22,"left_children":[1,3,5,-1,-1,-1,-1],"loss_changes":[2.251715E2,5.88762E1,9.791785E1,0E0,0E0,0E0,0E0],"parents":[2147483647,0,0,1,1,2,2],"right_children":[2,4,6,-1,-1,-1,-1],"split_conditions":[4.585E-1,3.725E-1,1.05E1,-1.7830555E-3,1.9776537E-3,-7.722748E-4,-4.050567E-3],"split_indices":[3,55,103,0,0,0,0],"split_type":[0,0,0,0,0,0,0],"sum_hessian":[6.2245376E3,2.329015E3,3.895523E3,5.4175574E2,1.7872592E3,1.454065E3,2.441458E3],"tree_param":{"num_deleted":"0","num_feature":"106","num_nodes":"7","size_leaf_vector":"0"}},{"base_weights":[1.3570324E-1,-1.1024793E-1,2.8274053E-1,1.7830557E-1,-1.9776535E-1,7.722747E-2,4.050567E-1],"categories":[],"categories_nodes":[],"categories_segments":[],"categories_sizes":[],"default_left":[1,1,1,0,0,0,0],"id":23,"left_children":[1,3,5,-1,-1,-1,-1],"loss_changes":[2.2517148E2,5.8876198E1,9.7917816E1,0E0,0E0,0E0,0E0],"parents":[2147483647,0,0,1,1,2,2],"right_children":[2,4,6,-1,-1,-1,-1],"split_conditions":[4.585E-1,3.725E-1,1.05E1,1.7830556E-3,-1.9776535E-3,7.7227474E-4,4.050567E-3],"split_indices":[3,55,103,0,0,0,0],"split_type":[0,0,0,0,0,0,0],"sum_hessian":[6.2245376E3,2.329015E3,3.8955227E3,5.4175574E2,1.787259E3,1.454065E3,2.441458E3],"tree_param":{"num_deleted":"0","num_feature":"106","num_nodes":"7","size_leaf_vector":"0"}},{"base_weights":[-1.3436878E-1,-3.265649E-1,5.0808292E-2,-1.7600743E-1,-4.7987172E-1,-1.9313867E-1,1.6447261E-1],"categories":[],"categories_nodes":[],"categories_segments":[],"categories_sizes":[],"default_left":[1,1,1,0,0,0,0],"id":24,"left_children":[1,3,5,-1,-1,-1,-1],"loss_changes":[2.215499E2,7.0418304E1,8.795808E1,0E0,0E0,0E0,0E0],"parents":[2147483647,0,0,1,1,2,2],"right_children":[2,4,6,-1,-1,-1,-1],"split_conditions":[1.45E1,1.25E1,-1.95E0,-1.7600743E-3,-4.798717E-3,-1.9313867E-3,1.644726E-3],"split_indices":[51,80,77,0,0,0,0],"split_type":[0,0,0,0,0,0,0],"sum_hessian":[6.223538E3,3.0535164E3,3.170022E3,1.5416558E3,1.5118605E3,1.0073478E3,2.1626743E3],"tree_param":{"num_deleted":"0","num_feature":"106","num_nodes":"7","size_leaf_vector":"0"}},{"base_weights":[1.343688E-1,3.2656494E-1,-5.0808277E-2,1.7600743E-1,4.7987175E-1,1.9313869E-1,-1.6447261E-1],"categories":[],"categories_nodes":[],"categories_segments":[],"categories_sizes":[],"default_left":[1,1,1,0,0,0,0],"id":25,"left_children":[1,3,5,-1,-1,-1,-1],"loss_changes":[2.215499E2,7.0418335E1,8.795808E1,0E0,0E0,0E0,0E0],"parents":[2147483647,0,0,1,1,2,2],"right_children":[2,4,6,-1,-1,-1,-1],"split_conditions":[1.45E1,1.25E1,-1.95E0,1.7600743E-3,4.7987173E-3,1.9313869E-3,-1.644726E-3],"split_indices":[51,80,77,0,0,0,0],"split_type":[0,0,0,0,0,0,0],"sum_hessian":[6.2235386E3,3.0535164E3,3.170022E3,1.5416559E3,1.5118606E3,1.0073478E3,2.1626743E3],"tree_param":{"num_deleted":"0","num_feature":"106","num_nodes":"7","size_leaf_vector":"0"}},{"base_weights":[-1.3305165E-1,1.0883054E-1,-2.7770337E-1,-1.7471111E-1,1.9482487E-1,-5.1318175E-1,-1.7399728E-1],"categories":[],"categories_nodes":[],"categories_segments":[],"categories_sizes":[],"default_left":[1,1,1,0,0,0,0],"id":26,"left_children":[1,3,5,-1,-1,-1,-1],"loss_changes":[2.1777747E2,5.6838417E1,9.502115E1,0E0,0E0,0E0,0E0],"parents":[2147483647,0,0,1,1,2,2],"right_children":[2,4,6,-1,-1,-1,-1],"split_conditions":[4.585E-1,3.725E-1,-1.75E0,-1.7471111E-3,1.9482487E-3,-5.1318174E-3,-1.7399727E-3],"split_indices":[3,55,77,0,0,0,0],"split_type":[0,0,0,0,0,0,0],"sum_hessian":[6.2223633E3,2.3286736E3,3.8936897E3,5.4166315E2,1.7870105E3,1.1892932E3,2.7043965E3],"tree_param":{"num_deleted":"0","num_feature":"106","num_nodes":"7","size_leaf_vector":"0"}},{"base_weights":[1.3305166E-1,-1.0883046E-1,2.7770332E-1,1.7471121E-1,-1.948248E-1,5.131817E-1,1.7399725E-1],"categories":[],"categories_nodes":[],"categories_segments":[],"categories_sizes":[],"default_left":[1,1,1,0,0,0,0],"id":27,"left_children":[1,3,5,-1,-1,-1,-1],"loss_changes":[2.1777733E2,5.683843E1,9.502109E1,0E0,0E0,0E0,0E0],"parents":[2147483647,0,0,1,1,2,2],"right_children":[2,4,6,-1,-1,-1,-1],"split_conditions":[4.585E-1,3.725E-1,-1.75E0,1.7471121E-3,-1.948248E-3,5.131817E-3,1.7399725E-3],"split_indices":[3,55,77,0,0,0,0],"split_type":[0,0,0,0,0,0,0],"sum_hessian":[6.222364E3,2.3286738E3,3.8936897E3,5.4166315E2,1.7870106E3,1.1892933E3,2.7043965E3],"tree_param":{"num_deleted":"0","num_feature":"106","num_nodes":"7","size_leaf_vector":"0"}},{"base_weights":[-1.3174626E-1,-3.2083553E-1,5.035962E-2,-4.1284266E-1,-7.66348E-2,-1.894421E-1,1.6207908E-1],"categories":[],"categories_nodes":[],"categories_segments":[],"categories_sizes":[],"default_left":[1,1,1,0,0,0,0],"id":28,"left_children":[1,3,5,-1,-1,-1,-1],"loss_changes":[2.1427448E2,6.855765E1,8.497045E1,0E0,0E0,0E0,0E0],"parents":[2147483647,0,0,1,1,2,2],"right_children":[2,4,6,-1,-1,-1,-1],"split_conditions":[1.45E1,3.75E0,-1.95E0,-4.1284263E-3,-7.66348E-4,-1.894421E-3,1.6207908E-3],"split_indices":[51,77,77,0,0,0,0],"split_type":[0,0,0,0,0,0,0],"sum_hessian":[6.221241E3,3.0517258E3,3.1695151E3,2.2160845E3,8.356414E2,1.0071051E3,2.1624102E3],"tree_param":{"num_deleted":"0","num_feature":"106","num_nodes":"7","size_leaf_vector":"0"}},{"base_weights":[1.3174626E-1,3.208355E-1,-5.0359596E-2,4.1284266E-1,7.663471E-2,1.894421E-1,-1.6207904E-1],"categories":[],"categories_nodes":[],"categories_segments":[],"categories_sizes":[],"default_left":[1,1,1,0,0,0,0],"id":29,"left_children":[1,3,5,-1,-1,-1,-1],"loss_changes":[2.142744E2,6.855771E1,8.497043E1,0E0,0E0,0E0,0E0],"parents":[2147483647,0,0,1,1,2,2],"right_children":[2,4,6,-1,-1,-1,-1],"split_conditions":[1.45E1,3.75E0,-1.95E0,4.1284263E-3,7.663471E-4,1.894421E-3,-1.6207903E-3],"split_indices":[51,77,77,0,0,0,0],"split_type":[0,0,0,0,0,0,0],"sum_hessian":[6.221241E3,3.051726E3,3.1695154E3,2.2160845E3,8.356415E2,1.00710516E3,2.1624102E3],"tree_param":{"num_deleted":"0","num_feature":"106","num_nodes":"7","size_leaf_vector":"0"}},{"base_weights":[-1.304569E-1,-2.2924574E-1,2.128937E-1,-7.922652E-2,-3.9385247E-1,2.7656585E-1,-9.531603E-2],"categories":[],"categories_nodes":[],"categories_segments":[],"categories_sizes":[],"default_left":[1,1,1,0,0,0,0],"id":30,"left_children":[1,3,5,-1,-1,-1,-1],"loss_changes":[2.1105872E2,1.1927789E2,2.7313847E1,0E0,0E0,0E0,0E0],"parents":[2147483647,0,0,1,1,2,2],"right_children":[2,4,6,-1,-1,-1,-1],"split_conditions":[2.35E1,1.35E1,2.45E1,-7.9226523E-4,-3.9385245E-3,2.7656585E-3,-9.531603E-4],"split_indices":[51,80,81,0,0,0,0],"split_type":[0,0,0,0,0,0,0],"sum_hessian":[6.2199565E3,4.830467E3,1.3894896E3,2.5279897E3,2.302477E3,1.1516719E3,2.3781781E2],"tree_param":{"num_deleted":"0","num_feature":"106","num_nodes":"7","size_leaf_vector":"0"}},{"base_weights":[1.304569E-1,2.2924572E-1,-2.1289366E-1,7.922653E-2,3.9385244E-1,-2.7656576E-1,9.531595E-2],"categories":[],"categories_nodes":[],"categories_segments":[],"categories_sizes":[],"default_left":[1,1,1,0,0,0,0],"id":31,"left_children":[1,3,5,-1,-1,-1,-1],"loss_changes":[2.1105869E2,1.1927783E2,2.7313831E1,0E0,0E0,0E0,0E0],"parents":[2147483647,0,0,1,1,2,2],"right_children":[2,4,6,-1,-1,-1,-1],"split_conditions":[2.35E1,1.35E1,2.45E1,7.922653E-4,3.9385245E-3,-2.7656576E-3,9.5315947E-4],"split_indices":[51,80,81,0,0,0,0],"split_type":[0,0,0,0,0,0,0],"sum_hessian":[6.2199565E3,4.830467E3,1.3894897E3,2.5279897E3,2.302477E3,1.1516719E3,2.3781783E2],"tree_param":{"num_deleted":"0","num_feature":"106","num_nodes":"7","size_leaf_vector":"0"}},{"base_weights":[-1.291764E-1,-3.15565E-1,5.024498E-2,-9.797635E-2,-4.1587415E-1,-1.8577422E-1,1.6018645E-1],"categories":[],"categories_nodes":[],"categories_segments":[],"categories_sizes":[],"default_left":[1,1,1,0,0,0,0],"id":32,"left_children":[1,3,5,-1,-1,-1,-1],"loss_changes":[2.0802014E2,6.6546875E1,8.2286156E1,0E0,0E0,0E0,0E0],"parents":[2147483647,0,0,1,1,2,2],"right_children":[2,4,6,-1,-1,-1,-1],"split_conditions":[1.45E1,8.5E0,-1.95E0,-9.797635E-4,-4.1587413E-3,-1.8577422E-3,1.6018645E-3],"split_indices":[51,103,77,0,0,0,0],"split_type":[0,0,0,0,0,0,0],"sum_hessian":[6.2188335E3,3.0498223E3,3.169011E3,9.6296155E2,2.0868608E3,1.00684827E3,2.1621628E3],"tree_param":{"num_deleted":"0","num_feature":"106","num_nodes":"7","size_leaf_vector":"0"}},{"base_weights":[1.291764E-1,3.1556502E-1,-5.024498E-2,9.7976424E-2,4.1587415E-1,1.8577419E-1,-1.6018644E-1],"categories":[],"categories_nodes":[],"categories_segments":[],"categories_sizes":[],"default_left":[1,1,1,0,0,0,0],"id":33,"left_children":[1,3,5,-1,-1,-1,-1],"loss_changes":[2.0802014E2,6.6546875E1,8.2286125E1,0E0,0E0,0E0,0E0],"parents":[2147483647,0,0,1,1,2,2],"right_children":[2,4,6,-1,-1,-1,-1],"split_conditions":[1.45E1,8.5E0,-1.95E0,9.797643E-4,4.1587413E-3,1.8577419E-3,-1.6018644E-3],"split_indices":[51,103,77,0,0,0,0],"split_type":[0,0,0,0,0,0,0],"sum_hessian":[6.218833E3,3.0498223E3,3.169011E3,9.629615E2,2.0868606E3,1.0068483E3,2.1621628E3],"tree_param":{"num_deleted":"0","num_feature":"106","num_nodes":"7","size_leaf_vector":"0"}},{"base_weights":[-1.279152E-1,1.06868014E-1,-2.6842424E-1,-1.6780114E-1,1.9016138E-1,-7.1078494E-2,-3.861072E-1],"categories":[],"categories_nodes":[],"categories_segments":[],"categories_sizes":[],"default_left":[1,1,1,0,0,0,0],"id":34,"left_children":[1,3,5,-1,-1,-1,-1],"loss_changes":[2.0516875E2,5.331231E1,9.032706E1,0E0,0E0,0E0,0E0],"parents":[2147483647,0,0,1,1,2,2],"right_children":[2,4,6,-1,-1,-1,-1],"split_conditions":[4.585E-1,3.725E-1,1.05E1,-1.6780114E-3,1.9016138E-3,-7.107849E-4,-3.861072E-3],"split_indices":[3,55,103,0,0,0,0],"split_type":[0,0,0,0,0,0,0],"sum_hessian":[6.2174077E3,2.3278806E3,3.889527E3,5.414324E2,1.7864484E3,1.4535813E3,2.4359458E3],"tree_param":{"num_deleted":"0","num_feature":"106","num_nodes":"7","size_leaf_vector":"0"}},{"base_weights":[1.279152E-1,-1.0686799E-1,2.684242E-1,1.6780117E-1,-1.9016135E-1,7.1078464E-2,3.861072E-1],"categories":[],"categories_nodes":[],"categories_segments":[],"categories_sizes":[],"default_left":[1,1,1,0,0,0,0],"id":35,"left_children":[1,3,5,-1,-1,-1,-1],"loss_changes":[2.0516869E2,5.331232E1,9.032706E1,0E0,0E0,0E0,0E0],"parents":[2147483647,0,0,1,1,2,2],"right_children":[2,4,6,-1,-1,-1,-1],"split_conditions":[4.585E-1,3.725E-1,1.05E1,1.6780117E-3,-1.9016134E-3,7.1078463E-4,3.861072E-3],"split_indices":[3,55,103,0,0,0,0],"split_type":[0,0,0,0,0,0,0],"sum_hessian":[6.2174077E3,2.3278806E3,3.889527E3,5.414324E2,1.7864484E3,1.4535813E3,2.4359458E3],"tree_param":{"num_deleted":"0","num_feature":"106","num_nodes":"7","size_leaf_vector":"0"}},{"base_weights":[-1.2666568E-1,-2.2337747E-1,2.0931955E-1,-7.651915E-2,-3.8467386E-1,2.7138793E-1,-9.1120265E-2],"categories":[],"categories_nodes":[],"categories_segments":[],"categories_sizes":[],"default_left":[1,1,1,0,0,0,0],"id":36,"left_children":[1,3,5,-1,-1,-1,-1],"loss_changes":[2.020604E2,1.1433322E2,2.5946571E1,0E0,0E0,0E0,0E0],"parents":[2147483647,0,0,1,1,2,2],"right_children":[2,4,6,-1,-1,-1,-1],"split_conditions":[2.35E1,1.35E1,2.45E1,-7.6519145E-4,-3.8467385E-3,2.7138793E-3,-9.1120263E-4],"split_indices":[51,80,81,0,0,0,0],"split_type":[0,0,0,0,0,0,0],"sum_hessian":[6.216004E3,4.82693E3,1.3890741E3,2.5273154E3,2.2996145E3,1.151318E3,2.3775604E2],"tree_param":{"num_deleted":"0","num_feature":"106","num_nodes":"7","size_leaf_vector":"0"}},{"base_weights":[1.2666568E-1,2.2337747E-1,-2.0931953E-1,7.651916E-2,3.8467383E-1,-2.713879E-1,9.112029E-2],"categories":[],"categories_nodes":[],"categories_segments":[],"categories_sizes":[],"default_left":[1,1,1,0,0,0,0],"id":37,"left_children":[1,3,5,-1,-1,-1,-1],"loss_changes":[2.020604E2,1.1433316E2,2.5946571E1,0E0,0E0,0E0,0E0],"parents":[2147483647,0,0,1,1,2,2],"right_children":[2,4,6,-1,-1,-1,-1],"split_conditions":[2.35E1,1.35E1,2.45E1,7.651916E-4,3.8467383E-3,-2.7138789E-3,9.1120286E-4],"split_indices":[51,80,81,0,0,0,0],"split_type":[0,0,0,0,0,0,0],"sum_hessian":[6.216004E3,4.82693E3,1.3890741E3,2.5273154E3,2.2996145E3,1.151318E3,2.3775606E2],"tree_param":{"num_deleted":"0","num_feature":"106","num_nodes":"7","size_leaf_vector":"0"}},{"base_weights":[-1.2542619E-1,-3.079775E-1,5.016893E-2,-3.9686394E-1,-7.254177E-2,-1.8079197E-1,1.577298E-1],"categories":[],"categories_nodes":[],"categories_segments":[],"categories_sizes":[],"default_left":[1,1,1,0,0,0,0],"id":38,"left_children":[1,3,5,-1,-1,-1,-1],"loss_changes":[1.9926025E2,6.3748993E1,7.875569E1,0E0,0E0,0E0,0E0],"parents":[2147483647,0,0,1,1,2,2],"right_children":[2,4,6,-1,-1,-1,-1],"split_conditions":[1.45E1,3.75E0,-1.95E0,-3.9686393E-3,-7.254177E-4,-1.8079197E-3,1.577298E-3],"split_indices":[51,77,77,0,0,0,0],"split_type":[0,0,0,0,0,0,0],"sum_hessian":[6.2146943E3,3.0466243E3,3.16807E3,2.211143E3,8.3548114E2,1.00639667E3,2.1616736E3],"tree_param":{"num_deleted":"0","num_feature":"106","num_nodes":"7","size_leaf_vector":"0"}},{"base_weights":[1.2542619E-1,3.0797747E-1,-5.0168894E-2,3.9686397E-1,7.2541684E-2,1.8079197E-1,-1.5772976E-1],"categories":[],"categories_nodes":[],"categories_segments":[],"categories_sizes":[],"default_left":[1,1,1,0,0,0,0],"id":39,"left_children":[1,3,5,-1,-1,-1,-1],"loss_changes":[1.992602E2,6.3749054E1,7.875567E1,0E0,0E0,0E0,0E0],"parents":[2147483647,0,0,1,1,2,2],"right_children":[2,4,6,-1,-1,-1,-1],"split_conditions":[1.45E1,3.75E0,-1.95E0,3.9686398E-3,7.254168E-4,1.8079197E-3,-1.5772976E-3],"split_indices":[51,77,77,0,0,0,0],"split_type":[0,0,0,0,0,0,0],"sum_hessian":[6.2146943E3,3.0466243E3,3.1680703E3,2.211143E3,8.3548114E2,1.0063966E3,2.1616736E3],"tree_param":{"num_deleted":"0","num_feature":"106","num_nodes":"7","size_leaf_vector":"0"}},{"base_weights":[-1.24204956E-1,1.2778889E-1,-2.4947168E-1,-9.352457E-2,2.3194204E-1,-1.0931566E-1,-4.046735E-1],"categories":[],"categories_nodes":[],"categories_segments":[],"categories_sizes":[],"default_left":[1,1,1,0,0,0,0],"id":40,"left_children":[1,3,5,-1,-1,-1,-1],"loss_changes":[1.9618898E2,4.7598156E1,9.025223E1,0E0,0E0,0E0,0E0],"parents":[2147483647,0,0,1,1,2,2],"right_children":[2,4,6,-1,-1,-1,-1],"split_conditions":[-1.6500001E0,-2.05E0,1.35E1,-9.3524565E-4,2.3194205E-3,-1.0931566E-3,-4.046735E-3],"split_indices":[25,77,80,0,0,0,0],"split_type":[0,0,0,0,0,0,0],"sum_hessian":[6.2131016E3,2.0630103E3,4.1500913E3,6.602203E2,1.4027899E3,2.181646E3,1.9684456E3],"tree_param":{"num_deleted":"0","num_feature":"106","num_nodes":"7","size_leaf_vector":"0"}},{"base_weights":[1.24204956E-1,-1.2778892E-1,2.494717E-1,9.352455E-2,-2.3194206E-1,1.0931567E-1,4.0467352E-1],"categories":[],"categories_nodes":[],"categories_segments":[],"categories_sizes":[],"default_left":[1,1,1,0,0,0,0],"id":41,"left_children":[1,3,5,-1,-1,-1,-1],"loss_changes":[1.9618903E2,4.7598156E1,9.025223E1,0E0,0E0,0E0,0E0],"parents":[2147483647,0,0,1,1,2,2],"right_children":[2,4,6,-1,-1,-1,-1],"split_conditions":[-1.6500001E0,-2.05E0,1.35E1,9.352455E-4,-2.3194205E-3,1.0931566E-3,4.046735E-3],"split_indices":[25,77,80,0,0,0,0],"split_type":[0,0,0,0,0,0,0],"sum_hessian":[6.2131016E3,2.0630103E3,4.1500913E3,6.602203E2,1.40279E3,2.181646E3,1.9684456E3],"tree_param":{"num_deleted":"0","num_feature":"106","num_nodes":"7","size_leaf_vector":"0"}},{"base_weights":[-1.22994795E-1,-2.1759067E-1,2.0549215E-1,-7.4179634E-2,-3.752921E-1,3.4534995E-2,3.0956134E-1],"categories":[],"categories_nodes":[],"categories_segments":[],"categories_sizes":[],"default_left":[1,1,1,0,0,0,0],"id":42,"left_children":[1,3,5,-1,-1,-1,-1],"loss_changes":[1.9309009E2,1.09071915E2,2.4711452E1,0E0,0E0,0E0,0E0],"parents":[2147483647,0,0,1,1,2,2],"right_children":[2,4,6,-1,-1,-1,-1],"split_conditions":[2.35E1,1.35E1,4.5749998E-1,-7.4179634E-4,-3.7529208E-3,3.4534992E-4,3.0956133E-3],"split_indices":[51,80,55,0,0,0,0],"split_type":[0,0,0,0,0,0,0],"sum_hessian":[6.2115386E3,4.8229805E3,1.3885581E3,2.5267063E3,2.2962742E3,5.259304E2,8.626277E2],"tree_param":{"num_deleted":"0","num_feature":"106","num_nodes":"7","size_leaf_vector":"0"}},{"base_weights":[1.2299479E-1,2.1759067E-1,-2.0549215E-1,7.417964E-2,3.752921E-1,-3.4535013E-2,-3.0956134E-1],"categories":[],"categories_nodes":[],"categories_segments":[],"categories_sizes":[],"default_left":[1,1,1,0,0,0,0],"id":43,"left_children":[1,3,5,-1,-1,-1,-1],"loss_changes":[1.9309009E2,1.0907185E2,2.471146E1,0E0,0E0,0E0,0E0],"parents":[2147483647,0,0,1,1,2,2],"right_children":[2,4,6,-1,-1,-1,-1],"split_conditions":[2.35E1,1.35E1,4.5749998E-1,7.417964E-4,3.7529208E-3,-3.4535013E-4,-3.0956133E-3],"split_indices":[51,80,55,0,0,0,0],"split_type":[0,0,0,0,0,0,0],"sum_hessian":[6.2115386E3,4.8229805E3,1.3885581E3,2.5267063E3,2.2962742E3,5.259304E2,8.626277E2],"tree_param":{"num_deleted":"0","num_feature":"106","num_nodes":"7","size_leaf_vector":"0"}},{"base_weights":[-1.2179456E-1,-3.0063605E-1,5.0091173E-2,-3.8785917E-1,-6.993384E-2,-1.75387E-1,1.5507174E-1],"categories":[],"categories_nodes":[],"categories_segments":[],"categories_sizes":[],"default_left":[1,1,1,0,0,0,0],"id":44,"left_children":[1,3,5,-1,-1,-1,-1],"loss_changes":[1.9094452E2,6.122754E1,7.501568E1,0E0,0E0,0E0,0E0],"parents":[2147483647,0,0,1,1,2,2],"right_children":[2,4,6,-1,-1,-1,-1],"split_conditions":[1.45E1,3.75E0,-1.95E0,-3.8785916E-3,-6.993384E-4,-1.7538699E-3,1.5507173E-3],"split_indices":[51,77,77,0,0,0,0],"split_type":[0,0,0,0,0,0,0],"sum_hessian":[6.210048E3,3.043077E3,3.166971E3,2.2077114E3,8.3536536E2,1.0058744E3,2.1610964E3],"tree_param":{"num_deleted":"0","num_feature":"106","num_nodes":"7","size_leaf_vector":"0"}},{"base_weights":[1.2179455E-1,3.0063602E-1,-5.009118E-2,3.878591E-1,6.993395E-2,1.7538697E-1,-1.5507174E-1],"categories":[],"categories_nodes":[],"categories_segments":[],"categories_sizes":[],"default_left":[1,1,1,0,0,0,0],"id":45,"left_children":[1,3,5,-1,-1,-1,-1],"loss_changes":[1.9094453E2,6.1227448E1,7.501567E1,0E0,0E0,0E0,0E0],"parents":[2147483647,0,0,1,1,2,2],"right_children":[2,4,6,-1,-1,-1,-1],"split_conditions":[1.45E1,3.75E0,-1.95E0,3.878591E-3,6.993395E-4,1.7538696E-3,-1.5507173E-3],"split_indices":[51,77,77,0,0,0,0],"split_type":[0,0,0,0,0,0,0],"sum_hessian":[6.210048E3,3.043077E3,3.166971E3,2.2077117E3,8.3536536E2,1.00587445E3,2.1610964E3],"tree_param":{"num_deleted":"0","num_feature":"106","num_nodes":"7","size_leaf_vector":"0"}},{"base_weights":[-1.2061192E-1,9.291377E-2,-2.624359E-1,-9.626647E-2,2.0325857E-1,-1.2420774E-1,-4.1717967E-1],"categories":[],"categories_nodes":[],"categories_segments":[],"categories_sizes":[],"default_left":[1,1,1,0,0,0,0],"id":46,"left_children":[1,3,5,-1,-1,-1,-1],"loss_changes":[1.8806078E2,5.1767487E1,7.976166E1,0E0,0E0,0E0,0E0],"parents":[2147483647,0,0,1,1,2,2],"right_children":[2,4,6,-1,-1,-1,-1],"split_conditions":[4.7149998E-1,4.475E-1,1.35E1,-9.6266466E-4,2.0325857E-3,-1.2420774E-3,-4.1717966E-3],"split_indices":[3,55,80,0,0,0,0],"split_type":[0,0,0,0,0,0,0],"sum_hessian":[6.208291E3,2.4779353E3,3.7303557E3,9.1291656E2,1.5650188E3,1.9712747E3,1.7590809E3],"tree_param":{"num_deleted":"0","num_feature":"106","num_nodes":"7","size_leaf_vector":"0"}},{"base_weights":[1.2061195E-1,-9.291376E-2,2.6243597E-1,9.626646E-2,-2.0325856E-1,1.242078E-1,4.1717967E-1],"categories":[],"categories_nodes":[],"categories_segments":[],"categories_sizes":[],"default_left":[1,1,1,0,0,0,0],"id":47,"left_children":[1,3,5,-1,-1,-1,-1],"loss_changes":[1.8806082E2,5.176748E1,7.976166E1,0E0,0E0,0E0,0E0],"parents":[2147483647,0,0,1,1,2,2],"right_children":[2,4,6,-1,-1,-1,-1],"split_conditions":[4.7149998E-1,4.475E-1,1.35E1,9.626646E-4,-2.0325854E-3,1.242078E-3,4.1717966E-3],"split_indices":[3,55,80,0,0,0,0],"split_type":[0,0,0,0,0,0,0],"sum_hessian":[6.208291E3,2.4779353E3,3.7303557E3,9.1291656E2,1.5650188E3,1.9712747E3,1.7590809E3],"tree_param":{"num_deleted":"0","num_feature":"106","num_nodes":"7","size_leaf_vector":"0"}},{"base_weights":[-1.1944037E-1,-2.1209867E-1,2.0214838E-1,-7.202421E-2,-3.6633906E-1,2.6156712E-1,-8.535502E-2],"categories":[],"categories_nodes":[],"categories_segments":[],"categories_sizes":[],"default_left":[1,1,1,0,0,0,0],"id":48,"left_children":[1,3,5,-1,-1,-1,-1],"loss_changes":[1.8501472E2,1.0410048E2,2.3750912E1,0E0,0E0,0E0,0E0],"parents":[2147483647,0,0,1,1,2,2],"right_children":[2,4,6,-1,-1,-1,-1],"split_conditions":[2.35E1,1.35E1,2.45E1,-7.202421E-4,-3.6633904E-3,2.6156711E-3,-8.535502E-4],"split_indices":[51,80,81,0,0,0,0],"split_type":[0,0,0,0,0,0,0],"sum_hessian":[6.206553E3,4.818543E3,1.3880103E3,2.5260032E3,2.2925398E3,1.150355E3,2.3765532E2],"tree_param":{"num_deleted":"0","num_feature":"106","num_nodes":"7","size_leaf_vector":"0"}},{"base_weights":[1.1944037E-1,2.1209866E-1,-2.0214833E-1,7.20242E-2,3.663391E-1,-2.6156706E-1,8.535503E-2],"categories":[],"categories_nodes":[],"categories_segments":[],"categories_sizes":[],"default_left":[1,1,1,0,0,0,0],"id":49,"left_children":[1,3,5,-1,-1,-1,-1],"loss_changes":[1.8501466E2,1.04100525E2,2.3750904E1,0E0,0E0,0E0,0E0],"parents":[2147483647,0,0,1,1,2,2],"right_children":[2,4,6,-1,-1,-1,-1],"split_conditions":[2.35E1,1.35E1,2.45E1,7.202419E-4,3.6633909E-3,-2.6156704E-3,8.535503E-4],"split_indices":[51,80,81,0,0,0,0],"split_type":[0,0,0,0,0,0,0],"sum_hessian":[6.206553E3,4.818543E3,1.3880104E3,2.526003E3,2.2925398E3,1.1503551E3,2.3765532E2],"tree_param":{"num_deleted":"0","num_feature":"106","num_nodes":"7","size_leaf_vector":"0"}},{"base_weights":[-1.1827809E-1,-2.9347527E-1,4.9951725E-2,-3.791024E-1,-6.7350075E-2,-1.7055546E-1,1.5258946E-1],"categories":[],"categories_nodes":[],"categories_segments":[],"categories_sizes":[],"default_left":[1,1,1,0,0,0,0],"id":50,"left_children":[1,3,5,-1,-1,-1,-1],"loss_changes":[1.8292377E2,5.8839172E1,7.1697266E1,0E0,0E0,0E0,0E0],"parents":[2147483647,0,0,1,1,2,2],"right_children":[2,4,6,-1,-1,-1,-1],"split_conditions":[1.45E1,3.75E0,-1.95E0,-3.791024E-3,-6.735007E-4,-1.7055545E-3,1.5258945E-3],"split_indices":[51,77,77,0,0,0,0],"split_type":[0,0,0,0,0,0,0],"sum_hessian":[6.204907E3,3.0391472E3,3.1657598E3,2.203912E3,8.35235E2,1.00530286E3,2.160457E3],"tree_param":{"num_deleted":"0","num_feature":"106","num_nodes":"7","size_leaf_vector":"0"}},{"base_weights":[1.1827809E-1,2.9347524E-1,-4.9951706E-2,3.791024E-1,6.734997E-2,1.7055546E-1,-1.5258944E-1],"categories":[],"categories_nodes":[],"categories_segments":[],"categories_sizes":[],"default_left":[1,1,1,0,0,0,0],"id":51,"left_children":[1,3,5,-1,-1,-1,-1],"loss_changes":[1.8292374E2,5.8839203E1,7.169726E1,0E0,0E0,0E0,0E0],"parents":[2147483647,0,0,1,1,2,2],"right_children":[2,4,6,-1,-1,-1,-1],"split_conditions":[1.45E1,3.75E0,-1.95E0,3.791024E-3,6.734997E-4,1.7055545E-3,-1.5258944E-3],"split_indices":[51,77,77,0,0,0,0],"split_type":[0,0,0,0,0,0,0],"sum_hessian":[6.204907E3,3.0391472E3,3.1657598E3,2.2039124E3,8.35235E2,1.00530286E3,2.160457E3],"tree_param":{"num_deleted":"0","num_feature":"106","num_nodes":"7","size_leaf_vector":"0"}},{"base_weights":[-1.17132485E-1,-2.2944641E-1,1.4146641E-1,-1.389017E-1,-4.5952326E-1,-1.3811274E-1,2.1446018E-1],"categories":[],"categories_nodes":[],"categories_segments":[],"categories_sizes":[],"default_left":[1,1,1,0,0,0,0],"id":52,"left_children":[1,3,5,-1,-1,-1,-1],"loss_changes":[1.8022308E2,9.005199E1,3.837979E1,0E0,0E0,0E0,0E0],"parents":[2147483647,0,0,1,1,2,2],"right_children":[2,4,6,-1,-1,-1,-1],"split_conditions":[1.95E1,1.95E1,3.585E-1,-1.389017E-3,-4.5952327E-3,-1.3811274E-3,2.1446017E-3],"split_indices":[28,80,55,0,0,0,0],"split_type":[0,0,0,0,0,0,0],"sum_hessian":[6.2030015E3,4.3247856E3,1.8782158E3,3.104601E3,1.2201847E3,3.886655E2,1.4895503E3],"tree_param":{"num_deleted":"0","num_feature":"106","num_nodes":"7","size_leaf_vector":"0"}},{"base_weights":[1.171325E-1,2.2944643E-1,-1.414664E-1,1.3890173E-1,4.5952326E-1,1.3811272E-1,-2.1446015E-1],"categories":[],"categories_nodes":[],"categories_segments":[],"categories_sizes":[],"default_left":[1,1,1,0,0,0,0],"id":53,"left_children":[1,3,5,-1,-1,-1,-1],"loss_changes":[1.8022307E2,9.005197E1,3.8379772E1,0E0,0E0,0E0,0E0],"parents":[2147483647,0,0,1,1,2,2],"right_children":[2,4,6,-1,-1,-1,-1],"split_conditions":[1.95E1,1.95E1,3.585E-1,1.3890172E-3,4.5952327E-3,1.3811272E-3,-2.1446014E-3],"split_indices":[28,80,55,0,0,0,0],"split_type":[0,0,0,0,0,0,0],"sum_hessian":[6.2030015E3,4.3247856E3,1.8782158E3,3.1046008E3,1.2201847E3,3.8866547E2,1.4895503E3],"tree_param":{"num_deleted":"0","num_feature":"106","num_nodes":"7","size_leaf_vector":"0"}},{"base_weights":[-1.15994744E-1,-2.885906E-1,4.96285E-2,-3.5555822E-1,-5.1080855E-3,-1.6729687E-1,1.5057698E-1],"categories":[],"categories_nodes":[],"categories_segments":[],"categories_sizes":[],"default_left":[1,1,1,0,0,0,0],"id":54,"left_children":[1,3,5,-1,-1,-1,-1],"loss_changes":[1.7731177E2,5.7659653E1,6.9353455E1,0E0,0E0,0E0,0E0],"parents":[2147483647,0,0,1,1,2,2],"right_children":[2,4,6,-1,-1,-1,-1],"split_conditions":[1.45E1,5.05E0,-1.95E0,-3.5555821E-3,-5.1080853E-5,-1.6729687E-3,1.5057698E-3],"split_indices":[51,77,77,0,0,0,0],"split_type":[0,0,0,0,0,0,0],"sum_hessian":[6.2012725E3,3.0363508E3,3.1649216E3,2.4559282E3,5.804228E2,1.0048881E3,2.1600334E3],"tree_param":{"num_deleted":"0","num_feature":"106","num_nodes":"7","size_leaf_vector":"0"}},{"base_weights":[1.1599476E-1,2.885906E-1,-4.9628478E-2,3.5555822E-1,5.1080836E-3,1.6729687E-1,-1.5057695E-1],"categories":[],"categories_nodes":[],"categories_segments":[],"categories_sizes":[],"default_left":[1,1,1,0,0,0,0],"id":55,"left_children":[1,3,5,-1,-1,-1,-1],"loss_changes":[1.7731177E2,5.7659683E1,6.9353424E1,0E0,0E0,0E0,0E0],"parents":[2147483647,0,0,1,1,2,2],"right_children":[2,4,6,-1,-1,-1,-1],"split_conditions":[1.45E1,5.05E0,-1.95E0,3.5555821E-3,5.1080835E-5,1.6729687E-3,-1.5057694E-3],"split_indices":[51,77,77,0,0,0,0],"split_type":[0,0,0,0,0,0,0],"sum_hessian":[6.2012725E3,3.0363508E3,3.1649214E3,2.4559282E3,5.804228E2,1.0048881E3,2.1600334E3],"tree_param":{"num_deleted":"0","num_feature":"106","num_nodes":"7","size_leaf_vector":"0"}},{"base_weights":[-1.1487205E-1,-2.051108E-1,1.9808653E-1,-6.8511344E-2,-3.5579205E-1,2.5557235E-1,-8.003044E-2],"categories":[],"categories_nodes":[],"categories_segments":[],"categories_sizes":[],"default_left":[1,1,1,0,0,0,0],"id":56,"left_children":[1,3,5,-1,-1,-1,-1],"loss_changes":[1.7514374E2,9.904416E1,2.2214516E1,0E0,0E0,0E0,0E0],"parents":[2147483647,0,0,1,1,2,2],"right_children":[2,4,6,-1,-1,-1,-1],"split_conditions":[2.35E1,1.35E1,2.45E1,-6.851134E-4,-3.5579205E-3,2.5557235E-3,-8.003044E-4],"split_indices":[51,80,81,0,0,0,0],"split_type":[0,0,0,0,0,0,0],"sum_hessian":[6.1993174E3,4.812129E3,1.3871888E3,2.5247666E3,2.287362E3,1.1496427E3,2.3754613E2],"tree_param":{"num_deleted":"0","num_feature":"106","num_nodes":"7","size_leaf_vector":"0"}},{"base_weights":[1.1487207E-1,2.0511083E-1,-1.9808654E-1,6.8511374E-2,3.5579208E-1,-2.5557235E-1,8.0030344E-2],"categories":[],"categories_nodes":[],"categories_segments":[],"categories_sizes":[],"default_left":[1,1,1,0,0,0,0],"id":57,"left_children":[1,3,5,-1,-1,-1,-1],"loss_changes":[1.751438E2,9.904416E1,2.2214504E1,0E0,0E0,0E0,0E0],"parents":[2147483647,0,0,1,1,2,2],"right_children":[2,4,6,-1,-1,-1,-1],"split_conditions":[2.35E1,1.35E1,2.45E1,6.851137E-4,3.5579207E-3,-2.5557235E-3,8.003034E-4],"split_indices":[51,80,81,0,0,0,0],"split_type":[0,0,0,0,0,0,0],"sum_hessian":[6.1993174E3,4.812129E3,1.3871888E3,2.5247666E3,2.287362E3,1.1496427E3,2.3754613E2],"tree_param":{"num_deleted":"0","num_feature":"106","num_nodes":"7","size_leaf_vector":"0"}},{"base_weights":[-1.1375761E-1,9.067464E-2,-2.4975058E-1,-9.019593E-2,1.9616438E-1,-1.91306E-2,-3.3647832E-1],"categories":[],"categories_nodes":[],"categories_segments":[],"categories_sizes":[],"default_left":[1,1,1,0,0,0,0],"id":58,"left_children":[1,3,5,-1,-1,-1,-1],"loss_changes":[1.7234906E2,4.7277023E1,7.4449554E1,0E0,0E0,0E0,0E0],"parents":[2147483647,0,0,1,1,2,2],"right_children":[2,4,6,-1,-1,-1,-1],"split_conditions":[4.7149998E-1,4.475E-1,7.5E0,-9.019593E-4,1.9616438E-3,-1.91306E-4,-3.3647832E-3],"split_indices":[3,55,103,0,0,0,0],"split_type":[0,0,0,0,0,0,0],"sum_hessian":[6.1974917E3,2.4759053E3,3.7215862E3,9.121303E2,1.563775E3,1.0174032E3,2.7041829E3],"tree_param":{"num_deleted":"0","num_feature":"106","num_nodes":"7","size_leaf_vector":"0"}},{"base_weights":[1.13757625E-1,-9.06746E-2,2.4975058E-1,9.019595E-2,-1.9616434E-1,1.9130677E-2,3.3647826E-1],"categories":[],"categories_nodes":[],"categories_segments":[],"categories_sizes":[],"default_left":[1,1,1,0,0,0,0],"id":59,"left_children":[1,3,5,-1,-1,-1,-1],"loss_changes":[1.7234903E2,4.7277016E1,7.444951E1,0E0,0E0,0E0,0E0],"parents":[2147483647,0,0,1,1,2,2],"right_children":[2,4,6,-1,-1,-1,-1],"split_conditions":[4.7149998E-1,4.475E-1,7.5E0,9.019594E-4,-1.9616433E-3,1.9130677E-4,3.3647825E-3],"split_indices":[3,55,103,0,0,0,0],"split_type":[0,0,0,0,0,0,0],"sum_hessian":[6.197491E3,2.4759053E3,3.7215862E3,9.121303E2,1.563775E3,1.0174032E3,2.7041829E3],"tree_param":{"num_deleted":"0","num_feature":"106","num_nodes":"7","size_leaf_vector":"0"}},{"base_weights":[-1.1265632E-1,-2.8176862E-1,4.9461957E-2,-3.474505E-1,-4.2011365E-3,-1.6281177E-1,1.4821695E-1],"categories":[],"categories_nodes":[],"categories_segments":[],"categories_sizes":[],"default_left":[1,1,1,0,0,0,0],"id":60,"left_children":[1,3,5,-1,-1,-1,-1],"loss_changes":[1.6989952E2,5.5293594E1,6.636272E1,0E0,0E0,0E0,0E0],"parents":[2147483647,0,0,1,1,2,2],"right_children":[2,4,6,-1,-1,-1,-1],"split_conditions":[1.45E1,5.05E0,-1.95E0,-3.474505E-3,-4.2011365E-5,-1.6281176E-3,1.4821695E-3],"split_indices":[51,77,77,0,0,0,0],"split_type":[0,0,0,0,0,0,0],"sum_hessian":[6.195541E3,3.031999E3,3.163542E3,2.4516128E3,5.8038635E2,1.004253E3,2.159289E3],"tree_param":{"num_deleted":"0","num_feature":"106","num_nodes":"7","size_leaf_vector":"0"}},{"base_weights":[1.12656295E-1,2.817686E-1,-4.946197E-2,3.4745046E-1,4.201053E-3,1.6281174E-1,-1.4821695E-1],"categories":[],"categories_nodes":[],"categories_segments":[],"categories_sizes":[],"default_left":[1,1,1,0,0,0,0],"id":61,"left_children":[1,3,5,-1,-1,-1,-1],"loss_changes":[1.6989948E2,5.529361E1,6.63627E1,0E0,0E0,0E0,0E0],"parents":[2147483647,0,0,1,1,2,2],"right_children":[2,4,6,-1,-1,-1,-1],"split_conditions":[1.45E1,5.05E0,-1.95E0,3.4745047E-3,4.201053E-5,1.6281174E-3,-1.4821695E-3],"split_indices":[51,77,77,0,0,0,0],"split_type":[0,0,0,0,0,0,0],"sum_hessian":[6.195541E3,3.031999E3,3.163542E3,2.4516128E3,5.8038635E2,1.004253E3,2.159289E3],"tree_param":{"num_deleted":"0","num_feature":"106","num_nodes":"7","size_leaf_vector":"0"}},{"base_weights":[-1.1156834E-1,-1.9997817E-1,1.9486563E-1,-6.600365E-2,-3.4797275E-1,2.5102273E-1,-7.676794E-2],"categories":[],"categories_nodes":[],"categories_segments":[],"categories_sizes":[],"default_left":[1,1,1,0,0,0,0],"id":62,"left_children":[1,3,5,-1,-1,-1,-1],"loss_changes":[1.6785782E2,9.530655E1,2.11846E1,0E0,0E0,0E0,0E0],"parents":[2147483647,0,0,1,1,2,2],"right_children":[2,4,6,-1,-1,-1,-1],"split_conditions":[2.35E1,1.35E1,2.45E1,-6.600365E-4,-3.4797275E-3,2.5102273E-3,-7.6767936E-4],"split_indices":[51,80,81,0,0,0,0],"split_type":[0,0,0,0,0,0,0],"sum_hessian":[6.193457E3,4.8069443E3,1.386513E3,2.5237363E3,2.2832078E3,1.1490385E3,2.3747452E2],"tree_param":{"num_deleted":"0","num_feature":"106","num_nodes":"7","size_leaf_vector":"0"}},{"base_weights":[1.115683E-1,1.9997814E-1,-1.9486569E-1,6.600362E-2,3.4797272E-1,-2.510228E-1,7.676794E-2],"categories":[],"categories_nodes":[],"categories_segments":[],"categories_sizes":[],"default_left":[1,1,1,0,0,0,0],"id":63,"left_children":[1,3,5,-1,-1,-1,-1],"loss_changes":[1.678578E2,9.5306564E1,2.1184608E1,0E0,0E0,0E0,0E0],"parents":[2147483647,0,0,1,1,2,2],"right_children":[2,4,6,-1,-1,-1,-1],"split_conditions":[2.35E1,1.35E1,2.45E1,6.6003617E-4,3.479727E-3,-2.5102277E-3,7.6767936E-4],"split_indices":[51,80,81,0,0,0,0],"split_type":[0,0,0,0,0,0,0],"sum_hessian":[6.193457E3,4.8069443E3,1.386513E3,2.5237366E3,2.2832078E3,1.1490385E3,2.3747452E2],"tree_param":{"num_deleted":"0","num_feature":"106","num_nodes":"7","size_leaf_vector":"0"}},{"base_weights":[-1.104882E-1,-2.18214E-1,1.3721028E-1,-1.3060074E-1,-4.415156E-1,-1.3029234E-1,2.0705096E-1],"categories":[],"categories_nodes":[],"categories_segments":[],"categories_sizes":[],"default_left":[1,1,1,0,0,0,0],"id":64,"left_children":[1,3,5,-1,-1,-1,-1],"loss_changes":[1.652678E2,8.438138E1,3.5103592E1,0E0,0E0,0E0,0E0],"parents":[2147483647,0,0,1,1,2,2],"right_children":[2,4,6,-1,-1,-1,-1],"split_conditions":[1.95E1,1.95E1,3.585E-1,-1.3060074E-3,-4.415156E-3,-1.3029234E-3,2.0705096E-3],"split_indices":[28,80,55,0,0,0,0],"split_type":[0,0,0,0,0,0,0],"sum_hessian":[6.191507E3,4.3150015E3,1.8765054E3,3.1002078E3,1.214794E3,3.883165E2,1.4881888E3],"tree_param":{"num_deleted":"0","num_feature":"106","num_nodes":"7","size_leaf_vector":"0"}},{"base_weights":[1.10488206E-1,2.1821402E-1,-1.372103E-1,1.3060075E-1,4.4151562E-1,1.302923E-1,-2.0705098E-1],"categories":[],"categories_nodes":[],"categories_segments":[],"categories_sizes":[],"default_left":[1,1,1,0,0,0,0],"id":65,"left_children":[1,3,5,-1,-1,-1,-1],"loss_changes":[1.6526787E2,8.438139E1,3.5103592E1,0E0,0E0,0E0,0E0],"parents":[2147483647,0,0,1,1,2,2],"right_children":[2,4,6,-1,-1,-1,-1],"split_conditions":[1.95E1,1.95E1,3.585E-1,1.3060075E-3,4.4151563E-3,1.302923E-3,-2.0705098E-3],"split_indices":[28,80,55,0,0,0,0],"split_type":[0,0,0,0,0,0,0],"sum_hessian":[6.191507E3,4.3150015E3,1.8765054E3,3.1002078E3,1.214794E3,3.8831653E2,1.4881888E3],"tree_param":{"num_deleted":"0","num_feature":"106","num_nodes":"7","size_leaf_vector":"0"}},{"base_weights":[-1.0941958E-1,-2.7528247E-1,4.942666E-2,-3.4000692E-1,-2.2173428E-3,1.6639471E-1,-1.2257255E-1],"categories":[],"categories_nodes":[],"categories_segments":[],"categories_sizes":[],"default_left":[1,1,1,0,0,0,0],"id":66,"left_children":[1,3,5,-1,-1,-1,-1],"loss_changes":[1.6311351E2,5.3525482E1,6.3654865E1,0E0,0E0,0E0,0E0],"parents":[2147483647,0,0,1,1,2,2],"right_children":[2,4,6,-1,-1,-1,-1],"split_conditions":[1.45E1,5.05E0,1.75E1,-3.4000692E-3,-2.2173428E-5,1.663947E-3,-1.2257255E-3],"split_indices":[51,77,81,0,0,0,0],"split_type":[0,0,0,0,0,0,0],"sum_hessian":[6.1895264E3,3.0275298E3,3.1619966E3,2.4472212E3,5.803085E2,1.8821044E3,1.2798923E3],"tree_param":{"num_deleted":"0","num_feature":"106","num_nodes":"7","size_leaf_vector":"0"}},{"base_weights":[1.0941956E-1,2.7528244E-1,-4.942667E-2,3.4000692E-1,2.217259E-3,-1.6639474E-1,1.2257257E-1],"categories":[],"categories_nodes":[],"categories_segments":[],"categories_sizes":[],"default_left":[1,1,1,0,0,0,0],"id":67,"left_children":[1,3,5,-1,-1,-1,-1],"loss_changes":[1.6311353E2,5.3525497E1,6.3654892E1,0E0,0E0,0E0,0E0],"parents":[2147483647,0,0,1,1,2,2],"right_children":[2,4,6,-1,-1,-1,-1],"split_conditions":[1.45E1,5.05E0,1.75E1,3.4000692E-3,2.217259E-5,-1.6639474E-3,1.2257256E-3],"split_indices":[51,77,81,0,0,0,0],"split_type":[0,0,0,0,0,0,0],"sum_hessian":[6.1895264E3,3.0275298E3,3.1619966E3,2.4472214E3,5.803085E2,1.8821042E3,1.2798923E3],"tree_param":{"num_deleted":"0","num_feature":"106","num_nodes":"7","size_leaf_vector":"0"}},{"base_weights":[-1.0836362E-1,-1.9490835E-1,1.914256E-1,-6.3642904E-2,-3.401416E-1,7.6988705E-2,3.198549E-1],"categories":[],"categories_nodes":[],"categories_segments":[],"categories_sizes":[],"default_left":[1,1,1,0,0,0,0],"id":68,"left_children":[1,3,5,-1,-1,-1,-1],"loss_changes":[1.6059631E2,9.153552E1,2.0357239E1,0E0,0E0,0E0,0E0],"parents":[2147483647,0,0,1,1,2,2],"right_children":[2,4,6,-1,-1,-1,-1],"split_conditions":[2.35E1,1.35E1,3.5000002E-1,-6.36429E-4,-3.401416E-3,7.69887E-4,3.1985487E-3],"split_indices":[51,80,77,0,0,0,0],"split_type":[0,0,0,0,0,0,0],"sum_hessian":[6.187395E3,4.801595E3,1.3857998E3,2.5228335E3,2.278762E3,7.336661E2,6.521337E2],"tree_param":{"num_deleted":"0","num_feature":"106","num_nodes":"7","size_leaf_vector":"0"}},{"base_weights":[1.0836364E-1,1.9490835E-1,-1.9142555E-1,6.364291E-2,3.401416E-1,-7.698867E-2,-3.198548E-1],"categories":[],"categories_nodes":[],"categories_segments":[],"categories_sizes":[],"default_left":[1,1,1,0,0,0,0],"id":69,"left_children":[1,3,5,-1,-1,-1,-1],"loss_changes":[1.6059625E2,9.153551E1,2.0357235E1,0E0,0E0,0E0,0E0],"parents":[2147483647,0,0,1,1,2,2],"right_children":[2,4,6,-1,-1,-1,-1],"split_conditions":[2.35E1,1.35E1,3.5000002E-1,6.364291E-4,3.401416E-3,-7.6988665E-4,-3.198548E-3],"split_indices":[51,80,77,0,0,0,0],"split_type":[0,0,0,0,0,0,0],"sum_hessian":[6.187395E3,4.801595E3,1.3857998E3,2.5228335E3,2.278762E3,7.336661E2,6.5213367E2],"tree_param":{"num_deleted":"0","num_feature":"106","num_nodes":"7","size_leaf_vector":"0"}},{"base_weights":[-1.073159E-1,-2.7090144E-1,4.9229633E-2,-2.0608445E-1,-5.3982615E-1,-1.5575005E-1,1.4453612E-1],"categories":[],"categories_nodes":[],"categories_segments":[],"categories_sizes":[],"default_left":[1,1,1,0,0,0,0],"id":70,"left_children":[1,3,5,-1,-1,-1,-1],"loss_changes":[1.5843695E2,5.2622513E1,6.1795826E1,0E0,0E0,0E0,0E0],"parents":[2147483647,0,0,1,1,2,2],"right_children":[2,4,6,-1,-1,-1,-1],"split_conditions":[1.45E1,2.25E1,-1.95E0,-2.0608443E-3,-5.3982614E-3,-1.5575005E-3,1.4453612E-3],"split_indices":[51,80,77,0,0,0,0],"split_type":[0,0,0,0,0,0,0],"sum_hessian":[6.185347E3,3.0243054E3,3.1610417E3,2.4383691E3,5.859363E2,1.0030677E3,2.157974E3],"tree_param":{"num_deleted":"0","num_feature":"106","num_nodes":"7","size_leaf_vector":"0"}},{"base_weights":[1.07315905E-1,2.709014E-1,-4.922961E-2,2.0608442E-1,5.3982615E-1,1.5575008E-1,-1.4453611E-1],"categories":[],"categories_nodes":[],"categories_segments":[],"categories_sizes":[],"default_left":[1,1,1,0,0,0,0],"id":71,"left_children":[1,3,5,-1,-1,-1,-1],"loss_changes":[1.5843687E2,5.2622543E1,6.1795834E1,0E0,0E0,0E0,0E0],"parents":[2147483647,0,0,1,1,2,2],"right_children":[2,4,6,-1,-1,-1,-1],"split_conditions":[1.45E1,2.25E1,-1.95E0,2.060844E-3,5.3982614E-3,1.5575008E-3,-1.4453611E-3],"split_indices":[51,80,77,0,0,0,0],"split_type":[0,0,0,0,0,0,0],"sum_hessian":[6.185347E3,3.0243057E3,3.1610417E3,2.4383694E3,5.859363E2,1.0030677E3,2.157974E3],"tree_param":{"num_deleted":"0","num_feature":"106","num_nodes":"7","size_leaf_vector":"0"}},{"base_weights":[-1.0628261E-1,-2.1111469E-1,1.3451785E-1,-1.2572215E-1,-4.2932624E-1,-1.2559827E-1,2.0243338E-1],"categories":[],"categories_nodes":[],"categories_segments":[],"categories_sizes":[],"default_left":[1,1,1,0,0,0,0],"id":72,"left_children":[1,3,5,-1,-1,-1,-1],"loss_changes":[1.5613817E2,8.023543E1,3.3171783E1,0E0,0E0,0E0,0E0],"parents":[2147483647,0,0,1,1,2,2],"right_children":[2,4,6,-1,-1,-1,-1],"split_conditions":[1.95E1,1.95E1,3.585E-1,-1.2572216E-3,-4.2932625E-3,-1.2559827E-3,2.0243337E-3],"split_indices":[28,80,55,0,0,0,0],"split_type":[0,0,0,0,0,0,0],"sum_hessian":[6.1831294E3,4.3078413E3,1.8752883E3,3.0973386E3,1.2105026E3,3.88083E2,1.4872053E3],"tree_param":{"num_deleted":"0","num_feature":"106","num_nodes":"7","size_leaf_vector":"0"}},{"base_weights":[1.0628263E-1,2.1111472E-1,-1.3451785E-1,1.2572218E-1,4.2932627E-1,1.2559827E-1,-2.0243336E-1],"categories":[],"categories_nodes":[],"categories_segments":[],"categories_sizes":[],"default_left":[1,1,1,0,0,0,0],"id":73,"left_children":[1,3,5,-1,-1,-1,-1],"loss_changes":[1.561382E2,8.023541E1,3.3171783E1,0E0,0E0,0E0,0E0],"parents":[2147483647,0,0,1,1,2,2],"right_children":[2,4,6,-1,-1,-1,-1],"split_conditions":[1.95E1,1.95E1,3.585E-1,1.2572218E-3,4.2932625E-3,1.2559827E-3,-2.0243337E-3],"split_indices":[28,80,55,0,0,0,0],"split_type":[0,0,0,0,0,0,0],"sum_hessian":[6.1831294E3,4.3078413E3,1.8752883E3,3.0973384E3,1.2105027E3,3.88083E2,1.4872053E3],"tree_param":{"num_deleted":"0","num_feature":"106","num_nodes":"7","size_leaf_vector":"0"}},{"base_weights":[-1.0525726E-1,-1.8997712E-1,1.8803437E-1,3.6297288E-2,-2.7175978E-1,7.604336E-2,3.1379262E-1],"categories":[],"categories_nodes":[],"categories_segments":[],"categories_sizes":[],"default_left":[1,1,1,0,0,0,0],"id":74,"left_children":[1,3,5,-1,-1,-1,-1],"loss_changes":[1.536438E2,8.877969E1,1.949644E1,0E0,0E0,0E0,0E0],"parents":[2147483647,0,0,1,1,2,2],"right_children":[2,4,6,-1,-1,-1,-1],"split_conditions":[2.35E1,7.5E0,3.5000002E-1,3.6297287E-4,-2.7175976E-3,7.6043356E-4,3.137926E-3],"split_indices":[51,103,77,0,0,0,0],"split_type":[0,0,0,0,0,0,0],"sum_hessian":[6.1810015E3,4.7959897E3,1.3850117E3,1.2733816E3,3.5226082E3,7.3345526E2,6.5155646E2],"tree_param":{"num_deleted":"0","num_feature":"106","num_nodes":"7","size_leaf_vector":"0"}},{"base_weights":[1.0525724E-1,1.8997712E-1,-1.8803439E-1,-3.6297314E-2,2.7175978E-1,-7.604339E-2,-3.1379262E-1],"categories":[],"categories_nodes":[],"categories_segments":[],"categories_sizes":[],"default_left":[1,1,1,0,0,0,0],"id":75,"left_children":[1,3,5,-1,-1,-1,-1],"loss_changes":[1.536438E2,8.877971E1,1.9496437E1,0E0,0E0,0E0,0E0],"parents":[2147483647,0,0,1,1,2,2],"right_children":[2,4,6,-1,-1,-1,-1],"split_conditions":[2.35E1,7.5E0,3.5000002E-1,-3.6297314E-4,2.7175976E-3,-7.604339E-4,-3.137926E-3],"split_indices":[51,103,77,0,0,0,0],"split_type":[0,0,0,0,0,0,0],"sum_hessian":[6.1810015E3,4.7959897E3,1.3850117E3,1.2733816E3,3.5226082E3,7.3345526E2,6.5155646E2],"tree_param":{"num_deleted":"0","num_feature":"106","num_nodes":"7","size_leaf_vector":"0"}},{"base_weights":[-1.0423876E-1,-2.6471752E-1,4.917161E-2,-3.2798725E-1,1.4231971E-3,1.6210549E-1,-1.16956644E-1],"categories":[],"categories_nodes":[],"categories_segments":[],"categories_sizes":[],"default_left":[1,1,1,0,0,0,0],"id":76,"left_children":[1,3,5,-1,-1,-1,-1],"loss_changes":[1.5215869E2,5.0862717E1,5.931316E1,0E0,0E0,0E0,0E0],"parents":[2147483647,0,0,1,1,2,2],"right_children":[2,4,6,-1,-1,-1,-1],"split_conditions":[1.45E1,5.05E0,1.75E1,-3.2798725E-3,1.423197E-5,1.6210548E-3,-1.1695664E-3],"split_indices":[51,77,81,0,0,0,0],"split_type":[0,0,0,0,0,0,0],"sum_hessian":[6.178984E3,3.019566E3,3.1594177E3,2.4394114E3,5.8015466E2,1.8808448E3,1.2785729E3],"tree_param":{"num_deleted":"0","num_feature":"106","num_nodes":"7","size_leaf_vector":"0"}},{"base_weights":[1.04238756E-1,2.647175E-1,-4.9171604E-2,3.2798725E-1,-1.4233079E-3,-1.6210549E-1,1.16956644E-1],"categories":[],"categories_nodes":[],"categories_segments":[],"categories_sizes":[],"default_left":[1,1,1,0,0,0,0],"id":77,"left_children":[1,3,5,-1,-1,-1,-1],"loss_changes":[1.5215863E2,5.0862762E1,5.9313156E1,0E0,0E0,0E0,0E0],"parents":[2147483647,0,0,1,1,2,2],"right_children":[2,4,6,-1,-1,-1,-1],"split_conditions":[1.45E1,5.05E0,1.75E1,3.2798725E-3,-1.4233079E-5,-1.6210548E-3,1.1695664E-3],"split_indices":[51,77,81,0,0,0,0],"split_type":[0,0,0,0,0,0,0],"sum_hessian":[6.1789834E3,3.019566E3,3.1594177E3,2.4394114E3,5.8015466E2,1.8808447E3,1.2785729E3],"tree_param":{"num_deleted":"0","num_feature":"106","num_nodes":"7","size_leaf_vector":"0"}},{"base_weights":[-1.03235684E-1,8.718207E-2,-2.3027857E-1,-8.064001E-2,1.8506767E-1,-4.3504187E-1,-1.4112043E-1],"categories":[],"categories_nodes":[],"categories_segments":[],"categories_sizes":[],"default_left":[1,1,1,0,0,0,0],"id":78,"left_children":[1,3,5,-1,-1,-1,-1],"loss_changes":[1.4946585E2,4.0638832E1,6.759189E1,0E0,0E0,0E0,0E0],"parents":[2147483647,0,0,1,1,2,2],"right_children":[2,4,6,-1,-1,-1,-1],"split_conditions":[4.7149998E-1,4.475E-1,-1.75E0,-8.064001E-4,1.8506766E-3,-4.3504187E-3,-1.4112043E-3],"split_indices":[3,55,77,0,0,0,0],"split_type":[0,0,0,0,0,0,0],"sum_hessian":[6.1766865E3,2.471941E3,3.7047458E3,9.107176E2,1.5612233E3,1.1226208E3,2.582125E3],"tree_param":{"num_deleted":"0","num_feature":"106","num_nodes":"7","size_leaf_vector":"0"}},{"base_weights":[1.0323569E-1,-8.718207E-2,2.3027858E-1,8.064003E-2,-1.8506768E-1,4.3504184E-1,1.4112045E-1],"categories":[],"categories_nodes":[],"categories_segments":[],"categories_sizes":[],"default_left":[1,1,1,0,0,0,0],"id":79,"left_children":[1,3,5,-1,-1,-1,-1],"loss_changes":[1.4946585E2,4.063884E1,6.759184E1,0E0,0E0,0E0,0E0],"parents":[2147483647,0,0,1,1,2,2],"right_children":[2,4,6,-1,-1,-1,-1],"split_conditions":[4.7149998E-1,4.475E-1,-1.75E0,8.064003E-4,-1.8506768E-3,4.350418E-3,1.4112045E-3],"split_indices":[3,55,77,0,0,0,0],"split_type":[0,0,0,0,0,0,0],"sum_hessian":[6.1766865E3,2.471941E3,3.7047458E3,9.107176E2,1.5612233E3,1.1226208E3,2.582125E3],"tree_param":{"num_deleted":"0","num_feature":"106","num_nodes":"7","size_leaf_vector":"0"}},{"base_weights":[-1.02242656E-1,-1.8526529E-1,1.8498051E-1,3.682355E-2,-2.656471E-1,2.3783055E-1,-7.0372716E-2],"categories":[],"categories_nodes":[],"categories_segments":[],"categories_sizes":[],"default_left":[1,1,1,0,0,0,0],"id":80,"left_children":[1,3,5,-1,-1,-1,-1],"loss_changes":[1.4729276E2,8.554076E1,1.871125E1,0E0,0E0,0E0,0E0],"parents":[2147483647,0,0,1,1,2,2],"right_children":[2,4,6,-1,-1,-1,-1],"split_conditions":[2.35E1,7.5E0,2.45E1,3.682355E-4,-2.656471E-3,2.3783054E-3,-7.037271E-4],"split_indices":[51,103,81,0,0,0,0],"split_type":[0,0,0,0,0,0,0],"sum_hessian":[6.174389E3,4.7901406E3,1.3842482E3,1.2731278E3,3.517013E3,1.1469371E3,2.3731108E2],"tree_param":{"num_deleted":"0","num_feature":"106","num_nodes":"7","size_leaf_vector":"0"}},{"base_weights":[1.02242656E-1,1.852653E-1,-1.8498056E-1,-3.6823556E-2,2.6564714E-1,-2.3783061E-1,7.037273E-2],"categories":[],"categories_nodes":[],"categories_segments":[],"categories_sizes":[],"default_left":[1,1,1,0,0,0,0],"id":81,"left_children":[1,3,5,-1,-1,-1,-1],"loss_changes":[1.4729279E2,8.55408E1,1.8711258E1,0E0,0E0,0E0,0E0],"parents":[2147483647,0,0,1,1,2,2],"right_children":[2,4,6,-1,-1,-1,-1],"split_conditions":[2.35E1,7.5E0,2.45E1,-3.6823555E-4,2.6564714E-3,-2.3783061E-3,7.037273E-4],"split_indices":[51,103,81,0,0,0,0],"split_type":[0,0,0,0,0,0,0],"sum_hessian":[6.174389E3,4.7901406E3,1.3842482E3,1.2731278E3,3.517013E3,1.1469371E3,2.373111E2],"tree_param":{"num_deleted":"0","num_feature":"106","num_nodes":"7","size_leaf_vector":"0"}},{"base_weights":[-1.01255566E-1,-2.5854692E-1,4.8931327E-2,-1.9552884E-1,-5.2121764E-1,-1.4812455E-1,1.4049186E-1],"categories":[],"categories_nodes":[],"categories_segments":[],"categories_sizes":[],"default_left":[1,1,1,0,0,0,0],"id":82,"left_children":[1,3,5,-1,-1,-1,-1],"loss_changes":[1.4584416E2,4.9813187E1,5.7013393E1,0E0,0E0,0E0,0E0],"parents":[2147483647,0,0,1,1,2,2],"right_children":[2,4,6,-1,-1,-1,-1],"split_conditions":[1.45E1,2.25E1,-1.95E0,-1.9552882E-3,-5.212176E-3,-1.4812454E-3,1.4049185E-3],"split_indices":[51,80,77,0,0,0,0],"split_type":[0,0,0,0,0,0,0],"sum_hessian":[6.17226E3,3.0144707E3,3.1577888E3,2.4326025E3,5.8186816E2,1.00157947E3,2.1562095E3],"tree_param":{"num_deleted":"0","num_feature":"106","num_nodes":"7","size_leaf_vector":"0"}},{"base_weights":[1.0125558E-1,2.5854695E-1,-4.8931327E-2,1.9552884E-1,5.2121776E-1,1.4812452E-1,-1.4049184E-1],"categories":[],"categories_nodes":[],"categories_segments":[],"categories_sizes":[],"default_left":[1,1,1,0,0,0,0],"id":83,"left_children":[1,3,5,-1,-1,-1,-1],"loss_changes":[1.458442E2,4.9813217E1,5.701337E1,0E0,0E0,0E0,0E0],"parents":[2147483647,0,0,1,1,2,2],"right_children":[2,4,6,-1,-1,-1,-1],"split_conditions":[1.45E1,2.25E1,-1.95E0,1.9552882E-3,5.2121775E-3,1.4812452E-3,-1.4049184E-3],"split_indices":[51,80,77,0,0,0,0],"split_type":[0,0,0,0,0,0,0],"sum_hessian":[6.1722593E3,3.0144705E3,3.1577888E3,2.4326023E3,5.8186816E2,1.00157947E3,2.1562095E3],"tree_param":{"num_deleted":"0","num_feature":"106","num_nodes":"7","size_leaf_vector":"0"}},{"base_weights":[-1.0028373E-1,-2.0089188E-1,1.3045058E-1,-1.1828306E-1,-4.1282555E-1,-1.19572215E-1,1.957443E-1],"categories":[],"categories_nodes":[],"categories_segments":[],"categories_sizes":[],"default_left":[1,1,1,0,0,0,0],"id":84,"left_children":[1,3,5,-1,-1,-1,-1],"loss_changes":[1.4327502E2,7.519089E1,3.0621437E1,0E0,0E0,0E0,0E0],"parents":[2147483647,0,0,1,1,2,2],"right_children":[2,4,6,-1,-1,-1,-1],"split_conditions":[1.95E1,1.95E1,3.585E-1,-1.1828307E-3,-4.1282554E-3,-1.1957221E-3,1.957443E-3],"split_indices":[28,80,55,0,0,0,0],"split_type":[0,0,0,0,0,0,0],"sum_hessian":[6.1698613E3,4.296547E3,1.8733141E3,3.0926377E3,1.2039092E3,3.8774182E2,1.4855723E3],"tree_param":{"num_deleted":"0","num_feature":"106","num_nodes":"7","size_leaf_vector":"0"}},{"base_weights":[1.0028372E-1,2.0089188E-1,-1.304506E-1,1.18283056E-1,4.1282558E-1,1.195722E-1,-1.9574435E-1],"categories":[],"categories_nodes":[],"categories_segments":[],"categories_sizes":[],"default_left":[1,1,1,0,0,0,0],"id":85,"left_children":[1,3,5,-1,-1,-1,-1],"loss_changes":[1.4327505E2,7.519089E1,3.062144E1,0E0,0E0,0E0,0E0],"parents":[2147483647,0,0,1,1,2,2],"right_children":[2,4,6,-1,-1,-1,-1],"split_conditions":[1.95E1,1.95E1,3.585E-1,1.1828305E-3,4.128256E-3,1.195722E-3,-1.9574435E-3],"split_indices":[28,80,55,0,0,0,0],"split_type":[0,0,0,0,0,0,0],"sum_hessian":[6.169861E3,4.296547E3,1.8733141E3,3.0926377E3,1.2039092E3,3.8774182E2,1.4855723E3],"tree_param":{"num_deleted":"0","num_feature":"106","num_nodes":"7","size_leaf_vector":"0"}},{"base_weights":[-9.931931E-2,-2.543264E-1,4.856609E-2,-3.1628492E-1,5.4744924E-3,1.575556E-1,-1.1182485E-1],"categories":[],"categories_nodes":[],"categories_segments":[],"categories_sizes":[],"default_left":[1,1,1,0,0,0,0],"id":86,"left_children":[1,3,5,-1,-1,-1,-1],"loss_changes":[1.414158E2,4.848419E1,5.5215984E1,0E0,0E0,0E0,0E0],"parents":[2147483647,0,0,1,1,2,2],"right_children":[2,4,6,-1,-1,-1,-1],"split_conditions":[1.45E1,5.05E0,1.75E1,-3.1628492E-3,5.4744924E-5,1.5755559E-3,-1.1182484E-3],"split_indices":[51,77,81,0,0,0,0],"split_type":[0,0,0,0,0,0,0],"sum_hessian":[6.1675503E3,3.0109172E3,3.1566333E3,2.4309546E3,5.7996265E2,1.8794913E3,1.2771418E3],"tree_param":{"num_deleted":"0","num_feature":"106","num_nodes":"7","size_leaf_vector":"0"}},{"base_weights":[9.93193E-2,2.543264E-1,-4.8566107E-2,3.1628492E-1,-5.474494E-3,-1.5755562E-1,1.1182486E-1],"categories":[],"categories_nodes":[],"categories_segments":[],"categories_sizes":[],"default_left":[1,1,1,0,0,0,0],"id":87,"left_children":[1,3,5,-1,-1,-1,-1],"loss_changes":[1.4141582E2,4.8484177E1,5.5216003E1,0E0,0E0,0E0,0E0],"parents":[2147483647,0,0,1,1,2,2],"right_children":[2,4,6,-1,-1,-1,-1],"split_conditions":[1.45E1,5.05E0,1.75E1,3.1628492E-3,-5.4744938E-5,-1.5755562E-3,1.1182486E-3],"split_indices":[51,77,81,0,0,0,0],"split_type":[0,0,0,0,0,0,0],"sum_hessian":[6.1675503E3,3.0109172E3,3.1566333E3,2.4309546E3,5.7996265E2,1.8794913E3,1.2771418E3],"tree_param":{"num_deleted":"0","num_feature":"106","num_nodes":"7","size_leaf_vector":"0"}},{"base_weights":[-9.836594E-2,-1.7926188E-1,1.8124758E-1,3.8226545E-2,-2.5812653E-1,7.457438E-2,3.012009E-1],"categories":[],"categories_nodes":[],"categories_segments":[],"categories_sizes":[],"default_left":[1,1,1,0,0,0,0],"id":88,"left_children":[1,3,5,-1,-1,-1,-1],"loss_changes":[1.3950743E2,8.204822E1,1.7688618E1,0E0,0E0,0E0,0E0],"parents":[2147483647,0,0,1,1,2,2],"right_children":[2,4,6,-1,-1,-1,-1],"split_conditions":[2.35E1,7.5E0,3.5000002E-1,3.8226545E-4,-2.5812653E-3,7.457438E-4,3.012009E-3],"split_indices":[51,103,77,0,0,0,0],"split_type":[0,0,0,0,0,0,0],"sum_hessian":[6.1651104E3,4.781979E3,1.3831317E3,1.2727037E3,3.5092751E3,7.3294934E2,6.501823E2],"tree_param":{"num_deleted":"0","num_feature":"106","num_nodes":"7","size_leaf_vector":"0"}},{"base_weights":[9.8365925E-2,1.7926186E-1,-1.8124759E-1,-3.8226567E-2,2.581265E-1,-7.457441E-2,-3.012009E-1],"categories":[],"categories_nodes":[],"categories_segments":[],"categories_sizes":[],"default_left":[1,1,1,0,0,0,0],"id":89,"left_children":[1,3,5,-1,-1,-1,-1],"loss_changes":[1.3950745E2,8.20482E1,1.7688614E1,0E0,0E0,0E0,0E0],"parents":[2147483647,0,0,1,1,2,2],"right_children":[2,4,6,-1,-1,-1,-1],"split_conditions":[2.35E1,7.5E0,3.5000002E-1,-3.8226566E-4,2.5812648E-3,-7.457441E-4,-3.012009E-3],"split_indices":[51,103,77,0,0,0,0],"split_type":[0,0,0,0,0,0,0],"sum_hessian":[6.1651104E3,4.7819785E3,1.3831317E3,1.2727036E3,3.5092751E3,7.329494E2,6.501823E2],"tree_param":{"num_deleted":"0","num_feature":"106","num_nodes":"7","size_leaf_vector":"0"}},{"base_weights":[-9.741738E-2,-2.5033537E-1,4.8349097E-2,-1.8851848E-1,-5.089134E-1,-1.4334211E-1,1.3738056E-1],"categories":[],"categories_nodes":[],"categories_segments":[],"categories_sizes":[],"default_left":[1,1,1,0,0,0,0],"id":90,"left_children":[1,3,5,-1,-1,-1,-1],"loss_changes":[1.374072E2,4.7990433E1,5.3891552E1,0E0,0E0,0E0,0E0],"parents":[2147483647,0,0,1,1,2,2],"right_children":[2,4,6,-1,-1,-1,-1],"split_conditions":[1.45E1,2.25E1,-1.95E0,-1.8851848E-3,-5.089134E-3,-1.433421E-3,1.3738056E-3],"split_indices":[51,80,77,0,0,0,0],"split_type":[0,0,0,0,0,0,0],"sum_hessian":[6.162892E3,3.007316E3,3.1555764E3,2.428481E3,5.78835E2,1.0006006E3,2.1549758E3],"tree_param":{"num_deleted":"0","num_feature":"106","num_nodes":"7","size_leaf_vector":"0"}},{"base_weights":[9.7417384E-2,2.5033537E-1,-4.834909E-2,1.885185E-1,5.089134E-1,1.4334211E-1,-1.3738054E-1],"categories":[],"categories_nodes":[],"categories_segments":[],"categories_sizes":[],"default_left":[1,1,1,0,0,0,0],"id":91,"left_children":[1,3,5,-1,-1,-1,-1],"loss_changes":[1.374072E2,4.7990463E1,5.389155E1,0E0,0E0,0E0,0E0],"parents":[2147483647,0,0,1,1,2,2],"right_children":[2,4,6,-1,-1,-1,-1],"split_conditions":[1.45E1,2.25E1,-1.95E0,1.8851849E-3,5.089134E-3,1.433421E-3,-1.3738053E-3],"split_indices":[51,80,77,0,0,0,0],"split_type":[0,0,0,0,0,0,0],"sum_hessian":[6.162892E3,3.007316E3,3.1555764E3,2.4284807E3,5.78835E2,1.0006006E3,2.1549758E3],"tree_param":{"num_deleted":"0","num_feature":"106","num_nodes":"7","size_leaf_vector":"0"}},{"base_weights":[-9.6484154E-2,-1.9441985E-1,1.2786779E-1,-1.13658525E-1,-4.022129E-1,2.8975475E-1,2.9465642E-2],"categories":[],"categories_nodes":[],"categories_segments":[],"categories_sizes":[],"default_left":[1,1,1,0,0,0,0],"id":92,"left_children":[1,3,5,-1,-1,-1,-1],"loss_changes":[1.3540323E2,7.193886E1,2.9826885E1,0E0,0E0,0E0,0E0],"parents":[2147483647,0,0,1,1,2,2],"right_children":[2,4,6,-1,-1,-1,-1],"split_conditions":[1.95E1,1.95E1,-6.25E0,-1.1365853E-3,-4.022129E-3,2.8975473E-3,2.946564E-4],"split_indices":[28,80,25,0,0,0,0],"split_type":[0,0,0,0,0,0,0],"sum_hessian":[6.160387E3,4.2884824E3,1.8719052E3,3.089325E3,1.1991572E3,7.069375E2,1.1649677E3],"tree_param":{"num_deleted":"0","num_feature":"106","num_nodes":"7","size_leaf_vector":"0"}},{"base_weights":[9.648415E-2,1.9441983E-1,-1.2786776E-1,1.1365851E-1,4.0221286E-1,-2.8975472E-1,-2.9465616E-2],"categories":[],"categories_nodes":[],"categories_segments":[],"categories_sizes":[],"default_left":[1,1,1,0,0,0,0],"id":93,"left_children":[1,3,5,-1,-1,-1,-1],"loss_changes":[1.3540321E2,7.193883E1,2.9826881E1,0E0,0E0,0E0,0E0],"parents":[2147483647,0,0,1,1,2,2],"right_children":[2,4,6,-1,-1,-1,-1],"split_conditions":[1.95E1,1.95E1,-6.25E0,1.136585E-3,4.0221284E-3,-2.897547E-3,-2.9465614E-4],"split_indices":[28,80,25,0,0,0,0],"split_type":[0,0,0,0,0,0,0],"sum_hessian":[6.160387E3,4.288482E3,1.8719052E3,3.089325E3,1.1991572E3,7.069375E2,1.1649677E3],"tree_param":{"num_deleted":"0","num_feature":"106","num_nodes":"7","size_leaf_vector":"0"}},{"base_weights":[-9.5554866E-2,-2.4624893E-1,4.7961473E-2,-1.8536472E-1,-5.0159407E-1,-1.4136837E-1,1.3587548E-1],"categories":[],"categories_nodes":[],"categories_segments":[],"categories_sizes":[],"default_left":[1,1,1,0,0,0,0],"id":94,"left_children":[1,3,5,-1,-1,-1,-1],"loss_changes":[1.332161E2,4.6618088E1,5.2542404E1,0E0,0E0,0E0,0E0],"parents":[2147483647,0,0,1,1,2,2],"right_children":[2,4,6,-1,-1,-1,-1],"split_conditions":[1.45E1,2.25E1,-1.95E0,-1.8536472E-3,-5.0159404E-3,-1.4136838E-3,1.3587547E-3],"split_indices":[51,80,77,0,0,0,0],"split_type":[0,0,0,0,0,0,0],"sum_hessian":[6.1581484E3,3.0036062E3,3.1545422E3,2.42671E3,5.7689606E2,1.00011224E3,2.15443E3],"tree_param":{"num_deleted":"0","num_feature":"106","num_nodes":"7","size_leaf_vector":"0"}},{"base_weights":[9.555487E-2,2.4624896E-1,-4.7961485E-2,1.8536475E-1,5.015941E-1,1.4136836E-1,-1.3587548E-1],"categories":[],"categories_nodes":[],"categories_segments":[],"categories_sizes":[],"default_left":[1,1,1,0,0,0,0],"id":95,"left_children":[1,3,5,-1,-1,-1,-1],"loss_changes":[1.3321613E2,4.6618103E1,5.25424E1,0E0,0E0,0E0,0E0],"parents":[2147483647,0,0,1,1,2,2],"right_children":[2,4,6,-1,-1,-1,-1],"split_conditions":[1.45E1,2.25E1,-1.95E0,1.8536475E-3,5.0159413E-3,1.4136835E-3,-1.3587547E-3],"split_indices":[51,80,77,0,0,0,0],"split_type":[0,0,0,0,0,0,0],"sum_hessian":[6.1581484E3,3.0036062E3,3.1545422E3,2.42671E3,5.7689606E2,1.0001123E3,2.15443E3],"tree_param":{"num_deleted":"0","num_feature":"106","num_nodes":"7","size_leaf_vector":"0"}},{"base_weights":[-9.464031E-2,-1.7335144E-1,1.7715773E-1,4.037748E-2,-2.510013E-1,6.391942E-2,2.8696552E-1],"categories":[],"categories_nodes":[],"categories_segments":[],"categories_sizes":[],"default_left":[1,1,1,0,0,0,0],"id":96,"left_children":[1,3,5,-1,-1,-1,-1],"loss_changes":[1.3174191E2,7.9248825E1,1.717891E1,0E0,0E0,0E0,0E0],"parents":[2147483647,0,0,1,1,2,2],"right_children":[2,4,6,-1,-1,-1,-1],"split_conditions":[2.35E1,7.5E0,4.5450002E-1,4.037748E-4,-2.5100128E-3,6.3919416E-4,2.8696551E-3],"split_indices":[51,103,59,0,0,0,0],"split_type":[0,0,0,0,0,0,0],"sum_hessian":[6.1555913E3,4.773559E3,1.3820327E3,1.2722391E3,3.5013198E3,6.811672E2,7.008655E2],"tree_param":{"num_deleted":"0","num_feature":"106","num_nodes":"7","size_leaf_vector":"0"}},{"base_weights":[9.4640315E-2,1.7335144E-1,-1.7715773E-1,-4.0377516E-2,2.5100133E-1,-6.3919425E-2,-2.8696552E-1],"categories":[],"categories_nodes":[],"categories_segments":[],"categories_sizes":[],"default_left":[1,1,1,0,0,0,0],"id":97,"left_children":[1,3,5,-1,-1,-1,-1],"loss_changes":[1.3174194E2,7.924884E1,1.7178898E1,0E0,0E0,0E0,0E0],"parents":[2147483647,0,0,1,1,2,2],"right_children":[2,4,6,-1,-1,-1,-1],"split_conditions":[2.35E1,7.5E0,4.5450002E-1,-4.0377516E-4,2.5100133E-3,-6.391942E-4,-2.8696551E-3],"split_indices":[51,103,59,0,0,0,0],"split_type":[0,0,0,0,0,0,0],"sum_hessian":[6.155592E3,4.773559E3,1.3820326E3,1.2722391E3,3.5013198E3,6.811672E2,7.008655E2],"tree_param":{"num_deleted":"0","num_feature":"106","num_nodes":"7","size_leaf_vector":"0"}},{"base_weights":[-9.372848E-2,8.3767064E-2,-2.1254487E-1,2.2670749E-1,-1.7714648E-2,-4.0801445E-1,-1.280783E-1],"categories":[],"categories_nodes":[],"categories_segments":[],"categories_sizes":[],"default_left":[1,1,1,0,0,0,0],"id":98,"left_children":[1,3,5,-1,-1,-1,-1],"loss_changes":[1.2980878E2,3.581176E1,6.0819565E1,0E0,0E0,0E0,0E0],"parents":[2147483647,0,0,1,1,2,2],"right_children":[2,4,6,-1,-1,-1,-1],"split_conditions":[4.7149998E-1,-4.95E0,-1.75E0,2.2670748E-3,-1.7714647E-4,-4.080144E-3,-1.280783E-3],"split_indices":[3,25,77,0,0,0,0],"split_type":[0,0,0,0,0,0,0],"sum_hessian":[6.153328E3,2.4675054E3,3.6858228E3,1.02397205E3,1.4435333E3,1.1109866E3,2.5748362E3],"tree_param":{"num_deleted":"0","num_feature":"106","num_nodes":"7","size_leaf_vector":"0"}},{"base_weights":[9.372847E-2,-8.3767064E-2,2.1254484E-1,-2.267075E-1,1.771464E-2,4.0801442E-1,1.2807825E-1],"categories":[],"categories_nodes":[],"categories_segments":[],"categories_sizes":[],"default_left":[1,1,1,0,0,0,0],"id":99,"left_children":[1,3,5,-1,-1,-1,-1],"loss_changes":[1.2980875E2,3.581176E1,6.081958E1,0E0,0E0,0E0,0E0],"parents":[2147483647,0,0,1,1,2,2],"right_children":[2,4,6,-1,-1,-1,-1],"split_conditions":[4.7149998E-1,-4.95E0,-1.75E0,-2.267075E-3,1.771464E-4,4.080144E-3,1.2807825E-3],"split_indices":[3,25,77,0,0,0,0],"split_type":[0,0,0,0,0,0,0],"sum_hessian":[6.153328E3,2.4675054E3,3.6858228E3,1.02397205E3,1.4435333E3,1.1109866E3,2.5748362E3],"tree_param":{"num_deleted":"0","num_feature":"106","num_nodes":"7","size_leaf_vector":"0"}},{"base_weights":[-9.282827E-2,-2.4051125E-1,4.7633238E-2,-3.0073684E-1,1.0827047E-2,1.5264821E-1,-1.0697861E-1],"categories":[],"categories_nodes":[],"categories_segments":[],"categories_sizes":[],"default_left":[1,1,1,0,0,0,0],"id":100,"left_children":[1,3,5,-1,-1,-1,-1],"loss_changes":[1.27625946E2,4.5399796E1,5.122474E1,0E0,0E0,0E0,0E0],"parents":[2147483647,0,0,1,1,2,2],"right_children":[2,4,6,-1,-1,-1,-1],"split_conditions":[1.45E1,5.05E0,1.75E1,-3.0073684E-3,1.0827047E-4,1.526482E-3,-1.069786E-3],"split_indices":[51,77,81,0,0,0,0],"split_type":[0,0,0,0,0,0,0],"sum_hessian":[6.1509414E3,2.998046E3,3.1528953E3,2.4183623E3,5.796836E2,1.8776062E3,1.2752891E3],"tree_param":{"num_deleted":"0","num_feature":"106","num_nodes":"7","size_leaf_vector":"0"}},{"base_weights":[9.282826E-2,2.4051122E-1,-4.763322E-2,3.007368E-1,-1.0827051E-2,-1.526482E-1,1.0697863E-1],"categories":[],"categories_nodes":[],"categories_segments":[],"categories_sizes":[],"default_left":[1,1,1,0,0,0,0],"id":101,"left_children":[1,3,5,-1,-1,-1,-1],"loss_changes":[1.27625885E2,4.5399796E1,5.122474E1,0E0,0E0,0E0,0E0],"parents":[2147483647,0,0,1,1,2,2],"right_children":[2,4,6,-1,-1,-1,-1],"split_conditions":[1.45E1,5.05E0,1.75E1,3.0073682E-3,-1.08270506E-4,-1.5264819E-3,1.0697863E-3],"split_indices":[51,77,81,0,0,0,0],"split_type":[0,0,0,0,0,0,0],"sum_hessian":[6.150941E3,2.998046E3,3.1528953E3,2.4183623E3,5.796836E2,1.8776062E3,1.2752891E3],"tree_param":{"num_deleted":"0","num_feature":"106","num_nodes":"7","size_leaf_vector":"0"}},{"base_weights":[-9.1939636E-2,-1.8648268E-1,1.2427996E-1,-1.079763E-1,-3.8927522E-1,2.8231925E-1,2.826521E-2],"categories":[],"categories_nodes":[],"categories_segments":[],"categories_sizes":[],"default_left":[1,1,1,0,0,0,0],"id":102,"left_children":[1,3,5,-1,-1,-1,-1],"loss_changes":[1.25728516E2,6.8080826E1,2.8388996E1,0E0,0E0,0E0,0E0],"parents":[2147483647,0,0,1,1,2,2],"right_children":[2,4,6,-1,-1,-1,-1],"split_conditions":[1.95E1,1.95E1,-6.25E0,-1.079763E-3,-3.892752E-3,2.8231924E-3,2.826521E-4],"split_indices":[28,80,25,0,0,0,0],"split_type":[0,0,0,0,0,0,0],"sum_hessian":[6.1483477E3,4.277937E3,1.8704108E3,3.0851323E3,1.1928044E3,7.0615186E2,1.1642589E3],"tree_param":{"num_deleted":"0","num_feature":"106","num_nodes":"7","size_leaf_vector":"0"}},{"base_weights":[9.1939665E-2,1.8648271E-1,-1.2427994E-1,1.07976325E-1,3.8927525E-1,-2.8231922E-1,-2.8265191E-2],"categories":[],"categories_nodes":[],"categories_segments":[],"categories_sizes":[],"default_left":[1,1,1,0,0,0,0],"id":103,"left_children":[1,3,5,-1,-1,-1,-1],"loss_changes":[1.257285E2,6.808086E1,2.8388996E1,0E0,0E0,0E0,0E0],"parents":[2147483647,0,0,1,1,2,2],"right_children":[2,4,6,-1,-1,-1,-1],"split_conditions":[1.95E1,1.95E1,-6.25E0,1.0797632E-3,3.8927523E-3,-2.8231922E-3,-2.8265192E-4],"split_indices":[28,80,25,0,0,0,0],"split_type":[0,0,0,0,0,0,0],"sum_hessian":[6.1483477E3,4.277937E3,1.8704108E3,3.0851323E3,1.1928044E3,7.0615186E2,1.1642589E3],"tree_param":{"num_deleted":"0","num_feature":"106","num_nodes":"7","size_leaf_vector":"0"}},{"base_weights":[-9.105591E-2,4.383202E-2,-2.404285E-1,-1.3483E-1,1.3723615E-1,-3.0005443E-1,1.9491196E-2],"categories":[],"categories_nodes":[],"categories_segments":[],"categories_sizes":[],"default_left":[1,1,1,0,0,0,0],"id":104,"left_children":[1,3,5,-1,-1,-1,-1],"loss_changes":[1.2386363E2,5.3935936E1,4.5213974E1,0E0,0E0,0E0,0E0],"parents":[2147483647,0,0,1,1,2,2],"right_children":[2,4,6,-1,-1,-1,-1],"split_conditions":[5.5E-1,-1.55E0,5.25E0,-1.3482999E-3,1.3723614E-3,-3.0005442E-3,1.9491195E-4],"split_indices":[25,77,77,0,0,0,0],"split_type":[0,0,0,0,0,0,0],"sum_hessian":[6.1459946E3,3.229955E3,2.9160393E3,1.1087367E3,2.1212183E3,2.3717927E3,5.4424664E2],"tree_param":{"num_deleted":"0","num_feature":"106","num_nodes":"7","size_leaf_vector":"0"}},{"base_weights":[9.10559E-2,-4.383203E-2,2.404285E-1,1.3482998E-1,-1.3723616E-1,3.000544E-1,-1.9491194E-2],"categories":[],"categories_nodes":[],"categories_segments":[],"categories_sizes":[],"default_left":[1,1,1,0,0,0,0],"id":105,"left_children":[1,3,5,-1,-1,-1,-1],"loss_changes":[1.2386364E2,5.3935936E1,4.521396E1,0E0,0E0,0E0,0E0],"parents":[2147483647,0,0,1,1,2,2],"right_children":[2,4,6,-1,-1,-1,-1],"split_conditions":[5.5E-1,-1.55E0,5.25E0,1.3482998E-3,-1.3723616E-3,3.000544E-3,-1.9491193E-4],"split_indices":[25,77,77,0,0,0,0],"split_type":[0,0,0,0,0,0,0],"sum_hessian":[6.145994E3,3.229955E3,2.9160393E3,1.1087367E3,2.1212183E3,2.3717927E3,5.4424664E2],"tree_param":{"num_deleted":"0","num_feature":"106","num_nodes":"7","size_leaf_vector":"0"}},{"base_weights":[-9.018487E-2,-1.6613266E-1,1.7171843E-1,4.2135656E-2,-2.4199732E-1,2.0270658E-1,-2.1860625E-1],"categories":[],"categories_nodes":[],"categories_segments":[],"categories_sizes":[],"default_left":[1,1,1,0,0,0,0],"id":106,"left_children":[1,3,5,-1,-1,-1,-1],"loss_changes":[1.2224597E2,7.527667E1,1.6756878E1,0E0,0E0,0E0,0E0],"parents":[2147483647,0,0,1,1,2,2],"right_children":[2,4,6,-1,-1,-1,-1],"split_conditions":[2.35E1,7.5E0,2.75E1,4.2135656E-4,-2.419973E-3,2.0270657E-3,-2.1860625E-3],"split_indices":[51,103,80,0,0,0,0],"split_type":[0,0,0,0,0,0,0],"sum_hessian":[6.1433657E3,4.762641E3,1.3807246E3,1.2717632E3,3.490878E3,1.2796157E3,1.0110887E2],"tree_param":{"num_deleted":"0","num_feature":"106","num_nodes":"7","size_leaf_vector":"0"}},{"base_weights":[9.01849E-2,1.661327E-1,-1.7171842E-1,-4.2135622E-2,2.4199735E-1,-2.0270656E-1,2.1860626E-1],"categories":[],"categories_nodes":[],"categories_segments":[],"categories_sizes":[],"default_left":[1,1,1,0,0,0,0],"id":107,"left_children":[1,3,5,-1,-1,-1,-1],"loss_changes":[1.2224599E2,7.527669E1,1.6756874E1,0E0,0E0,0E0,0E0],"parents":[2147483647,0,0,1,1,2,2],"right_children":[2,4,6,-1,-1,-1,-1],"split_conditions":[2.35E1,7.5E0,2.75E1,-4.213562E-4,2.4199735E-3,-2.0270655E-3,2.1860625E-3],"split_indices":[51,103,80,0,0,0,0],"split_type":[0,0,0,0,0,0,0],"sum_hessian":[6.1433657E3,4.762641E3,1.3807246E3,1.2717632E3,3.490878E3,1.2796157E3,1.0110888E2],"tree_param":{"num_deleted":"0","num_feature":"106","num_nodes":"7","size_leaf_vector":"0"}},{"base_weights":[-8.9318246E-2,8.171534E-2,-2.0403597E-1,-7.225732E-2,1.7156112E-1,-3.9536667E-1,-1.2168465E-1],"categories":[],"categories_nodes":[],"categories_segments":[],"categories_sizes":[],"default_left":[1,1,1,0,0,0,0],"id":108,"left_children":[1,3,5,-1,-1,-1,-1],"loss_changes":[1.2052614E2,3.413314E1,5.788028E1,0E0,0E0,0E0,0E0],"parents":[2147483647,0,0,1,1,2,2],"right_children":[2,4,6,-1,-1,-1,-1],"split_conditions":[4.7149998E-1,4.475E-1,-1.75E0,-7.2257314E-4,1.7156112E-3,-3.9536664E-3,-1.2168464E-3],"split_indices":[3,55,77,0,0,0,0],"split_type":[0,0,0,0,0,0,0],"sum_hessian":[6.140992E3,2.4654783E3,3.6755137E3,9.085876E2,1.5568907E3,1.1048239E3,2.5706897E3],"tree_param":{"num_deleted":"0","num_feature":"106","num_nodes":"7","size_leaf_vector":"0"}},{"base_weights":[8.9318246E-2,-8.1715345E-2,2.0403598E-1,7.225732E-2,-1.7156112E-1,3.9536673E-1,1.2168464E-1],"categories":[],"categories_nodes":[],"categories_segments":[],"categories_sizes":[],"default_left":[1,1,1,0,0,0,0],"id":109,"left_children":[1,3,5,-1,-1,-1,-1],"loss_changes":[1.2052615E2,3.413315E1,5.788031E1,0E0,0E0,0E0,0E0],"parents":[2147483647,0,0,1,1,2,2],"right_children":[2,4,6,-1,-1,-1,-1],"split_conditions":[4.7149998E-1,4.475E-1,-1.75E0,7.2257314E-4,-1.7156112E-3,3.9536674E-3,1.2168464E-3],"split_indices":[3,55,77,0,0,0,0],"split_type":[0,0,0,0,0,0,0],"sum_hessian":[6.1409917E3,2.4654783E3,3.6755137E3,9.085876E2,1.5568907E3,1.1048239E3,2.5706897E3],"tree_param":{"num_deleted":"0","num_feature":"106","num_nodes":"7","size_leaf_vector":"0"}},{"base_weights":[-8.846431E-2,1.0438388E-2,-2.847961E-1,-1.8622279E-1,9.9274725E-2,-3.4388652E-1,-2.4048146E-2],"categories":[],"categories_nodes":[],"categories_segments":[],"categories_sizes":[],"default_left":[1,1,1,0,0,0,0],"id":110,"left_children":[1,3,5,-1,-1,-1,-1],"loss_changes":[1.1921532E2,7.136256E1,3.168077E1,0E0,0E0,0E0,0E0],"parents":[2147483647,0,0,1,1,2,2],"right_children":[2,4,6,-1,-1,-1,-1],"split_conditions":[2.45E0,-1.95E0,5.3500004E0,-1.8622279E-3,9.927473E-4,-3.438865E-3,-2.4048146E-4],"split_indices":[25,77,77,0,0,0,0],"split_type":[0,0,0,0,0,0,0],"sum_hessian":[6.1383516E3,4.082651E3,2.0557004E3,1.2700299E3,2.812621E3,1.675648E3,3.800525E2],"tree_param":{"num_deleted":"0","num_feature":"106","num_nodes":"7","size_leaf_vector":"0"}},{"base_weights":[8.846433E-2,-1.0438372E-2,2.847961E-1,1.862228E-1,-9.927471E-2,3.4388652E-1,2.4048148E-2],"categories":[],"categories_nodes":[],"categories_segments":[],"categories_sizes":[],"default_left":[1,1,1,0,0,0,0],"id":111,"left_children":[1,3,5,-1,-1,-1,-1],"loss_changes":[1.1921532E2,7.1362564E1,3.168077E1,0E0,0E0,0E0,0E0],"parents":[2147483647,0,0,1,1,2,2],"right_children":[2,4,6,-1,-1,-1,-1],"split_conditions":[2.45E0,-1.95E0,5.3500004E0,1.862228E-3,-9.92747E-4,3.438865E-3,2.4048147E-4],"split_indices":[25,77,77,0,0,0,0],"split_type":[0,0,0,0,0,0,0],"sum_hessian":[6.1383516E3,4.082651E3,2.0557004E3,1.2700299E3,2.812621E3,1.675648E3,3.800525E2],"tree_param":{"num_deleted":"0","num_feature":"106","num_nodes":"7","size_leaf_vector":"0"}},{"base_weights":[-8.7615944E-2,1.0769647E-1,-1.8569106E-1,-5.5491594E-3,2.2983809E-1,-3.721191E-1,-1.05481766E-1],"categories":[],"categories_nodes":[],"categories_segments":[],"categories_sizes":[],"default_left":[1,1,1,0,0,0,0],"id":112,"left_children":[1,3,5,-1,-1,-1,-1],"loss_changes":[1.17574135E2,2.8386051E1,6.10567E1,0E0,0E0,0E0,0E0],"parents":[2147483647,0,0,1,1,2,2],"right_children":[2,4,6,-1,-1,-1,-1],"split_conditions":[-1.6500001E0,2.5E-1,-1.75E0,-5.5491593E-5,2.2983807E-3,-3.7211908E-3,-1.0548177E-3],"split_indices":[25,77,77,0,0,0,0],"split_type":[0,0,0,0,0,0,0],"sum_hessian":[6.135903E3,2.051109E3,4.0847942E3,1.0648086E3,9.863004E2,1.2276846E3,2.8571096E3],"tree_param":{"num_deleted":"0","num_feature":"106","num_nodes":"7","size_leaf_vector":"0"}},{"base_weights":[8.761595E-2,-1.07696466E-1,1.8569107E-1,5.549169E-3,-2.2983807E-1,3.721191E-1,1.0548179E-1],"categories":[],"categories_nodes":[],"categories_segments":[],"categories_sizes":[],"default_left":[1,1,1,0,0,0,0],"id":113,"left_children":[1,3,5,-1,-1,-1,-1],"loss_changes":[1.1757414E2,2.8386051E1,6.1056686E1,0E0,0E0,0E0,0E0],"parents":[2147483647,0,0,1,1,2,2],"right_children":[2,4,6,-1,-1,-1,-1],"split_conditions":[-1.6500001E0,2.5E-1,-1.75E0,5.549169E-5,-2.2983807E-3,3.7211908E-3,1.0548178E-3],"split_indices":[25,77,77,0,0,0,0],"split_type":[0,0,0,0,0,0,0],"sum_hessian":[6.1359033E3,2.051109E3,4.0847942E3,1.0648086E3,9.863004E2,1.2276846E3,2.8571096E3],"tree_param":{"num_deleted":"0","num_feature":"106","num_nodes":"7","size_leaf_vector":"0"}},{"base_weights":[-8.677747E-2,1.0724533E-2,-2.8053576E-1,-1.827725E-1,9.806244E-2,-3.3905408E-1,-2.275934E-2],"categories":[],"categories_nodes":[],"categories_segments":[],"categories_sizes":[],"default_left":[1,1,1,0,0,0,0],"id":114,"left_children":[1,3,5,-1,-1,-1,-1],"loss_changes":[1.1589116E2,6.899802E1,3.096933E1,0E0,0E0,0E0,0E0],"parents":[2147483647,0,0,1,1,2,2],"right_children":[2,4,6,-1,-1,-1,-1],"split_conditions":[2.45E0,-1.95E0,5.3500004E0,-1.827725E-3,9.806243E-4,-3.3905406E-3,-2.275934E-4],"split_indices":[25,77,77,0,0,0,0],"split_type":[0,0,0,0,0,0,0],"sum_hessian":[6.1333022E3,4.0807524E3,2.0525496E3,1.2687487E3,2.812004E3,1.6725465E3,3.8000317E2],"tree_param":{"num_deleted":"0","num_feature":"106","num_nodes":"7","size_leaf_vector":"0"}},{"base_weights":[8.677746E-2,-1.0724541E-2,2.8053576E-1,1.827725E-1,-9.806245E-2,3.3905408E-1,2.2759255E-2],"categories":[],"categories_nodes":[],"categories_segments":[],"categories_sizes":[],"default_left":[1,1,1,0,0,0,0],"id":115,"left_children":[1,3,5,-1,-1,-1,-1],"loss_changes":[1.1589116E2,6.899802E1,3.0969345E1,0E0,0E0,0E0,0E0],"parents":[2147483647,0,0,1,1,2,2],"right_children":[2,4,6,-1,-1,-1,-1],"split_conditions":[2.45E0,-1.95E0,5.3500004E0,1.827725E-3,-9.806245E-4,3.3905406E-3,2.2759255E-4],"split_indices":[25,77,77,0,0,0,0],"split_type":[0,0,0,0,0,0,0],"sum_hessian":[6.1333022E3,4.0807524E3,2.0525496E3,1.2687487E3,2.812004E3,1.6725465E3,3.8000317E2],"tree_param":{"num_deleted":"0","num_feature":"106","num_nodes":"7","size_leaf_vector":"0"}},{"base_weights":[-8.594588E-2,-1.5973556E-1,1.6819364E-1,-3.6827333E-2,-2.8223866E-1,1.98389E-1,-2.1207607E-1],"categories":[],"categories_nodes":[],"categories_segments":[],"categories_sizes":[],"default_left":[1,1,1,0,0,0,0],"id":116,"left_children":[1,3,5,-1,-1,-1,-1],"loss_changes":[1.1501599E2,7.154721E1,1.5890621E1,0E0,0E0,0E0,0E0],"parents":[2147483647,0,0,1,1,2,2],"right_children":[2,4,6,-1,-1,-1,-1],"split_conditions":[2.35E1,1.25E1,2.75E1,-3.6827332E-4,-2.8223866E-3,1.9838898E-3,-2.1207607E-3],"split_indices":[51,80,80,0,0,0,0],"split_type":[0,0,0,0,0,0,0],"sum_hessian":[6.1308125E3,4.7515625E3,1.3792499E3,2.3725085E3,2.3790542E3,1.2782302E3,1.01019714E2],"tree_param":{"num_deleted":"0","num_feature":"106","num_nodes":"7","size_leaf_vector":"0"}},{"base_weights":[8.5945874E-2,1.5973556E-1,-1.6819364E-1,3.6827344E-2,2.8223863E-1,-1.98389E-1,2.1207607E-1],"categories":[],"categories_nodes":[],"categories_segments":[],"categories_sizes":[],"default_left":[1,1,1,0,0,0,0],"id":117,"left_children":[1,3,5,-1,-1,-1,-1],"loss_changes":[1.1501599E2,7.1547195E1,1.5890625E1,0E0,0E0,0E0,0E0],"parents":[2147483647,0,0,1,1,2,2],"right_children":[2,4,6,-1,-1,-1,-1],"split_conditions":[2.35E1,1.25E1,2.75E1,3.6827344E-4,2.8223863E-3,-1.9838898E-3,2.1207607E-3],"split_indices":[51,80,80,0,0,0,0],"split_type":[0,0,0,0,0,0,0],"sum_hessian":[6.1308125E3,4.7515625E3,1.3792499E3,2.3725085E3,2.3790542E3,1.2782301E3,1.01019714E2],"tree_param":{"num_deleted":"0","num_feature":"106","num_nodes":"7","size_leaf_vector":"0"}},{"base_weights":[-8.512291E-2,-1.7507155E-1,1.2007469E-1,-9.991191E-2,-3.7044176E-1,2.7427566E-1,2.6440877E-2],"categories":[],"categories_nodes":[],"categories_segments":[],"categories_sizes":[],"default_left":[1,1,1,0,0,0,0],"id":118,"left_children":[1,3,5,-1,-1,-1,-1],"loss_changes":[1.1315016E2,6.2541748E1,2.6971544E1,0E0,0E0,0E0,0E0],"parents":[2147483647,0,0,1,1,2,2],"right_children":[2,4,6,-1,-1,-1,-1],"split_conditions":[1.95E1,1.95E1,-6.25E0,-9.991191E-4,-3.7044175E-3,2.7427566E-3,2.6440877E-4],"split_indices":[28,80,25,0,0,0,0],"split_type":[0,0,0,0,0,0,0],"sum_hessian":[6.128254E3,4.260712E3,1.8675417E3,3.0780764E3,1.1826359E3,7.048422E2,1.1626995E3],"tree_param":{"num_deleted":"0","num_feature":"106","num_nodes":"7","size_leaf_vector":"0"}},{"base_weights":[8.5122906E-2,1.7507151E-1,-1.2007466E-1,9.991188E-2,3.704417E-1,-2.742756E-1,-2.6440857E-2],"categories":[],"categories_nodes":[],"categories_segments":[],"categories_sizes":[],"default_left":[1,1,1,0,0,0,0],"id":119,"left_children":[1,3,5,-1,-1,-1,-1],"loss_changes":[1.13150085E2,6.254178E1,2.697154E1,0E0,0E0,0E0,0E0],"parents":[2147483647,0,0,1,1,2,2],"right_children":[2,4,6,-1,-1,-1,-1],"split_conditions":[1.95E1,1.95E1,-6.25E0,9.991188E-4,3.704417E-3,-2.742756E-3,-2.6440856E-4],"split_indices":[28,80,25,0,0,0,0],"split_type":[0,0,0,0,0,0,0],"sum_hessian":[6.128254E3,4.2607124E3,1.8675417E3,3.0780764E3,1.1826357E3,7.048422E2,1.1626995E3],"tree_param":{"num_deleted":"0","num_feature":"106","num_nodes":"7","size_leaf_vector":"0"}},{"base_weights":[-8.430661E-2,1.1560207E-2,-2.750722E-1,-1.7868981E-1,9.733966E-2,-3.3285335E-1,-2.1156264E-2],"categories":[],"categories_nodes":[],"categories_segments":[],"categories_sizes":[],"default_left":[1,1,1,0,0,0,0],"id":120,"left_children":[1,3,5,-1,-1,-1,-1],"loss_changes":[1.12050125E2,6.65779E1,3.005783E1,0E0,0E0,0E0,0E0],"parents":[2147483647,0,0,1,1,2,2],"right_children":[2,4,6,-1,-1,-1,-1],"split_conditions":[2.45E0,-1.95E0,5.3500004E0,-1.786898E-3,9.733966E-4,-3.3285334E-3,-2.1156264E-4],"split_indices":[25,77,77,0,0,0,0],"split_type":[0,0,0,0,0,0,0],"sum_hessian":[6.125772E3,4.0775767E3,2.048195E3,1.2668191E3,2.8107576E3,1.6682556E3,3.7993948E2],"tree_param":{"num_deleted":"0","num_feature":"106","num_nodes":"7","size_leaf_vector":"0"}},{"base_weights":[8.4306605E-2,-1.1560203E-2,2.7507216E-1,1.786898E-1,-9.733965E-2,3.3285332E-1,2.1156149E-2],"categories":[],"categories_nodes":[],"categories_segments":[],"categories_sizes":[],"default_left":[1,1,1,0,0,0,0],"id":121,"left_children":[1,3,5,-1,-1,-1,-1],"loss_changes":[1.12050095E2,6.6577896E1,3.0057861E1,0E0,0E0,0E0,0E0],"parents":[2147483647,0,0,1,1,2,2],"right_children":[2,4,6,-1,-1,-1,-1],"split_conditions":[2.45E0,-1.95E0,5.3500004E0,1.7868979E-3,-9.733965E-4,3.3285331E-3,2.1156149E-4],"split_indices":[25,77,77,0,0,0,0],"split_type":[0,0,0,0,0,0,0],"sum_hessian":[6.125772E3,4.0775767E3,2.048195E3,1.2668191E3,2.8107576E3,1.6682556E3,3.7993948E2],"tree_param":{"num_deleted":"0","num_feature":"106","num_nodes":"7","size_leaf_vector":"0"}},{"base_weights":[-8.349939E-2,-2.2137943E-1,4.7003E-2,-1.6396001E-1,-4.6536052E-1,-5.4049477E-2,1.9035907E-1],"categories":[],"categories_nodes":[],"categories_segments":[],"categories_sizes":[],"default_left":[1,1,1,0,0,0,0],"id":122,"left_children":[1,3,5,-1,-1,-1,-1],"loss_changes":[1.1020795E2,4.1644913E1,4.5600994E1,0E0,0E0,0E0,0E0],"parents":[2147483647,0,0,1,1,2,2],"right_children":[2,4,6,-1,-1,-1,-1],"split_conditions":[1.45E1,2.25E1,5.445E-1,-1.6396E-3,-4.653605E-3,-5.4049474E-4,1.9035906E-3],"split_indices":[51,80,55,0,0,0,0],"split_type":[0,0,0,0,0,0,0],"sum_hessian":[6.123238E3,2.9771184E3,3.1461194E3,2.4113047E3,5.6581354E2,1.845699E3,1.3004203E3],"tree_param":{"num_deleted":"0","num_feature":"106","num_nodes":"7","size_leaf_vector":"0"}},{"base_weights":[8.349938E-2,2.2137943E-1,-4.7003005E-2,1.6396E-1,4.6536055E-1,5.404947E-2,-1.9035907E-1],"categories":[],"categories_nodes":[],"categories_segments":[],"categories_sizes":[],"default_left":[1,1,1,0,0,0,0],"id":123,"left_children":[1,3,5,-1,-1,-1,-1],"loss_changes":[1.1020795E2,4.1644943E1,4.5600986E1,0E0,0E0,0E0,0E0],"parents":[2147483647,0,0,1,1,2,2],"right_children":[2,4,6,-1,-1,-1,-1],"split_conditions":[1.45E1,2.25E1,5.445E-1,1.6395999E-3,4.6536056E-3,5.404947E-4,-1.9035906E-3],"split_indices":[51,80,55,0,0,0,0],"split_type":[0,0,0,0,0,0,0],"sum_hessian":[6.123238E3,2.9771184E3,3.1461194E3,2.4113047E3,5.658135E2,1.845699E3,1.3004203E3],"tree_param":{"num_deleted":"0","num_feature":"106","num_nodes":"7","size_leaf_vector":"0"}},{"base_weights":[-8.270153E-2,-1.546241E-1,1.6473074E-1,4.499437E-2,-2.2768396E-1,5.7026695E-2,2.6937723E-1],"categories":[],"categories_nodes":[],"categories_segments":[],"categories_sizes":[],"default_left":[1,1,1,0,0,0,0],"id":124,"left_children":[1,3,5,-1,-1,-1,-1],"loss_changes":[1.0896503E2,6.918916E1,1.5528717E1,0E0,0E0,0E0,0E0],"parents":[2147483647,0,0,1,1,2,2],"right_children":[2,4,6,-1,-1,-1,-1],"split_conditions":[2.35E1,7.5E0,4.5450002E-1,4.4994368E-4,-2.2768395E-3,5.702669E-4,2.6937723E-3],"split_indices":[51,103,59,0,0,0,0],"split_type":[0,0,0,0,0,0,0],"sum_hessian":[6.1205874E3,4.7424478E3,1.3781396E3,1.2707671E3,3.4716807E3,6.7990955E2,6.982301E2],"tree_param":{"num_deleted":"0","num_feature":"106","num_nodes":"7","size_leaf_vector":"0"}},{"base_weights":[8.270154E-2,1.5462412E-1,-1.6473073E-1,-4.4994343E-2,2.2768398E-1,-5.7026707E-2,-2.693772E-1],"categories":[],"categories_nodes":[],"categories_segments":[],"categories_sizes":[],"default_left":[1,1,1,0,0,0,0],"id":125,"left_children":[1,3,5,-1,-1,-1,-1],"loss_changes":[1.0896503E2,6.9189156E1,1.5528706E1,0E0,0E0,0E0,0E0],"parents":[2147483647,0,0,1,1,2,2],"right_children":[2,4,6,-1,-1,-1,-1],"split_conditions":[2.35E1,7.5E0,4.5450002E-1,-4.499434E-4,2.2768397E-3,-5.7026703E-4,-2.6937719E-3],"split_indices":[51,103,59,0,0,0,0],"split_type":[0,0,0,0,0,0,0],"sum_hessian":[6.1205874E3,4.7424478E3,1.3781396E3,1.2707672E3,3.4716807E3,6.7990955E2,6.982301E2],"tree_param":{"num_deleted":"0","num_feature":"106","num_nodes":"7","size_leaf_vector":"0"}},{"base_weights":[-8.190791E-2,1.2093588E-2,-2.6925537E-1,-1.7480585E-1,9.629084E-2,-3.2618886E-1,-1.9723913E-2],"categories":[],"categories_nodes":[],"categories_segments":[],"categories_sizes":[],"default_left":[1,1,1,0,0,0,0],"id":126,"left_children":[1,3,5,-1,-1,-1,-1],"loss_changes":[1.0776633E2,6.415224E1,2.9039093E1,0E0,0E0,0E0,0E0],"parents":[2147483647,0,0,1,1,2,2],"right_children":[2,4,6,-1,-1,-1,-1],"split_conditions":[2.45E0,-1.95E0,5.3500004E0,-1.7480585E-3,9.629084E-4,-3.2618886E-3,-1.9723912E-4],"split_indices":[25,77,77,0,0,0,0],"split_type":[0,0,0,0,0,0,0],"sum_hessian":[6.1180986E3,4.0746035E3,2.043495E3,1.2651567E3,2.8094465E3,1.6636147E3,3.7988025E2],"tree_param":{"num_deleted":"0","num_feature":"106","num_nodes":"7","size_leaf_vector":"0"}},{"base_weights":[8.1907906E-2,-1.2093581E-2,2.6925534E-1,1.7480585E-1,-9.6290834E-2,3.2618883E-1,1.9723825E-2],"categories":[],"categories_nodes":[],"categories_segments":[],"categories_sizes":[],"default_left":[1,1,1,0,0,0,0],"id":127,"left_children":[1,3,5,-1,-1,-1,-1],"loss_changes":[1.0776631E2,6.415223E1,2.9039108E1,0E0,0E0,0E0,0E0],"parents":[2147483647,0,0,1,1,2,2],"right_children":[2,4,6,-1,-1,-1,-1],"split_conditions":[2.45E0,-1.95E0,5.3500004E0,1.7480585E-3,-9.629083E-4,3.2618882E-3,1.9723825E-4],"split_indices":[25,77,77,0,0,0,0],"split_type":[0,0,0,0,0,0,0],"sum_hessian":[6.1180986E3,4.0746033E3,2.043495E3,1.2651567E3,2.8094465E3,1.6636147E3,3.7988028E2],"tree_param":{"num_deleted":"0","num_feature":"106","num_nodes":"7","size_leaf_vector":"0"}},{"base_weights":[-8.112429E-2,-1.6849306E-1,1.1784875E-1,-9.5328234E-2,-3.5946056E-1,2.6969022E-1,2.5686223E-2],"categories":[],