{"learner":{"attributes":{"best_iteration":"499","best_ntree_limit":"500"},"feature_names":[],"feature_types":[],"gradient_booster":{"model":{"gbtree_model_param":{"num_parallel_tree":"1","num_trees":"1000","size_leaf_vector":"0"},"tree_info":[0,1,0,1,0,1,0,1,0,1,0,1,0,1,0,1,0,1,0,1,0,1,0,1,0,1,0,1,0,1,0,1,0,1,0,1,0,1,0,1,0,1,0,1,0,1,0,1,0,1,0,1,0,1,0,1,0,1,0,1,0,1,0,1,0,1,0,1,0,1,0,1,0,1,0,1,0,1,0,1,0,1,0,1,0,1,0,1,0,1,0,1,0,1,0,1,0,1,0,1,0,1,0,1,0,1,0,1,0,1,0,1,0,1,0,1,0,1,0,1,0,1,0,1,0,1,0,1,0,1,0,1,0,1,0,1,0,1,0,1,0,1,0,1,0,1,0,1,0,1,0,1,0,1,0,1,0,1,0,1,0,1,0,1,0,1,0,1,0,1,0,1,0,1,0,1,0,1,0,1,0,1,0,1,0,1,0,1,0,1,0,1,0,1,0,1,0,1,0,1,0,1,0,1,0,1,0,1,0,1,0,1,0,1,0,1,0,1,0,1,0,1,0,1,0,1,0,1,0,1,0,1,0,1,0,1,0,1,0,1,0,1,0,1,0,1,0,1,0,1,0,1,0,1,0,1,0,1,0,1,0,1,0,1,0,1,0,1,0,1,0,1,0,1,0,1,0,1,0,1,0,1,0,1,0,1,0,1,0,1,0,1,0,1,0,1,0,1,0,1,0,1,0,1,0,1,0,1,0,1,0,1,0,1,0,1,0,1,0,1,0,1,0,1,0,1,0,1,0,1,0,1,0,1,0,1,0,1,0,1,0,1,0,1,0,1,0,1,0,1,0,1,0,1,0,1,0,1,0,1,0,1,0,1,0,1,0,1,0,1,0,1,0,1,0,1,0,1,0,1,0,1,0,1,0,1,0,1,0,1,0,1,0,1,0,1,0,1,0,1,0,1,0,1,0,1,0,1,0,1,0,1,0,1,0,1,0,1,0,1,0,1,0,1,0,1,0,1,0,1,0,1,0,1,0,1,0,1,0,1,0,1,0,1,0,1,0,1,0,1,0,1,0,1,0,1,0,1,0,1,0,1,0,1,0,1,0,1,0,1,0,1,0,1,0,1,0,1,0,1,0,1,0,1,0,1,0,1,0,1,0,1,0,1,0,1,0,1,0,1,0,1,0,1,0,1,0,1,0,1,0,1,0,1,0,1,0,1,0,1,0,1,0,1,0,1,0,1,0,1,0,1,0,1,0,1,0,1,0,1,0,1,0,1,0,1,0,1,0,1,0,1,0,1,0,1,0,1,0,1,0,1,0,1,0,1,0,1,0,1,0,1,0,1,0,1,0,1,0,1,0,1,0,1,0,1,0,1,0,1,0,1,0,1,0,1,0,1,0,1,0,1,0,1,0,1,0,1,0,1,0,1,0,1,0,1,0,1,0,1,0,1,0,1,0,1,0,1,0,1,0,1,0,1,0,1,0,1,0,1,0,1,0,1,0,1,0,1,0,1,0,1,0,1,0,1,0,1,0,1,0,1,0,1,0,1,0,1,0,1,0,1,0,1,0,1,0,1,0,1,0,1,0,1,0,1,0,1,0,1,0,1,0,1,0,1,0,1,0,1,0,1,0,1,0,1,0,1,0,1,0,1,0,1,0,1,0,1,0,1,0,1,0,1,0,1,0,1,0,1,0,1,0,1,0,1,0,1,0,1,0,1,0,1,0,1,0,1,0,1,0,1,0,1,0,1,0,1,0,1,0,1,0,1,0,1,0,1,0,1,0,1,0,1,0,1,0,1,0,1,0,1,0,1,0,1,0,1,0,1,0,1,0,1,0,1,0,1,0,1,0,1,0,1,0,1,0,1,0,1,0,1,0,1,0,1,0,1,0,1,0,1,0,1,0,1,0,1,0,1,0,1,0,1,0,1,0,1,0,1,0,1,0,1,0,1,0,1,0,1,0,1,0,1,0,1,0,1,0,1,0,1,0,1,0,1,0,1,0,1,0,1,0,1,0,1,0,1,0,1,0,1,0,1,0,1,0,1,0,1,0,1,0,1,0,1,0,1,0,1,0,1,0,1,0,1,0,1,0,1,0,1,0,1,0,1,0,1,0,1,0,1,0,1,0,1,0,1,0,1,0,1,0,1,0,1,0,1,0,1,0,1,0,1,0,1,0,1,0,1,0,1,0,1,0,1,0,1,0,1,0,1,0,1,0,1,0,1,0,1,0,1,0,1,0,1,0,1,0,1,0,1,0,1,0,1,0,1,0,1,0,1,0,1,0,1,0,1,0,1],"trees":[{"base_weights":[-1.5991335E-1,-3.704553E-1,4.2302247E-2,-1.9972067E-1,-5.2096176E-1,-2.3427439E-1,1.7088899E-1],"categories":[],"categories_nodes":[],"categories_segments":[],"categories_sizes":[],"default_left":[1,1,1,0,0,0,0],"id":0,"left_children":[1,3,5,-1,-1,-1,-1],"loss_changes":[2.6532092E2,7.83479E1,1.1311606E2,0E0,0E0,0E0,0E0],"parents":[2147483647,0,0,1,1,2,2],"right_children":[2,4,6,-1,-1,-1,-1],"split_conditions":[1.45E1,1.15E1,-1.95E0,-1.9972066E-3,-5.2096173E-3,-2.3427438E-3,1.7088898E-3],"split_indices":[51,80,77,0,0,0,0],"split_type":[0,0,0,0,0,0,0],"sum_hessian":[6.2305E3,3.052E3,3.1785E3,1.431E3,1.621E3,1.0085E3,2.17E3],"tree_param":{"num_deleted":"0","num_feature":"106","num_nodes":"7","size_leaf_vector":"0"}},{"base_weights":[1.5991335E-1,3.704553E-1,-4.2302247E-2,1.9972067E-1,5.2096176E-1,2.3427439E-1,-1.7088899E-1],"categories":[],"categories_nodes":[],"categories_segments":[],"categories_sizes":[],"default_left":[1,1,1,0,0,0,0],"id":1,"left_children":[1,3,5,-1,-1,-1,-1],"loss_changes":[2.6532092E2,7.83479E1,1.1311606E2,0E0,0E0,0E0,0E0],"parents":[2147483647,0,0,1,1,2,2],"right_children":[2,4,6,-1,-1,-1,-1],"split_conditions":[1.45E1,1.15E1,-1.95E0,1.9972066E-3,5.2096173E-3,2.3427438E-3,-1.7088898E-3],"split_indices":[51,80,77,0,0,0,0],"split_type":[0,0,0,0,0,0,0],"sum_hessian":[6.2305E3,3.052E3,3.1785E3,1.431E3,1.621E3,1.0085E3,2.17E3],"tree_param":{"num_deleted":"0","num_feature":"106","num_nodes":"7","size_leaf_vector":"0"}},{"base_weights":[-1.5831703E-1,-3.667591E-1,4.18792E-2,-2.0849156E-1,-5.260376E-1,-2.1607879E-1,1.7701791E-1],"categories":[],"categories_nodes":[],"categories_segments":[],"categories_sizes":[],"default_left":[1,1,1,0,0,0,0],"id":2,"left_children":[1,3,5,-1,-1,-1,-1],"loss_changes":[2.60049E2,7.685098E1,1.1087556E2,0E0,0E0,0E0,0E0],"parents":[2147483647,0,0,1,1,2,2],"right_children":[2,4,6,-1,-1,-1,-1],"split_conditions":[1.45E1,1.25E1,-1.55E0,-2.0849155E-3,-5.260376E-3,-2.1607878E-3,1.7701791E-3],"split_indices":[51,80,77,0,0,0,0],"split_type":[0,0,0,0,0,0,0],"sum_hessian":[6.2304385E3,3.0519504E3,3.178488E3,1.5319916E3,1.5199587E3,1.0924941E3,2.085994E3],"tree_param":{"num_deleted":"0","num_feature":"106","num_nodes":"7","size_leaf_vector":"0"}},{"base_weights":[1.5831704E-1,3.667591E-1,-4.187919E-2,2.0849156E-1,5.260376E-1,2.160788E-1,-1.7701791E-1],"categories":[],"categories_nodes":[],"categories_segments":[],"categories_sizes":[],"default_left":[1,1,1,0,0,0,0],"id":3,"left_children":[1,3,5,-1,-1,-1,-1],"loss_changes":[2.6004898E2,7.685098E1,1.10875565E2,0E0,0E0,0E0,0E0],"parents":[2147483647,0,0,1,1,2,2],"right_children":[2,4,6,-1,-1,-1,-1],"split_conditions":[1.45E1,1.25E1,-1.55E0,2.0849155E-3,5.260376E-3,2.160788E-3,-1.7701791E-3],"split_indices":[51,80,77,0,0,0,0],"split_type":[0,0,0,0,0,0,0],"sum_hessian":[6.2304385E3,3.0519504E3,3.178488E3,1.5319916E3,1.5199587E3,1.0924943E3,2.085994E3],"tree_param":{"num_deleted":"0","num_feature":"106","num_nodes":"7","size_leaf_vector":"0"}},{"base_weights":[-1.5673968E-1,9.5599085E-2,-3.1932616E-1,-1.5732405E-1,2.1081416E-1,-4.6324477E-1,-1.1587143E-1],"categories":[],"categories_nodes":[],"categories_segments":[],"categories_sizes":[],"default_left":[1,1,1,0,0,0,0],"id":4,"left_children":[1,3,5,-1,-1,-1,-1],"loss_changes":[2.5567957E2,7.120777E1,1.1091516E2,0E0,0E0,0E0,0E0],"parents":[2147483647,0,0,1,1,2,2],"right_children":[2,4,6,-1,-1,-1,-1],"split_conditions":[4.6850002E-1,-2.05E0,1.55E0,-1.5732404E-3,2.1081415E-3,-4.6324474E-3,-1.1587143E-3],"split_indices":[3,77,77,0,0,0,0],"split_type":[0,0,0,0,0,0,0],"sum_hessian":[6.2302583E3,2.4414585E3,3.7887998E3,7.639814E2,1.6774772E3,2.2183323E3,1.5704678E3],"tree_param":{"num_deleted":"0","num_feature":"106","num_nodes":"7","size_leaf_vector":"0"}},{"base_weights":[1.5673971E-1,-9.559906E-2,3.193262E-1,1.5732405E-1,-2.1081413E-1,4.6324486E-1,1.15871444E-1],"categories":[],"categories_nodes":[],"categories_segments":[],"categories_sizes":[],"default_left":[1,1,1,0,0,0,0],"id":5,"left_children":[1,3,5,-1,-1,-1,-1],"loss_changes":[2.556796E2,7.120776E1,1.1091516E2,0E0,0E0,0E0,0E0],"parents":[2147483647,0,0,1,1,2,2],"right_children":[2,4,6,-1,-1,-1,-1],"split_conditions":[4.6850002E-1,-2.05E0,1.55E0,1.5732404E-3,-2.1081413E-3,4.6324483E-3,1.1587144E-3],"split_indices":[3,77,77,0,0,0,0],"split_type":[0,0,0,0,0,0,0],"sum_hessian":[6.2302583E3,2.4414585E3,3.7887998E3,7.639814E2,1.6774772E3,2.218332E3,1.5704678E3],"tree_param":{"num_deleted":"0","num_feature":"106","num_nodes":"7","size_leaf_vector":"0"}},{"base_weights":[-1.5517949E-1,-3.601301E-1,4.1646484E-2,-1.9401528E-1,-5.065903E-1,-2.274537E-1,1.6675381E-1],"categories":[],"categories_nodes":[],"categories_segments":[],"categories_sizes":[],"default_left":[1,1,1,0,0,0,0],"id":6,"left_children":[1,3,5,-1,-1,-1,-1],"loss_changes":[2.513713E2,7.416919E1,1.07076904E2,0E0,0E0,0E0,0E0],"parents":[2147483647,0,0,1,1,2,2],"right_children":[2,4,6,-1,-1,-1,-1],"split_conditions":[1.45E1,1.15E1,-1.95E0,-1.9401527E-3,-5.065903E-3,-2.274537E-3,1.6675381E-3],"split_indices":[51,80,77,0,0,0,0],"split_type":[0,0,0,0,0,0,0],"sum_hessian":[6.230006E3,3.0516055E3,3.1784006E3,1.43095E3,1.6206555E3,1.00845074E3,2.16995E3],"tree_param":{"num_deleted":"0","num_feature":"106","num_nodes":"7","size_leaf_vector":"0"}},{"base_weights":[1.5517949E-1,3.6013007E-1,-4.1646447E-2,1.9401519E-1,5.065903E-1,2.2745377E-1,-1.667538E-1],"categories":[],"categories_nodes":[],"categories_segments":[],"categories_sizes":[],"default_left":[1,1,1,0,0,0,0],"id":7,"left_children":[1,3,5,-1,-1,-1,-1],"loss_changes":[2.5137122E2,7.416922E1,1.0707694E2,0E0,0E0,0E0,0E0],"parents":[2147483647,0,0,1,1,2,2],"right_children":[2,4,6,-1,-1,-1,-1],"split_conditions":[1.45E1,1.15E1,-1.95E0,1.9401519E-3,5.065903E-3,2.2745377E-3,-1.667538E-3],"split_indices":[51,80,77,0,0,0,0],"split_type":[0,0,0,0,0,0,0],"sum_hessian":[6.230006E3,3.0516055E3,3.1784004E3,1.4309501E3,1.6206555E3,1.0084507E3,2.1699497E3],"tree_param":{"num_deleted":"0","num_feature":"106","num_nodes":"7","size_leaf_vector":"0"}},{"base_weights":[-1.5363862E-1,9.443951E-2,-3.1349558E-1,-1.5336129E-1,2.0731877E-1,-4.5510098E-1,-1.1334732E-1],"categories":[],"categories_nodes":[],"categories_segments":[],"categories_sizes":[],"default_left":[1,1,1,0,0,0,0],"id":8,"left_children":[1,3,5,-1,-1,-1,-1],"loss_changes":[2.471173E2,6.834821E1,1.07344025E2,0E0,0E0,0E0,0E0],"parents":[2147483647,0,0,1,1,2,2],"right_children":[2,4,6,-1,-1,-1,-1],"split_conditions":[4.6850002E-1,-2.05E0,1.55E0,-1.5336128E-3,2.0731876E-3,-4.5510097E-3,-1.1334732E-3],"split_indices":[3,77,77,0,0,0,0],"split_type":[0,0,0,0,0,0,0],"sum_hessian":[6.229617E3,2.4413518E3,3.7882651E3,7.639389E2,1.677413E3,2.217854E3,1.5704111E3],"tree_param":{"num_deleted":"0","num_feature":"106","num_nodes":"7","size_leaf_vector":"0"}},{"base_weights":[1.5363862E-1,-9.44395E-2,3.1349558E-1,1.5336129E-1,-2.0731877E-1,4.5510095E-1,1.13347374E-1],"categories":[],"categories_nodes":[],"categories_segments":[],"categories_sizes":[],"default_left":[1,1,1,0,0,0,0],"id":9,"left_children":[1,3,5,-1,-1,-1,-1],"loss_changes":[2.471173E2,6.8348206E1,1.07343994E2,0E0,0E0,0E0,0E0],"parents":[2147483647,0,0,1,1,2,2],"right_children":[2,4,6,-1,-1,-1,-1],"split_conditions":[4.6850002E-1,-2.05E0,1.55E0,1.5336128E-3,-2.0731876E-3,4.5510093E-3,1.1334737E-3],"split_indices":[3,77,77,0,0,0,0],"split_type":[0,0,0,0,0,0,0],"sum_hessian":[6.2296167E3,2.4413518E3,3.7882651E3,7.639389E2,1.677413E3,2.217854E3,1.570411E3],"tree_param":{"num_deleted":"0","num_feature":"106","num_nodes":"7","size_leaf_vector":"0"}},{"base_weights":[-1.521143E-1,-3.53659E-1,4.14096E-2,-2.008385E-1,-5.0752497E-1,-2.0778613E-1,1.7194946E-1],"categories":[],"categories_nodes":[],"categories_segments":[],"categories_sizes":[],"default_left":[1,1,1,0,0,0,0],"id":10,"left_children":[1,3,5,-1,-1,-1,-1],"loss_changes":[2.4301408E2,7.16611E1,1.0345565E2,0E0,0E0,0E0,0E0],"parents":[2147483647,0,0,1,1,2,2],"right_children":[2,4,6,-1,-1,-1,-1],"split_conditions":[1.45E1,1.25E1,-1.55E0,-2.008385E-3,-5.0752494E-3,-2.0778612E-3,1.7194946E-3],"split_indices":[51,80,77,0,0,0,0],"split_type":[0,0,0,0,0,0,0],"sum_hessian":[6.229161E3,3.0509421E3,3.178219E3,1.5318276E3,1.5191144E3,1.0923575E3,2.0858616E3],"tree_param":{"num_deleted":"0","num_feature":"106","num_nodes":"7","size_leaf_vector":"0"}},{"base_weights":[1.521143E-1,3.5365903E-1,-4.1409604E-2,2.0083858E-1,5.075249E-1,2.0778611E-1,-1.7194946E-1],"categories":[],"categories_nodes":[],"categories_segments":[],"categories_sizes":[],"default_left":[1,1,1,0,0,0,0],"id":11,"left_children":[1,3,5,-1,-1,-1,-1],"loss_changes":[2.4301408E2,7.166098E1,1.03455635E2,0E0,0E0,0E0,0E0],"parents":[2147483647,0,0,1,1,2,2],"right_children":[2,4,6,-1,-1,-1,-1],"split_conditions":[1.45E1,1.25E1,-1.55E0,2.0083857E-3,5.075249E-3,2.077861E-3,-1.7194946E-3],"split_indices":[51,80,77,0,0,0,0],"split_type":[0,0,0,0,0,0,0],"sum_hessian":[6.229161E3,3.0509421E3,3.178219E3,1.5318276E3,1.5191144E3,1.0923575E3,2.0858616E3],"tree_param":{"num_deleted":"0","num_feature":"106","num_nodes":"7","size_leaf_vector":"0"}},{"base_weights":[-1.5060864E-1,9.329742E-2,-3.0780235E-1,-1.4963011E-1,2.0395435E-1,-4.471681E-1,-1.10879116E-1],"categories":[],"categories_nodes":[],"categories_segments":[],"categories_sizes":[],"default_left":[1,1,1,0,0,0,0],"id":12,"left_children":[1,3,5,-1,-1,-1,-1],"loss_changes":[2.3887384E2,6.568029E1,1.0392056E2,0E0,0E0,0E0,0E0],"parents":[2147483647,0,0,1,1,2,2],"right_children":[2,4,6,-1,-1,-1,-1],"split_conditions":[4.6850002E-1,-2.05E0,1.55E0,-1.4963011E-3,2.0395436E-3,-4.471681E-3,-1.1087911E-3],"split_indices":[3,77,77,0,0,0,0],"split_type":[0,0,0,0,0,0,0],"sum_hessian":[6.228578E3,2.4411812E3,3.787397E3,7.638759E2,1.6773052E3,2.2170698E3,1.5703271E3],"tree_param":{"num_deleted":"0","num_feature":"106","num_nodes":"7","size_leaf_vector":"0"}},{"base_weights":[1.5060863E-1,-9.329741E-2,3.0780232E-1,1.4963013E-1,-2.0395435E-1,4.471681E-1,1.1087909E-1],"categories":[],"categories_nodes":[],"categories_segments":[],"categories_sizes":[],"default_left":[1,1,1,0,0,0,0],"id":13,"left_children":[1,3,5,-1,-1,-1,-1],"loss_changes":[2.3887381E2,6.568031E1,1.0392056E2,0E0,0E0,0E0,0E0],"parents":[2147483647,0,0,1,1,2,2],"right_children":[2,4,6,-1,-1,-1,-1],"split_conditions":[4.6850002E-1,-2.05E0,1.55E0,1.4963013E-3,-2.0395436E-3,4.471681E-3,1.1087909E-3],"split_indices":[3,77,77,0,0,0,0],"split_type":[0,0,0,0,0,0,0],"sum_hessian":[6.228578E3,2.4411812E3,3.787397E3,7.63876E2,1.6773052E3,2.2170698E3,1.5703271E3],"tree_param":{"num_deleted":"0","num_feature":"106","num_nodes":"7","size_leaf_vector":"0"}},{"base_weights":[-1.49119E-1,-3.4733972E-1,4.116898E-2,-7.6590836E-2,-4.3130273E-1,-1.22566454E-1,2.3456526E-1],"categories":[],"categories_nodes":[],"categories_segments":[],"categories_sizes":[],"default_left":[1,1,1,0,0,0,0],"id":14,"left_children":[1,3,5,-1,-1,-1,-1],"loss_changes":[2.3496349E2,6.9324554E1,1.0069289E2,0E0,0E0,0E0,0E0],"parents":[2147483647,0,0,1,1,2,2],"right_children":[2,4,6,-1,-1,-1,-1],"split_conditions":[1.45E1,6.5E0,5.2250004E-1,-7.6590833E-4,-4.313027E-3,-1.2256645E-3,2.3456526E-3],"split_indices":[51,103,55,0,0,0,0],"split_type":[0,0,0,0,0,0,0],"sum_hessian":[6.227931E3,3.049979E3,3.177952E3,7.2240607E2,2.327573E3,1.7211434E3,1.4568085E3],"tree_param":{"num_deleted":"0","num_feature":"106","num_nodes":"7","size_leaf_vector":"0"}},{"base_weights":[1.4911905E-1,3.4733975E-1,-4.116893E-2,7.659093E-2,4.3130276E-1,1.2256648E-1,-2.3456517E-1],"categories":[],"categories_nodes":[],"categories_segments":[],"categories_sizes":[],"default_left":[1,1,1,0,0,0,0],"id":15,"left_children":[1,3,5,-1,-1,-1,-1],"loss_changes":[2.3496347E2,6.932449E1,1.0069285E2,0E0,0E0,0E0,0E0],"parents":[2147483647,0,0,1,1,2,2],"right_children":[2,4,6,-1,-1,-1,-1],"split_conditions":[1.45E1,6.5E0,5.2250004E-1,7.659093E-4,4.3130275E-3,1.2256647E-3,-2.3456516E-3],"split_indices":[51,103,55,0,0,0,0],"split_type":[0,0,0,0,0,0,0],"sum_hessian":[6.227931E3,3.049979E3,3.1779521E3,7.22406E2,2.327573E3,1.7211436E3,1.4568085E3],"tree_param":{"num_deleted":"0","num_feature":"106","num_nodes":"7","size_leaf_vector":"0"}},{"base_weights":[-1.4764531E-1,-2.6875594E-1,1.5848796E-1,-8.205274E-2,-4.068843E-1,-5.998464E-2,2.7979502E-1],"categories":[],"categories_nodes":[],"categories_segments":[],"categories_sizes":[],"default_left":[1,1,1,0,0,0,0],"id":16,"left_children":[1,3,5,-1,-1,-1,-1],"loss_changes":[2.3096039E2,1.15065186E2,4.6823563E1,0E0,0E0,0E0,0E0],"parents":[2147483647,0,0,1,1,2,2],"right_children":[2,4,6,-1,-1,-1,-1],"split_conditions":[2.15E1,1.15E1,-1.3499999E0,-8.205274E-4,-4.068843E-3,-5.9984636E-4,2.79795E-3],"split_indices":[51,81,77,0,0,0,0],"split_type":[0,0,0,0,0,0,0],"sum_hessian":[6.2272285E3,4.462086E3,1.7651422E3,1.8980939E3,2.5639924E3,6.3036597E2,1.1347762E3],"tree_param":{"num_deleted":"0","num_feature":"106","num_nodes":"7","size_leaf_vector":"0"}},{"base_weights":[1.476453E-1,2.687559E-1,-1.5848795E-1,8.205275E-2,4.0688422E-1,5.998463E-2,-2.79795E-1],"categories":[],"categories_nodes":[],"categories_segments":[],"categories_sizes":[],"default_left":[1,1,1,0,0,0,0],"id":17,"left_children":[1,3,5,-1,-1,-1,-1],"loss_changes":[2.3096031E2,1.15065125E2,4.6823547E1,0E0,0E0,0E0,0E0],"parents":[2147483647,0,0,1,1,2,2],"right_children":[2,4,6,-1,-1,-1,-1],"split_conditions":[2.15E1,1.15E1,-1.3499999E0,8.205275E-4,4.068842E-3,5.998463E-4,-2.7979498E-3],"split_indices":[51,81,77,0,0,0,0],"split_type":[0,0,0,0,0,0,0],"sum_hessian":[6.2272285E3,4.4620864E3,1.7651422E3,1.8980938E3,2.5639924E3,6.30366E2,1.1347762E3],"tree_param":{"num_deleted":"0","num_feature":"106","num_nodes":"7","size_leaf_vector":"0"}},{"base_weights":[-1.4618678E-1,9.198966E-2,-2.997394E-1,-1.4506973E-1,1.999709E-1,-4.35976E-1,-1.0735568E-1],"categories":[],"categories_nodes":[],"categories_segments":[],"categories_sizes":[],"default_left":[1,1,1,0,0,0,0],"id":18,"left_children":[1,3,5,-1,-1,-1,-1],"loss_changes":[2.2778313E2,6.253562E1,9.9199646E1,0E0,0E0,0E0,0E0],"parents":[2147483647,0,0,1,1,2,2],"right_children":[2,4,6,-1,-1,-1,-1],"split_conditions":[4.6850002E-1,-2.05E0,1.55E0,-1.4506973E-3,1.999709E-3,-4.35976E-3,-1.0735567E-3],"split_indices":[3,77,77,0,0,0,0],"split_type":[0,0,0,0,0,0,0],"sum_hessian":[6.2264897E3,2.4408586E3,3.7856309E3,7.637647E2,1.6770939E3,2.215475E3,1.5701559E3],"tree_param":{"num_deleted":"0","num_feature":"106","num_nodes":"7","size_leaf_vector":"0"}},{"base_weights":[1.4618681E-1,-9.198966E-2,2.9973942E-1,1.4506967E-1,-1.9997089E-1,4.3597603E-1,1.07355736E-1],"categories":[],"categories_nodes":[],"categories_segments":[],"categories_sizes":[],"default_left":[1,1,1,0,0,0,0],"id":19,"left_children":[1,3,5,-1,-1,-1,-1],"loss_changes":[2.2778319E2,6.2535606E1,9.9199646E1,0E0,0E0,0E0,0E0],"parents":[2147483647,0,0,1,1,2,2],"right_children":[2,4,6,-1,-1,-1,-1],"split_conditions":[4.6850002E-1,-2.05E0,1.55E0,1.4506967E-3,-1.9997088E-3,4.3597603E-3,1.0735573E-3],"split_indices":[3,77,77,0,0,0,0],"split_type":[0,0,0,0,0,0,0],"sum_hessian":[6.2264897E3,2.4408586E3,3.785631E3,7.637648E2,1.6770939E3,2.215475E3,1.5701559E3],"tree_param":{"num_deleted":"0","num_feature":"106","num_nodes":"7","size_leaf_vector":"0"}},{"base_weights":[-1.4474687E-1,-3.3860943E-1,4.127481E-2,-4.2875165E-1,-9.740743E-2,1.8537557E-1,-1.6873388E-1],"categories":[],"categories_nodes":[],"categories_segments":[],"categories_sizes":[],"default_left":[1,1,1,0,0,0,0],"id":20,"left_children":[1,3,5,-1,-1,-1,-1],"loss_changes":[2.2456125E2,6.625418E1,9.621868E1,0E0,0E0,0E0,0E0],"parents":[2147483647,0,0,1,1,2,2],"right_children":[2,4,6,-1,-1,-1,-1],"split_conditions":[1.45E1,3.75E0,1.75E1,-4.287516E-3,-9.740743E-4,1.8537557E-3,-1.6873388E-3],"split_indices":[51,77,81,0,0,0,0],"split_type":[0,0,0,0,0,0,0],"sum_hessian":[6.2255894E3,3.0481443E3,3.177445E3,2.2183303E3,8.298139E2,1.88449E3,1.2929552E3],"tree_param":{"num_deleted":"0","num_feature":"106","num_nodes":"7","size_leaf_vector":"0"}},{"base_weights":[1.4474688E-1,3.3860952E-1,-4.127482E-2,4.2875174E-1,9.7407505E-2,-1.853756E-1,1.687339E-1],"categories":[],"categories_nodes":[],"categories_segments":[],"categories_sizes":[],"default_left":[1,1,1,0,0,0,0],"id":21,"left_children":[1,3,5,-1,-1,-1,-1],"loss_changes":[2.2456128E2,6.625424E1,9.621871E1,0E0,0E0,0E0,0E0],"parents":[2147483647,0,0,1,1,2,2],"right_children":[2,4,6,-1,-1,-1,-1],"split_conditions":[1.45E1,3.75E0,1.75E1,4.287517E-3,9.7407505E-4,-1.853756E-3,1.6873389E-3],"split_indices":[51,77,81,0,0,0,0],"split_type":[0,0,0,0,0,0,0],"sum_hessian":[6.2255894E3,3.0481443E3,3.177445E3,2.2183303E3,8.2981384E2,1.88449E3,1.2929552E3],"tree_param":{"num_deleted":"0","num_feature":"106","num_nodes":"7","size_leaf_vector":"0"}},{"base_weights":[-1.4332247E-1,1.5881333E-1,-2.607303E-1,-5.6284826E-2,2.7786955E-1,-7.734341E-2,-3.9757606E-1],"categories":[],"categories_nodes":[],"categories_segments":[],"categories_sizes":[],"default_left":[1,1,1,0,0,0,0],"id":22,"left_children":[1,3,5,-1,-1,-1,-1],"loss_changes":[2.20884E2,4.4647724E1,1.1249313E2,0E0,0E0,0E0,0E0],"parents":[2147483647,0,0,1,1,2,2],"right_children":[2,4,6,-1,-1,-1,-1],"split_conditions":[-2.45E0,-1.45E0,1.15E1,-5.6284823E-4,2.7786954E-3,-7.734341E-4,-3.9757607E-3],"split_indices":[25,77,81,0,0,0,0],"split_type":[0,0,0,0,0,0,0],"sum_hessian":[6.224634E3,1.7418434E3,4.48279E3,6.2079114E2,1.1210522E3,1.91631E3,2.5664802E3],"tree_param":{"num_deleted":"0","num_feature":"106","num_nodes":"7","size_leaf_vector":"0"}},{"base_weights":[1.4332253E-1,-1.5881327E-1,2.6073036E-1,5.6284893E-2,-2.778695E-1,7.734348E-2,3.9757612E-1],"categories":[],"categories_nodes":[],"categories_segments":[],"categories_sizes":[],"default_left":[1,1,1,0,0,0,0],"id":23,"left_children":[1,3,5,-1,-1,-1,-1],"loss_changes":[2.2088397E2,4.4647728E1,1.1249313E2,0E0,0E0,0E0,0E0],"parents":[2147483647,0,0,1,1,2,2],"right_children":[2,4,6,-1,-1,-1,-1],"split_conditions":[-2.45E0,-1.45E0,1.15E1,5.6284893E-4,-2.778695E-3,7.7343476E-4,3.975761E-3],"split_indices":[25,77,81,0,0,0,0],"split_type":[0,0,0,0,0,0,0],"sum_hessian":[6.2246333E3,1.7418433E3,4.48279E3,6.2079114E2,1.1210521E3,1.91631E3,2.5664802E3],"tree_param":{"num_deleted":"0","num_feature":"106","num_nodes":"7","size_leaf_vector":"0"}},{"base_weights":[-1.4191218E-1,-3.3282167E-1,4.1206945E-2,-1.8803936E-1,-4.7886288E-1,-1.1659092E-1,2.2758025E-1],"categories":[],"categories_nodes":[],"categories_segments":[],"categories_sizes":[],"default_left":[1,1,1,0,0,0,0],"id":24,"left_children":[1,3,5,-1,-1,-1,-1],"loss_changes":[2.1762262E2,6.434927E1,9.349058E1,0E0,0E0,0E0,0E0],"parents":[2147483647,0,0,1,1,2,2],"right_children":[2,4,6,-1,-1,-1,-1],"split_conditions":[1.45E1,1.25E1,5.2250004E-1,-1.8803936E-3,-4.788629E-3,-1.1659091E-3,2.2758024E-3],"split_indices":[51,80,55,0,0,0,0],"split_type":[0,0,0,0,0,0,0],"sum_hessian":[6.223657E3,3.0466145E3,3.177043E3,1.53105E3,1.5155645E3,1.7206141E3,1.4564287E3],"tree_param":{"num_deleted":"0","num_feature":"106","num_nodes":"7","size_leaf_vector":"0"}},{"base_weights":[1.4191216E-1,3.3282167E-1,-4.1206982E-2,1.8803938E-1,4.7886288E-1,1.1659092E-1,-2.2758034E-1],"categories":[],"categories_nodes":[],"categories_segments":[],"categories_sizes":[],"default_left":[1,1,1,0,0,0,0],"id":25,"left_children":[1,3,5,-1,-1,-1,-1],"loss_changes":[2.1762265E2,6.434927E1,9.349063E1,0E0,0E0,0E0,0E0],"parents":[2147483647,0,0,1,1,2,2],"right_children":[2,4,6,-1,-1,-1,-1],"split_conditions":[1.45E1,1.25E1,5.2250004E-1,1.8803937E-3,4.788629E-3,1.1659091E-3,-2.2758034E-3],"split_indices":[51,80,55,0,0,0,0],"split_type":[0,0,0,0,0,0,0],"sum_hessian":[6.223657E3,3.0466145E3,3.177043E3,1.53105E3,1.5155645E3,1.7206141E3,1.4564287E3],"tree_param":{"num_deleted":"0","num_feature":"106","num_nodes":"7","size_leaf_vector":"0"}},{"base_weights":[-1.4051953E-1,-2.624748E-1,1.4224017E-1,-1.14244826E-1,-4.2716506E-1,-9.4320856E-2,2.5009054E-1],"categories":[],"categories_nodes":[],"categories_segments":[],"categories_sizes":[],"default_left":[1,1,1,0,0,0,0],"id":26,"left_children":[1,3,5,-1,-1,-1,-1],"loss_changes":[2.1464996E2,1.0610718E2,4.7886993E1,0E0,0E0,0E0,0E0],"parents":[2147483647,0,0,1,1,2,2],"right_children":[2,4,6,-1,-1,-1,-1],"split_conditions":[1.95E1,1.35E1,-2.05E0,-1.1424483E-3,-4.2716507E-3,-9.432085E-4,2.5009054E-3],"split_indices":[28,80,77,0,0,0,0],"split_type":[0,0,0,0,0,0,0],"sum_hessian":[6.2225366E3,4.347511E3,1.8750253E3,2.2889912E3,2.05852E3,5.8719226E2,1.287833E3],"tree_param":{"num_deleted":"0","num_feature":"106","num_nodes":"7","size_leaf_vector":"0"}},{"base_weights":[1.4051956E-1,2.624748E-1,-1.4224012E-1,1.14244856E-1,4.2716506E-1,9.432092E-2,-2.500905E-1],"categories":[],"categories_nodes":[],"categories_segments":[],"categories_sizes":[],"default_left":[1,1,1,0,0,0,0],"id":27,"left_children":[1,3,5,-1,-1,-1,-1],"loss_changes":[2.1464993E2,1.0610718E2,4.7886997E1,0E0,0E0,0E0,0E0],"parents":[2147483647,0,0,1,1,2,2],"right_children":[2,4,6,-1,-1,-1,-1],"split_conditions":[1.95E1,1.35E1,-2.05E0,1.1424485E-3,4.2716507E-3,9.432092E-4,-2.500905E-3],"split_indices":[28,80,77,0,0,0,0],"split_type":[0,0,0,0,0,0,0],"sum_hessian":[6.2225366E3,4.347511E3,1.8750254E3,2.2889912E3,2.05852E3,5.8719226E2,1.2878331E3],"tree_param":{"num_deleted":"0","num_feature":"106","num_nodes":"7","size_leaf_vector":"0"}},{"base_weights":[-1.3914055E-1,-3.2714006E-1,4.110824E-2,-4.1353237E-2,-3.9968967E-1,-2.1120214E-1,1.5415975E-1],"categories":[],"categories_nodes":[],"categories_segments":[],"categories_sizes":[],"default_left":[1,1,1,0,0,0,0],"id":28,"left_children":[1,3,5,-1,-1,-1,-1],"loss_changes":[2.1087015E2,6.3134888E1,9.0669914E1,0E0,0E0,0E0,0E0],"parents":[2147483647,0,0,1,1,2,2],"right_children":[2,4,6,-1,-1,-1,-1],"split_conditions":[1.45E1,5.5E0,-2.05E0,-4.1353237E-4,-3.9968966E-3,-2.1120214E-3,1.5415975E-3],"split_indices":[51,103,77,0,0,0,0],"split_type":[0,0,0,0,0,0,0],"sum_hessian":[6.2214053E3,3.044831E3,3.1765742E3,6.167814E2,2.4280498E3,9.826377E2,2.1939365E3],"tree_param":{"num_deleted":"0","num_feature":"106","num_nodes":"7","size_leaf_vector":"0"}},{"base_weights":[1.3914053E-1,3.2714003E-1,-4.110824E-2,4.1353237E-2,3.9968964E-1,2.112021E-1,-1.5415974E-1],"categories":[],"categories_nodes":[],"categories_segments":[],"categories_sizes":[],"default_left":[1,1,1,0,0,0,0],"id":29,"left_children":[1,3,5,-1,-1,-1,-1],"loss_changes":[2.1087012E2,6.3134857E1,9.066988E1,0E0,0E0,0E0,0E0],"parents":[2147483647,0,0,1,1,2,2],"right_children":[2,4,6,-1,-1,-1,-1],"split_conditions":[1.45E1,5.5E0,-2.05E0,4.1353237E-4,3.9968966E-3,2.112021E-3,-1.5415974E-3],"split_indices":[51,103,77,0,0,0,0],"split_type":[0,0,0,0,0,0,0],"sum_hessian":[6.2214053E3,3.044831E3,3.1765742E3,6.167814E2,2.4280498E3,9.826377E2,2.1939365E3],"tree_param":{"num_deleted":"0","num_feature":"106","num_nodes":"7","size_leaf_vector":"0"}},{"base_weights":[-1.3777801E-1,1.5567414E-1,-2.5187722E-1,-5.1937796E-2,2.7060202E-1,-7.395004E-2,-3.847996E-1],"categories":[],"categories_nodes":[],"categories_segments":[],"categories_sizes":[],"default_left":[1,1,1,0,0,0,0],"id":30,"left_children":[1,3,5,-1,-1,-1,-1],"loss_changes":[2.0833992E2,4.158623E1,1.0592212E2,0E0,0E0,0E0,0E0],"parents":[2147483647,0,0,1,1,2,2],"right_children":[2,4,6,-1,-1,-1,-1],"split_conditions":[-2.45E0,-1.45E0,1.15E1,-5.1937794E-4,2.7060201E-3,-7.3950033E-4,-3.847996E-3],"split_indices":[25,77,81,0,0,0,0],"split_type":[0,0,0,0,0,0,0],"sum_hessian":[6.2201523E3,1.741309E3,4.4788433E3,6.20661E2,1.120648E3,1.9158636E3,2.5629795E3],"tree_param":{"num_deleted":"0","num_feature":"106","num_nodes":"7","size_leaf_vector":"0"}},{"base_weights":[1.3777801E-1,-1.5567417E-1,2.5187722E-1,5.1937748E-2,-2.7060202E-1,7.395004E-2,3.847996E-1],"categories":[],"categories_nodes":[],"categories_segments":[],"categories_sizes":[],"default_left":[1,1,1,0,0,0,0],"id":31,"left_children":[1,3,5,-1,-1,-1,-1],"loss_changes":[2.0833997E2,4.158622E1,1.0592209E2,0E0,0E0,0E0,0E0],"parents":[2147483647,0,0,1,1,2,2],"right_children":[2,4,6,-1,-1,-1,-1],"split_conditions":[-2.45E0,-1.45E0,1.15E1,5.1937747E-4,-2.7060201E-3,7.3950033E-4,3.847996E-3],"split_indices":[25,77,81,0,0,0,0],"split_type":[0,0,0,0,0,0,0],"sum_hessian":[6.2201523E3,1.741309E3,4.4788433E3,6.206611E2,1.120648E3,1.9158635E3,2.5629795E3],"tree_param":{"num_deleted":"0","num_feature":"106","num_nodes":"7","size_leaf_vector":"0"}},{"base_weights":[-1.3642853E-1,-2.5567383E-1,1.3992505E-1,-1.1071513E-1,-4.1688952E-1,-8.095218E-3,3.046674E-1],"categories":[],"categories_nodes":[],"categories_segments":[],"categories_sizes":[],"default_left":[1,1,1,0,0,0,0],"id":32,"left_children":[1,3,5,-1,-1,-1,-1],"loss_changes":[2.050052E2,1.01503815E2,4.5737087E1,0E0,0E0,0E0,0E0],"parents":[2147483647,0,0,1,1,2,2],"right_children":[2,4,6,-1,-1,-1,-1],"split_conditions":[1.95E1,1.35E1,5.135E-1,-1.1071513E-3,-4.168895E-3,-8.095217E-5,3.046674E-3],"split_indices":[28,80,55,0,0,0,0],"split_type":[0,0,0,0,0,0,0],"sum_hessian":[6.2188916E3,4.344385E3,1.8745068E3,2.2884182E3,2.0559668E3,9.8786523E2,8.8664154E2],"tree_param":{"num_deleted":"0","num_feature":"106","num_nodes":"7","size_leaf_vector":"0"}},{"base_weights":[1.3642852E-1,2.556738E-1,-1.3992505E-1,1.1071514E-1,4.1688943E-1,8.095272E-3,-3.0466747E-1],"categories":[],"categories_nodes":[],"categories_segments":[],"categories_sizes":[],"default_left":[1,1,1,0,0,0,0],"id":33,"left_children":[1,3,5,-1,-1,-1,-1],"loss_changes":[2.0500516E2,1.01503784E2,4.573713E1,0E0,0E0,0E0,0E0],"parents":[2147483647,0,0,1,1,2,2],"right_children":[2,4,6,-1,-1,-1,-1],"split_conditions":[1.95E1,1.35E1,5.135E-1,1.1071514E-3,4.168894E-3,8.095272E-5,-3.0466747E-3],"split_indices":[28,80,55,0,0,0,0],"split_type":[0,0,0,0,0,0,0],"sum_hessian":[6.2188916E3,4.344385E3,1.8745067E3,2.288418E3,2.0559668E3,9.8786523E2,8.866415E2],"tree_param":{"num_deleted":"0","num_feature":"106","num_nodes":"7","size_leaf_vector":"0"}},{"base_weights":[-1.3509344E-1,-3.192129E-1,4.1316137E-2,-3.9100695E-2,-3.9039987E-1,1.7818262E-1,-1.5819563E-1],"categories":[],"categories_nodes":[],"categories_segments":[],"categories_sizes":[],"default_left":[1,1,1,0,0,0,0],"id":34,"left_children":[1,3,5,-1,-1,-1,-1],"loss_changes":[2.0199539E2,6.0661438E1,8.677177E1,0E0,0E0,0E0,0E0],"parents":[2147483647,0,0,1,1,2,2],"right_children":[2,4,6,-1,-1,-1,-1],"split_conditions":[1.45E1,5.5E0,1.75E1,-3.9100694E-4,-3.9039988E-3,1.7818261E-3,-1.5819563E-3],"split_indices":[51,103,81,0,0,0,0],"split_type":[0,0,0,0,0,0,0],"sum_hessian":[6.21758E3,3.0419124E3,3.1756675E3,6.167244E2,2.425188E3,1.8836068E3,1.2920607E3],"tree_param":{"num_deleted":"0","num_feature":"106","num_nodes":"7","size_leaf_vector":"0"}},{"base_weights":[1.3509345E-1,3.1921297E-1,-4.1316163E-2,3.9100777E-2,3.903999E-1,-1.7818265E-1,1.5819561E-1],"categories":[],"categories_nodes":[],"categories_segments":[],"categories_sizes":[],"default_left":[1,1,1,0,0,0,0],"id":35,"left_children":[1,3,5,-1,-1,-1,-1],"loss_changes":[2.0199545E2,6.0661407E1,8.6771774E1,0E0,0E0,0E0,0E0],"parents":[2147483647,0,0,1,1,2,2],"right_children":[2,4,6,-1,-1,-1,-1],"split_conditions":[1.45E1,5.5E0,1.75E1,3.9100775E-4,3.903999E-3,-1.7818264E-3,1.5819562E-3],"split_indices":[51,103,81,0,0,0,0],"split_type":[0,0,0,0,0,0,0],"sum_hessian":[6.2175796E3,3.0419124E3,3.1756675E3,6.1672437E2,2.425188E3,1.8836068E3,1.2920605E3],"tree_param":{"num_deleted":"0","num_feature":"106","num_nodes":"7","size_leaf_vector":"0"}},{"base_weights":[-1.3377413E-1,-2.2892494E-1,2.0298971E-1,-6.346864E-2,-3.6809498E-1,9.958949E-3,3.058057E-1],"categories":[],"categories_nodes":[],"categories_segments":[],"categories_sizes":[],"default_left":[1,1,1,0,0,0,0],"id":36,"left_children":[1,3,5,-1,-1,-1,-1],"loss_changes":[1.9926501E2,1.11609085E2,2.7190235E1,0E0,0E0,0E0,0E0],"parents":[2147483647,0,0,1,1,2,2],"right_children":[2,4,6,-1,-1,-1,-1],"split_conditions":[2.35E1,1.15E1,-1.45E0,-6.3468644E-4,-3.6809498E-3,9.958949E-5,3.058057E-3],"split_indices":[51,80,77,0,0,0,0],"split_type":[0,0,0,0,0,0,0],"sum_hessian":[6.2161567E3,4.846987E3,1.3691697E3,2.2150352E3,2.631952E3,4.7621045E2,8.929592E2],"tree_param":{"num_deleted":"0","num_feature":"106","num_nodes":"7","size_leaf_vector":"0"}},{"base_weights":[1.3377412E-1,2.2892492E-1,-2.0298973E-1,6.346864E-2,3.6809492E-1,-9.958957E-3,-3.0580574E-1],"categories":[],"categories_nodes":[],"categories_segments":[],"categories_sizes":[],"default_left":[1,1,1,0,0,0,0],"id":37,"left_children":[1,3,5,-1,-1,-1,-1],"loss_changes":[1.9926498E2,1.116091E2,2.7190239E1,0E0,0E0,0E0,0E0],"parents":[2147483647,0,0,1,1,2,2],"right_children":[2,4,6,-1,-1,-1,-1],"split_conditions":[2.35E1,1.15E1,-1.45E0,6.3468644E-4,3.680949E-3,-9.958957E-5,-3.0580573E-3],"split_indices":[51,80,77,0,0,0,0],"split_type":[0,0,0,0,0,0,0],"sum_hessian":[6.2161567E3,4.8469873E3,1.3691697E3,2.2150352E3,2.631952E3,4.7621045E2,8.929593E2],"tree_param":{"num_deleted":"0","num_feature":"106","num_nodes":"7","size_leaf_vector":"0"}},{"base_weights":[-1.324663E-1,8.877007E-2,-2.7535027E-1,-1.4463098E-1,1.8241099E-1,-4.0298665E-1,-9.570078E-2],"categories":[],"categories_nodes":[],"categories_segments":[],"categories_sizes":[],"default_left":[1,1,1,0,0,0,0],"id":38,"left_children":[1,3,5,-1,-1,-1,-1],"loss_changes":[1.9651208E2,5.3352123E1,8.656494E1,0E0,0E0,0E0,0E0],"parents":[2147483647,0,0,1,1,2,2],"right_children":[2,4,6,-1,-1,-1,-1],"split_conditions":[4.6850002E-1,-2.45E0,1.55E0,-1.4463098E-3,1.8241098E-3,-4.0298663E-3,-9.5700775E-4],"split_indices":[3,77,77,0,0,0,0],"split_type":[0,0,0,0,0,0,0],"sum_hessian":[6.214775E3,2.43888E3,3.775895E3,6.98161E2,1.7407189E3,2.2067864E3,1.5691086E3],"tree_param":{"num_deleted":"0","num_feature":"106","num_nodes":"7","size_leaf_vector":"0"}},{"base_weights":[1.3246635E-1,-8.877005E-2,2.753503E-1,1.4463101E-1,-1.8241096E-1,4.029867E-1,9.570082E-2],"categories":[],"categories_nodes":[],"categories_segments":[],"categories_sizes":[],"default_left":[1,1,1,0,0,0,0],"id":39,"left_children":[1,3,5,-1,-1,-1,-1],"loss_changes":[1.9651215E2,5.335212E1,8.656494E1,0E0,0E0,0E0,0E0],"parents":[2147483647,0,0,1,1,2,2],"right_children":[2,4,6,-1,-1,-1,-1],"split_conditions":[4.6850002E-1,-2.45E0,1.55E0,1.4463101E-3,-1.8241095E-3,4.029867E-3,9.570082E-4],"split_indices":[3,77,77,0,0,0,0],"split_type":[0,0,0,0,0,0,0],"sum_hessian":[6.2147744E3,2.43888E3,3.7758948E3,6.98161E2,1.7407189E3,2.2067861E3,1.5691086E3],"tree_param":{"num_deleted":"0","num_feature":"106","num_nodes":"7","size_leaf_vector":"0"}},{"base_weights":[-1.3117589E-1,-3.115326E-1,4.1494332E-2,-3.720612E-2,-3.8133818E-1,-1.10205114E-1,2.1449758E-1],"categories":[],"categories_nodes":[],"categories_segments":[],"categories_sizes":[],"default_left":[1,1,1,0,0,0,0],"id":40,"left_children":[1,3,5,-1,-1,-1,-1],"loss_changes":[1.9353717E2,5.819211E1,8.336664E1,0E0,0E0,0E0,0E0],"parents":[2147483647,0,0,1,1,2,2],"right_children":[2,4,6,-1,-1,-1,-1],"split_conditions":[1.45E1,5.5E0,5.5E-1,-3.720612E-4,-3.8133818E-3,-1.1020511E-3,2.1449758E-3],"split_indices":[51,103,77,0,0,0,0],"split_type":[0,0,0,0,0,0,0],"sum_hessian":[6.2132065E3,3.0385698E3,3.174637E3,6.1667084E2,2.421899E3,1.6916562E3,1.4829808E3],"tree_param":{"num_deleted":"0","num_feature":"106","num_nodes":"7","size_leaf_vector":"0"}},{"base_weights":[1.3117589E-1,3.115326E-1,-4.149432E-2,3.7206206E-2,3.8133818E-1,1.10205136E-1,-2.144976E-1],"categories":[],"categories_nodes":[],"categories_segments":[],"categories_sizes":[],"default_left":[1,1,1,0,0,0,0],"id":41,"left_children":[1,3,5,-1,-1,-1,-1],"loss_changes":[1.9353717E2,5.819211E1,8.336666E1,0E0,0E0,0E0,0E0],"parents":[2147483647,0,0,1,1,2,2],"right_children":[2,4,6,-1,-1,-1,-1],"split_conditions":[1.45E1,5.5E0,5.5E-1,3.7206206E-4,3.8133818E-3,1.1020513E-3,-2.1449758E-3],"split_indices":[51,103,77,0,0,0,0],"split_type":[0,0,0,0,0,0,0],"sum_hessian":[6.2132065E3,3.0385696E3,3.174637E3,6.1667084E2,2.4218987E3,1.6916562E3,1.4829808E3],"tree_param":{"num_deleted":"0","num_feature":"106","num_nodes":"7","size_leaf_vector":"0"}},{"base_weights":[-1.29898E-1,-2.2310387E-1,1.9981417E-1,-6.1193243E-2,-3.5943606E-1,1.1818852E-2,2.999797E-1],"categories":[],"categories_nodes":[],"categories_segments":[],"categories_sizes":[],"default_left":[1,1,1,0,0,0,0],"id":42,"left_children":[1,3,5,-1,-1,-1,-1],"loss_changes":[1.9096555E2,1.069008E2,2.5789051E1,0E0,0E0,0E0,0E0],"parents":[2147483647,0,0,1,1,2,2],"right_children":[2,4,6,-1,-1,-1,-1],"split_conditions":[2.35E1,1.15E1,-1.45E0,-6.119324E-4,-3.5943605E-3,1.1818852E-4,2.9997968E-3],"split_indices":[51,80,77,0,0,0,0],"split_type":[0,0,0,0,0,0,0],"sum_hessian":[6.211629E3,4.842915E3,1.3687134E3,2.2144468E3,2.6284685E3,4.7615726E2,8.9255615E2],"tree_param":{"num_deleted":"0","num_feature":"106","num_nodes":"7","size_leaf_vector":"0"}},{"base_weights":[1.29898E-1,2.2310387E-1,-1.9981419E-1,6.1193254E-2,3.5943606E-1,-1.1818795E-2,-2.9997975E-1],"categories":[],"categories_nodes":[],"categories_segments":[],"categories_sizes":[],"default_left":[1,1,1,0,0,0,0],"id":43,"left_children":[1,3,5,-1,-1,-1,-1],"loss_changes":[1.9096555E2,1.069008E2,2.5789062E1,0E0,0E0,0E0,0E0],"parents":[2147483647,0,0,1,1,2,2],"right_children":[2,4,6,-1,-1,-1,-1],"split_conditions":[2.35E1,1.15E1,-1.45E0,6.1193254E-4,3.5943605E-3,-1.1818795E-4,-2.9997975E-3],"split_indices":[51,80,77,0,0,0,0],"split_type":[0,0,0,0,0,0,0],"sum_hessian":[6.211629E3,4.8429155E3,1.3687134E3,2.2144468E3,2.6284685E3,4.7615726E2,8.925562E2],"tree_param":{"num_deleted":"0","num_feature":"106","num_nodes":"7","size_leaf_vector":"0"}},{"base_weights":[-1.2863174E-1,-2.4297534E-1,1.3605762E-1,-1.437556E-1,-4.6074298E-1,-5.425747E-3,2.936028E-1],"categories":[],"categories_nodes":[],"categories_segments":[],"categories_sizes":[],"default_left":[1,1,1,0,0,0,0],"id":44,"left_children":[1,3,5,-1,-1,-1,-1],"loss_changes":[1.8801448E2,9.3658356E1,4.1780834E1,0E0,0E0,0E0,0E0],"parents":[2147483647,0,0,1,1,2,2],"right_children":[2,4,6,-1,-1,-1,-1],"split_conditions":[1.95E1,1.85E1,5.135E-1,-1.437556E-3,-4.6074297E-3,-5.425747E-5,2.936028E-3],"split_indices":[28,80,55,0,0,0,0],"split_type":[0,0,0,0,0,0,0],"sum_hessian":[6.2100728E3,4.3367256E3,1.873347E3,2.980434E3,1.3562913E3,9.874941E2,8.8585297E2],"tree_param":{"num_deleted":"0","num_feature":"106","num_nodes":"7","size_leaf_vector":"0"}},{"base_weights":[1.2863174E-1,2.4297531E-1,-1.3605762E-1,1.4375558E-1,4.6074292E-1,5.425715E-3,-2.9360273E-1],"categories":[],"categories_nodes":[],"categories_segments":[],"categories_sizes":[],"default_left":[1,1,1,0,0,0,0],"id":45,"left_children":[1,3,5,-1,-1,-1,-1],"loss_changes":[1.8801443E2,9.3658325E1,4.178081E1,0E0,0E0,0E0,0E0],"parents":[2147483647,0,0,1,1,2,2],"right_children":[2,4,6,-1,-1,-1,-1],"split_conditions":[1.95E1,1.85E1,5.135E-1,1.4375558E-3,4.6074293E-3,5.4257147E-5,-2.9360272E-3],"split_indices":[28,80,55,0,0,0,0],"split_type":[0,0,0,0,0,0,0],"sum_hessian":[6.2100728E3,4.3367256E3,1.873347E3,2.980434E3,1.3562914E3,9.874941E2,8.8585297E2],"tree_param":{"num_deleted":"0","num_feature":"106","num_nodes":"7","size_leaf_vector":"0"}},{"base_weights":[-1.2737896E-1,-3.0424038E-1,4.1807294E-2,-3.4826666E-2,-3.728876E-1,-1.9561683E-1,1.4812416E-1],"categories":[],"categories_nodes":[],"categories_segments":[],"categories_sizes":[],"default_left":[1,1,1,0,0,0,0],"id":46,"left_children":[1,3,5,-1,-1,-1,-1],"loss_changes":[1.8581601E2,5.6136322E1,8.015981E1,0E0,0E0,0E0,0E0],"parents":[2147483647,0,0,1,1,2,2],"right_children":[2,4,6,-1,-1,-1,-1],"split_conditions":[1.45E1,5.5E0,-2.05E0,-3.4826665E-4,-3.7288761E-3,-1.9561683E-3,1.4812415E-3],"split_indices":[51,103,77,0,0,0,0],"split_type":[0,0,0,0,0,0,0],"sum_hessian":[6.20848E3,3.0349993E3,3.1734807E3,6.1659827E2,2.4184011E3,9.812773E2,2.1922036E3],"tree_param":{"num_deleted":"0","num_feature":"106","num_nodes":"7","size_leaf_vector":"0"}},{"base_weights":[1.2737897E-1,3.0424038E-1,-4.180727E-2,3.4826584E-2,3.7288764E-1,1.9561686E-1,-1.4812413E-1],"categories":[],"categories_nodes":[],"categories_segments":[],"categories_sizes":[],"default_left":[1,1,1,0,0,0,0],"id":47,"left_children":[1,3,5,-1,-1,-1,-1],"loss_changes":[1.8581601E2,5.6136353E1,8.0159805E1,0E0,0E0,0E0,0E0],"parents":[2147483647,0,0,1,1,2,2],"right_children":[2,4,6,-1,-1,-1,-1],"split_conditions":[1.45E1,5.5E0,-2.05E0,3.4826584E-4,3.7288764E-3,1.9561686E-3,-1.4812412E-3],"split_indices":[51,103,77,0,0,0,0],"split_type":[0,0,0,0,0,0,0],"sum_hessian":[6.20848E3,3.0349993E3,3.1734807E3,6.1659827E2,2.4184011E3,9.812772E2,2.1922036E3],"tree_param":{"num_deleted":"0","num_feature":"106","num_nodes":"7","size_leaf_vector":"0"}},{"base_weights":[-1.261424E-1,-2.3419718E-1,1.4627698E-1,-9.143247E-2,-3.7890434E-1,2.2781543E-1,-1.04088314E-1],"categories":[],"categories_nodes":[],"categories_segments":[],"categories_sizes":[],"default_left":[1,1,1,0,0,0,0],"id":48,"left_children":[1,3,5,-1,-1,-1,-1],"loss_changes":[1.8276562E2,9.179703E1,3.6026672E1,0E0,0E0,0E0,0E0],"parents":[2147483647,0,0,1,1,2,2],"right_children":[2,4,6,-1,-1,-1,-1],"split_conditions":[2.15E1,1.35E1,2.25E1,-9.1432466E-4,-3.7890433E-3,2.2781543E-3,-1.0408831E-3],"split_indices":[51,79,103,0,0,0,0],"split_type":[0,0,0,0,0,0,0],"sum_hessian":[6.206706E3,4.4441E3,1.762606E3,2.2378857E3,2.206214E3,1.3296562E3,4.3294965E2],"tree_param":{"num_deleted":"0","num_feature":"106","num_nodes":"7","size_leaf_vector":"0"}},{"base_weights":[1.2614238E-1,2.3419717E-1,-1.4627698E-1,9.143244E-2,3.7890434E-1,-2.2781543E-1,1.0408831E-1],"categories":[],"categories_nodes":[],"categories_segments":[],"categories_sizes":[],"default_left":[1,1,1,0,0,0,0],"id":49,"left_children":[1,3,5,-1,-1,-1,-1],"loss_changes":[1.8276562E2,9.179703E1,3.6026676E1,0E0,0E0,0E0,0E0],"parents":[2147483647,0,0,1,1,2,2],"right_children":[2,4,6,-1,-1,-1,-1],"split_conditions":[2.15E1,1.35E1,2.25E1,9.1432437E-4,3.7890433E-3,-2.2781543E-3,1.040883E-3],"split_indices":[51,79,103,0,0,0,0],"split_type":[0,0,0,0,0,0,0],"sum_hessian":[6.206706E3,4.4441E3,1.762606E3,2.237886E3,2.206214E3,1.3296562E3,4.3294968E2],"tree_param":{"num_deleted":"0","num_feature":"106","num_nodes":"7","size_leaf_vector":"0"}},{"base_weights":[-1.2491704E-1,-2.9915985E-1,4.1657243E-2,-3.3554394E-2,-3.6690748E-1,-1.05005674E-1,2.0889185E-1],"categories":[],"categories_nodes":[],"categories_segments":[],"categories_sizes":[],"default_left":[1,1,1,0,0,0,0],"id":50,"left_children":[1,3,5,-1,-1,-1,-1],"loss_changes":[1.8013655E2,5.456903E1,7.786307E1,0E0,0E0,0E0,0E0],"parents":[2147483647,0,0,1,1,2,2],"right_children":[2,4,6,-1,-1,-1,-1],"split_conditions":[1.45E1,5.5E0,5.5E-1,-3.3554394E-4,-3.6690747E-3,-1.0500568E-3,2.0889186E-3],"split_indices":[51,103,77,0,0,0,0],"split_type":[0,0,0,0,0,0,0],"sum_hessian":[6.2049604E3,3.032284E3,3.1726765E3,6.165573E2,2.4157266E3,1.6904994E3,1.4821772E3],"tree_param":{"num_deleted":"0","num_feature":"106","num_nodes":"7","size_leaf_vector":"0"}},{"base_weights":[1.24917045E-1,2.9915988E-1,-4.1657243E-2,3.355439E-2,3.6690748E-1,1.05005674E-1,-2.0889187E-1],"categories":[],"categories_nodes":[],"categories_segments":[],"categories_sizes":[],"default_left":[1,1,1,0,0,0,0],"id":51,"left_children":[1,3,5,-1,-1,-1,-1],"loss_changes":[1.8013657E2,5.456906E1,7.786307E1,0E0,0E0,0E0,0E0],"parents":[2147483647,0,0,1,1,2,2],"right_children":[2,4,6,-1,-1,-1,-1],"split_conditions":[1.45E1,5.5E0,5.5E-1,3.3554388E-4,3.6690747E-3,1.0500568E-3,-2.0889186E-3],"split_indices":[51,103,77,0,0,0,0],"split_type":[0,0,0,0,0,0,0],"sum_hessian":[6.2049604E3,3.032284E3,3.1726765E3,6.165573E2,2.4157266E3,1.6904994E3,1.4821772E3],"tree_param":{"num_deleted":"0","num_feature":"106","num_nodes":"7","size_leaf_vector":"0"}},{"base_weights":[-1.2370544E-1,-2.1377224E-1,1.9460852E-1,-5.714415E-2,-3.4591708E-1,2.5418198E-1,-9.727984E-2],"categories":[],"categories_nodes":[],"categories_segments":[],"categories_sizes":[],"default_left":[1,1,1,0,0,0,0],"id":52,"left_children":[1,3,5,-1,-1,-1,-1],"loss_changes":[1.7791078E2,1.0008008E2,2.3826832E1,0E0,0E0,0E0,0E0],"parents":[2147483647,0,0,1,1,2,2],"right_children":[2,4,6,-1,-1,-1,-1],"split_conditions":[2.35E1,1.15E1,2.45E1,-5.714415E-4,-3.4591707E-3,2.5418198E-3,-9.727984E-4],"split_indices":[51,80,81,0,0,0,0],"split_type":[0,0,0,0,0,0,0],"sum_hessian":[6.203121E3,4.8353027E3,1.3678185E3,2.213329E3,2.6219736E3,1.1360779E3,2.3174054E2],"tree_param":{"num_deleted":"0","num_feature":"106","num_nodes":"7","size_leaf_vector":"0"}},{"base_weights":[1.23705424E-1,2.1377222E-1,-1.9460852E-1,5.7144154E-2,3.4591702E-1,-2.5418195E-1,9.7279765E-2],"categories":[],"categories_nodes":[],"categories_segments":[],"categories_sizes":[],"default_left":[1,1,1,0,0,0,0],"id":53,"left_children":[1,3,5,-1,-1,-1,-1],"loss_changes":[1.7791077E2,1.0008003E2,2.3826824E1,0E0,0E0,0E0,0E0],"parents":[2147483647,0,0,1,1,2,2],"right_children":[2,4,6,-1,-1,-1,-1],"split_conditions":[2.35E1,1.15E1,2.45E1,5.7144155E-4,3.45917E-3,-2.5418194E-3,9.727976E-4],"split_indices":[51,80,81,0,0,0,0],"split_type":[0,0,0,0,0,0,0],"sum_hessian":[6.203121E3,4.8353027E3,1.3678185E3,2.213329E3,2.6219736E3,1.1360779E3,2.3174055E2],"tree_param":{"num_deleted":"0","num_feature":"106","num_nodes":"7","size_leaf_vector":"0"}},{"base_weights":[-1.22504115E-1,8.646308E-2,-2.5773227E-1,1.6772977E-1,-1.5200764E-1,-3.794364E-1,-8.706023E-2],"categories":[],"categories_nodes":[],"categories_segments":[],"categories_sizes":[],"default_left":[1,1,1,0,0,0,0],"id":54,"left_children":[1,3,5,-1,-1,-1,-1],"loss_changes":[1.7528986E2,4.7264362E1,7.818843E1,0E0,0E0,0E0,0E0],"parents":[2147483647,0,0,1,1,2,2],"right_children":[2,4,6,-1,-1,-1,-1],"split_conditions":[4.6850002E-1,2.25E1,1.55E0,1.6772976E-3,-1.5200764E-3,-3.794364E-3,-8.7060226E-4],"split_indices":[3,103,77,0,0,0,0],"split_type":[0,0,0,0,0,0,0],"sum_hessian":[6.2013506E3,2.4365408E3,3.76481E3,1.8174738E3,6.190669E2,2.196961E3,1.5678494E3],"tree_param":{"num_deleted":"0","num_feature":"106","num_nodes":"7","size_leaf_vector":"0"}},{"base_weights":[1.225041E-1,-8.6463064E-2,2.5773224E-1,-1.6772974E-1,1.5200761E-1,3.794364E-1,8.7060206E-2],"categories":[],"categories_nodes":[],"categories_segments":[],"categories_sizes":[],"default_left":[1,1,1,0,0,0,0],"id":55,"left_children":[1,3,5,-1,-1,-1,-1],"loss_changes":[1.752898E2,4.7264343E1,7.818851E1,0E0,0E0,0E0,0E0],"parents":[2147483647,0,0,1,1,2,2],"right_children":[2,4,6,-1,-1,-1,-1],"split_conditions":[4.6850002E-1,2.25E1,1.55E0,-1.6772973E-3,1.5200761E-3,3.794364E-3,8.7060203E-4],"split_indices":[3,103,77,0,0,0,0],"split_type":[0,0,0,0,0,0,0],"sum_hessian":[6.2013506E3,2.4365408E3,3.76481E3,1.8174738E3,6.190669E2,2.1969607E3,1.5678492E3],"tree_param":{"num_deleted":"0","num_feature":"106","num_nodes":"7","size_leaf_vector":"0"}},{"base_weights":[-1.2131858E-1,-2.9206738E-1,4.175229E-2,-3.185706E-2,-3.5854855E-1,-9.9695906E-2,2.0874481E-1],"categories":[],"categories_nodes":[],"categories_segments":[],"categories_sizes":[],"default_left":[1,1,1,0,0,0,0],"id":56,"left_children":[1,3,5,-1,-1,-1,-1],"loss_changes":[1.7265689E2,5.2387756E1,7.495485E1,0E0,0E0,0E0,0E0],"parents":[2147483647,0,0,1,1,2,2],"right_children":[2,4,6,-1,-1,-1,-1],"split_conditions":[1.45E1,5.5E0,5.2250004E-1,-3.185706E-4,-3.5854855E-3,-9.96959E-4,2.087448E-3],"split_indices":[51,103,55,0,0,0,0],"split_type":[0,0,0,0,0,0,0],"sum_hessian":[6.199392E3,3.0280159E3,3.1713765E3,6.164972E2,2.4115188E3,1.7172292E3,1.4541471E3],"tree_param":{"num_deleted":"0","num_feature":"106","num_nodes":"7","size_leaf_vector":"0"}},{"base_weights":[1.21318586E-1,2.920674E-1,-4.175229E-2,3.1857055E-2,3.5854858E-1,9.96959E-2,-2.087448E-1],"categories":[],"categories_nodes":[],"categories_segments":[],"categories_sizes":[],"default_left":[1,1,1,0,0,0,0],"id":57,"left_children":[1,3,5,-1,-1,-1,-1],"loss_changes":[1.7265692E2,5.2387787E1,7.4954834E1,0E0,0E0,0E0,0E0],"parents":[2147483647,0,0,1,1,2,2],"right_children":[2,4,6,-1,-1,-1,-1],"split_conditions":[1.45E1,5.5E0,5.2250004E-1,3.1857053E-4,3.5854857E-3,9.969589E-4,-2.0874478E-3],"split_indices":[51,103,55,0,0,0,0],"split_type":[0,0,0,0,0,0,0],"sum_hessian":[6.1993926E3,3.0280159E3,3.1713765E3,6.164972E2,2.4115188E3,1.7172292E3,1.4541471E3],"tree_param":{"num_deleted":"0","num_feature":"106","num_nodes":"7","size_leaf_vector":"0"}},{"base_weights":[-1.2014486E-1,-2.0839219E-1,1.9153246E-1,-7.327081E-2,-3.554731E-1,2.4981764E-1,-9.398975E-2],"categories":[],"categories_nodes":[],"categories_segments":[],"categories_sizes":[],"default_left":[1,1,1,0,0,0,0],"id":58,"left_children":[1,3,5,-1,-1,-1,-1],"loss_changes":[1.7052507E2,9.5986984E1,2.279367E1,0E0,0E0,0E0,0E0],"parents":[2147483647,0,0,1,1,2,2],"right_children":[2,4,6,-1,-1,-1,-1],"split_conditions":[2.35E1,1.35E1,2.45E1,-7.327081E-4,-3.554731E-3,2.4981764E-3,-9.398975E-4],"split_indices":[51,80,81,0,0,0,0],"split_type":[0,0,0,0,0,0,0],"sum_hessian":[6.1974023E3,4.830142E3,1.3672599E3,2.518201E3,2.3119414E3,1.1355741E3,2.3168578E2],"tree_param":{"num_deleted":"0","num_feature":"106","num_nodes":"7","size_leaf_vector":"0"}},{"base_weights":[1.20144874E-1,2.0839222E-1,-1.915325E-1,7.327083E-2,3.5547313E-1,-2.4981768E-1,9.398985E-2],"categories":[],"categories_nodes":[],"categories_segments":[],"categories_sizes":[],"default_left":[1,1,1,0,0,0,0],"id":59,"left_children":[1,3,5,-1,-1,-1,-1],"loss_changes":[1.705251E2,9.5987E1,2.279369E1,0E0,0E0,0E0,0E0],"parents":[2147483647,0,0,1,1,2,2],"right_children":[2,4,6,-1,-1,-1,-1],"split_conditions":[2.35E1,1.35E1,2.45E1,7.3270826E-4,3.5547311E-3,-2.4981769E-3,9.398985E-4],"split_indices":[51,80,81,0,0,0,0],"split_type":[0,0,0,0,0,0,0],"sum_hessian":[6.1974023E3,4.830142E3,1.3672599E3,2.5182007E3,2.3119414E3,1.1355741E3,2.3168578E2],"tree_param":{"num_deleted":"0","num_feature":"106","num_nodes":"7","size_leaf_vector":"0"}},{"base_weights":[-1.18980795E-1,-2.2731708E-1,1.3133109E-1,-1.3242844E-1,-4.3631607E-1,-1.310475E-1,2.0732887E-1],"categories":[],"categories_nodes":[],"categories_segments":[],"categories_sizes":[],"default_left":[1,1,1,0,0,0,0],"id":60,"left_children":[1,3,5,-1,-1,-1,-1],"loss_changes":[1.6806564E2,8.571597E1,3.736319E1,0E0,0E0,0E0,0E0],"parents":[2147483647,0,0,1,1,2,2],"right_children":[2,4,6,-1,-1,-1,-1],"split_conditions":[1.95E1,1.85E1,3.725E-1,-1.3242844E-3,-4.3631606E-3,-1.3104749E-3,2.0732887E-3],"split_indices":[28,80,55,0,0,0,0],"split_type":[0,0,0,0,0,0,0],"sum_hessian":[6.1954995E3,4.3240986E3,1.8714006E3,2.9750264E3,1.3490723E3,4.201453E2,1.4512552E3],"tree_param":{"num_deleted":"0","num_feature":"106","num_nodes":"7","size_leaf_vector":"0"}},{"base_weights":[1.1898081E-1,2.273171E-1,-1.3133109E-1,1.3242845E-1,4.363161E-1,1.3104749E-1,-2.0732886E-1],"categories":[],"categories_nodes":[],"categories_segments":[],"categories_sizes":[],"default_left":[1,1,1,0,0,0,0],"id":61,"left_children":[1,3,5,-1,-1,-1,-1],"loss_changes":[1.6806569E2,8.571597E1,3.736319E1,0E0,0E0,0E0,0E0],"parents":[2147483647,0,0,1,1,2,2],"right_children":[2,4,6,-1,-1,-1,-1],"split_conditions":[1.95E1,1.85E1,3.725E-1,1.3242845E-3,4.363161E-3,1.3104748E-3,-2.0732884E-3],"split_indices":[28,80,55,0,0,0,0],"split_type":[0,0,0,0,0,0,0],"sum_hessian":[6.1954995E3,4.3240986E3,1.8714006E3,2.9750264E3,1.3490724E3,4.201453E2,1.4512554E3],"tree_param":{"num_deleted":"0","num_feature":"106","num_nodes":"7","size_leaf_vector":"0"}},{"base_weights":[-1.1782925E-1,-2.8531575E-1,4.1968048E-2,-2.2134127E-1,-5.48304E-1,-9.930252E-2,2.0301639E-1],"categories":[],"categories_nodes":[],"categories_segments":[],"categories_sizes":[],"default_left":[1,1,1,0,0,0,0],"id":62,"left_children":[1,3,5,-1,-1,-1,-1],"loss_changes":[1.658023E2,5.0766754E1,7.2162895E1,0E0,0E0,0E0,0E0],"parents":[2147483647,0,0,1,1,2,2],"right_children":[2,4,6,-1,-1,-1,-1],"split_conditions":[1.45E1,2.25E1,5.5E-1,-2.2134127E-3,-5.48304E-3,-9.930253E-4,2.0301638E-3],"split_indices":[51,80,77,0,0,0,0],"split_type":[0,0,0,0,0,0,0],"sum_hessian":[6.1935527E3,3.0236372E3,3.1699155E3,2.4335051E3,5.901323E2,1.6888503E3,1.4810653E3],"tree_param":{"num_deleted":"0","num_feature":"106","num_nodes":"7","size_leaf_vector":"0"}},{"base_weights":[1.17829256E-1,2.8531575E-1,-4.1968048E-2,2.2134128E-1,5.483041E-1,9.930252E-2,-2.0301639E-1],"categories":[],"categories_nodes":[],"categories_segments":[],"categories_sizes":[],"default_left":[1,1,1,0,0,0,0],"id":63,"left_children":[1,3,5,-1,-1,-1,-1],"loss_changes":[1.658023E2,5.0766785E1,7.2162895E1,0E0,0E0,0E0,0E0],"parents":[2147483647,0,0,1,1,2,2],"right_children":[2,4,6,-1,-1,-1,-1],"split_conditions":[1.45E1,2.25E1,5.5E-1,2.2134127E-3,5.4830406E-3,9.930253E-4,-2.0301638E-3],"split_indices":[51,80,77,0,0,0,0],"split_type":[0,0,0,0,0,0,0],"sum_hessian":[6.193553E3,3.0236375E3,3.1699155E3,2.4335051E3,5.901323E2,1.6888503E3,1.4810653E3],"tree_param":{"num_deleted":"0","num_feature":"106","num_nodes":"7","size_leaf_vector":"0"}},{"base_weights":[-1.1669073E-1,-2.0309035E-1,1.8826647E-1,-4.2508446E-2,-3.2232314E-1,6.768478E-2,3.2103655E-1],"categories":[],"categories_nodes":[],"categories_segments":[],"categories_sizes":[],"default_left":[1,1,1,0,0,0,0],"id":64,"left_children":[1,3,5,-1,-1,-1,-1],"loss_changes":[1.6320004E2,9.238574E1,2.1873688E1,0E0,0E0,0E0,0E0],"parents":[2147483647,0,0,1,1,2,2],"right_children":[2,4,6,-1,-1,-1,-1],"split_conditions":[2.35E1,1.05E1,3.5000002E-1,-4.2508444E-4,-3.2232313E-3,6.7684776E-4,3.2103653E-3],"split_indices":[51,80,77,0,0,0,0],"split_type":[0,0,0,0,0,0,0],"sum_hessian":[6.1915244E3,4.8248853E3,1.366639E3,2.0565264E3,2.7683591E3,7.1698425E2,6.496548E2],"tree_param":{"num_deleted":"0","num_feature":"106","num_nodes":"7","size_leaf_vector":"0"}},{"base_weights":[1.1669074E-1,2.0309037E-1,-1.8826646E-1,4.2508464E-2,3.2232314E-1,-6.768477E-2,-3.2103652E-1],"categories":[],"categories_nodes":[],"categories_segments":[],"categories_sizes":[],"default_left":[1,1,1,0,0,0,0],"id":65,"left_children":[1,3,5,-1,-1,-1,-1],"loss_changes":[1.6320003E2,9.238573E1,2.1873684E1,0E0,0E0,0E0,0E0],"parents":[2147483647,0,0,1,1,2,2],"right_children":[2,4,6,-1,-1,-1,-1],"split_conditions":[2.35E1,1.05E1,3.5000002E-1,4.2508464E-4,3.2232313E-3,-6.768477E-4,-3.210365E-3],"split_indices":[51,80,77,0,0,0,0],"split_type":[0,0,0,0,0,0,0],"sum_hessian":[6.1915244E3,4.8248853E3,1.366639E3,2.0565264E3,2.7683591E3,7.169842E2,6.496548E2],"tree_param":{"num_deleted":"0","num_feature":"106","num_nodes":"7","size_leaf_vector":"0"}},{"base_weights":[-1.1556208E-1,-2.8075802E-1,4.193533E-2,-2.6858466E-2,-3.4580502E-1,-1.8087523E-1,1.41625E-1],"categories":[],"categories_nodes":[],"categories_segments":[],"categories_sizes":[],"default_left":[1,1,1,0,0,0,0],"id":66,"left_children":[1,3,5,-1,-1,-1,-1],"loss_changes":[1.6107559E2,4.9892532E1,7.043649E1,0E0,0E0,0E0,0E0],"parents":[2147483647,0,0,1,1,2,2],"right_children":[2,4,6,-1,-1,-1,-1],"split_conditions":[1.45E1,5.5E0,-2.05E0,-2.6858464E-4,-3.45805E-3,-1.8087522E-3,1.41625E-3],"split_indices":[51,103,77,0,0,0,0],"split_type":[0,0,0,0,0,0,0],"sum_hessian":[6.189492E3,3.0205325E3,3.16896E3,6.163053E2,2.404227E3,9.7932153E2,2.1896384E3],"tree_param":{"num_deleted":"0","num_feature":"106","num_nodes":"7","size_leaf_vector":"0"}},{"base_weights":[1.1556209E-1,2.8075802E-1,-4.1935313E-2,2.6858546E-2,3.45805E-1,1.8087523E-1,-1.4162499E-1],"categories":[],"categories_nodes":[],"categories_segments":[],"categories_sizes":[],"default_left":[1,1,1,0,0,0,0],"id":67,"left_children":[1,3,5,-1,-1,-1,-1],"loss_changes":[1.6107558E2,4.989247E1,7.043648E1,0E0,0E0,0E0,0E0],"parents":[2147483647,0,0,1,1,2,2],"right_children":[2,4,6,-1,-1,-1,-1],"split_conditions":[1.45E1,5.5E0,-2.05E0,2.6858546E-4,3.4580498E-3,1.8087522E-3,-1.4162498E-3],"split_indices":[51,103,77,0,0,0,0],"split_type":[0,0,0,0,0,0,0],"sum_hessian":[6.189492E3,3.0205325E3,3.16896E3,6.1630524E2,2.4042273E3,9.793215E2,2.1896384E3],"tree_param":{"num_deleted":"0","num_feature":"106","num_nodes":"7","size_leaf_vector":"0"}},{"base_weights":[-1.1444853E-1,-2.1989621E-1,1.28935E-1,-1.3317005E-1,-4.3840918E-1,-1.2885303E-3,2.7412736E-1],"categories":[],"categories_nodes":[],"categories_segments":[],"categories_sizes":[],"default_left":[1,1,1,0,0,0,0],"id":68,"left_children":[1,3,5,-1,-1,-1,-1],"loss_changes":[1.5884581E2,8.1771194E1,3.5381447E1,0E0,0E0,0E0,0E0],"parents":[2147483647,0,0,1,1,2,2],"right_children":[2,4,6,-1,-1,-1,-1],"split_conditions":[1.95E1,1.95E1,5.135E-1,-1.3317005E-3,-4.3840916E-3,-1.2885303E-5,2.7412735E-3],"split_indices":[28,80,55,0,0,0,0],"split_type":[0,0,0,0,0,0,0],"sum_hessian":[6.187281E3,4.317004E3,1.8702769E3,3.0915862E3,1.2254178E3,9.864856E2,8.837912E2],"tree_param":{"num_deleted":"0","num_feature":"106","num_nodes":"7","size_leaf_vector":"0"}},{"base_weights":[1.1444855E-1,2.1989623E-1,-1.2893501E-1,1.3317008E-1,4.384092E-1,1.288554E-3,-2.7412742E-1],"categories":[],"categories_nodes":[],"categories_segments":[],"categories_sizes":[],"default_left":[1,1,1,0,0,0,0],"id":69,"left_children":[1,3,5,-1,-1,-1,-1],"loss_changes":[1.5884586E2,8.177118E1,3.538147E1,0E0,0E0,0E0,0E0],"parents":[2147483647,0,0,1,1,2,2],"right_children":[2,4,6,-1,-1,-1,-1],"split_conditions":[1.95E1,1.95E1,5.135E-1,1.3317008E-3,4.384092E-3,1.288554E-5,-2.7412742E-3],"split_indices":[28,80,55,0,0,0,0],"split_type":[0,0,0,0,0,0,0],"sum_hessian":[6.187281E3,4.317004E3,1.8702767E3,3.0915862E3,1.2254178E3,9.864856E2,8.8379114E2],"tree_param":{"num_deleted":"0","num_feature":"106","num_nodes":"7","size_leaf_vector":"0"}},{"base_weights":[-1.1334351E-1,1.4103799E-1,-2.126843E-1,-3.7145417E-2,2.3984803E-1,-5.7160154E-2,-3.2989007E-1],"categories":[],"categories_nodes":[],"categories_segments":[],"categories_sizes":[],"default_left":[1,1,1,0,0,0,0],"id":70,"left_children":[1,3,5,-1,-1,-1,-1],"loss_changes":[1.5635757E2,3.060785E1,8.10831E1,0E0,0E0,0E0,0E0],"parents":[2147483647,0,0,1,1,2,2],"right_children":[2,4,6,-1,-1,-1,-1],"split_conditions":[-2.45E0,-1.45E0,1.15E1,-3.7145417E-4,2.3984802E-3,-5.716015E-4,-3.2989006E-3],"split_indices":[25,77,81,0,0,0,0],"split_type":[0,0,0,0,0,0,0],"sum_hessian":[6.1851787E3,1.7369526E3,4.448226E3,6.198343E2,1.1171183E3,1.912266E3,2.53596E3],"tree_param":{"num_deleted":"0","num_feature":"106","num_nodes":"7","size_leaf_vector":"0"}},{"base_weights":[1.1334349E-1,-1.4103802E-1,2.1268429E-1,3.7145387E-2,-2.3984806E-1,5.716015E-2,3.2989007E-1],"categories":[],"categories_nodes":[],"categories_segments":[],"categories_sizes":[],"default_left":[1,1,1,0,0,0,0],"id":71,"left_children":[1,3,5,-1,-1,-1,-1],"loss_changes":[1.5635757E2,3.060785E1,8.108313E1,0E0,0E0,0E0,0E0],"parents":[2147483647,0,0,1,1,2,2],"right_children":[2,4,6,-1,-1,-1,-1],"split_conditions":[-2.45E0,-1.45E0,1.15E1,3.7145388E-4,-2.3984807E-3,5.716015E-4,3.2989006E-3],"split_indices":[25,77,81,0,0,0,0],"split_type":[0,0,0,0,0,0,0],"sum_hessian":[6.1851787E3,1.7369525E3,4.448226E3,6.198343E2,1.1171183E3,1.9122659E3,2.53596E3],"tree_param":{"num_deleted":"0","num_feature":"106","num_nodes":"7","size_leaf_vector":"0"}},{"base_weights":[-1.1225157E-1,-2.7417618E-1,4.195991E-2,-2.1179482E-1,-5.3151596E-1,-1.7600623E-1,1.3944657E-1],"categories":[],"categories_nodes":[],"categories_segments":[],"categories_sizes":[],"default_left":[1,1,1,0,0,0,0],"id":72,"left_children":[1,3,5,-1,-1,-1,-1],"loss_changes":[1.5442819E2,4.8314484E1,6.734647E1,0E0,0E0,0E0,0E0],"parents":[2147483647,0,0,1,1,2,2],"right_children":[2,4,6,-1,-1,-1,-1],"split_conditions":[1.45E1,2.25E1,-2.05E0,-2.1179481E-3,-5.3151594E-3,-1.7600623E-3,1.3944657E-3],"split_indices":[51,80,77,0,0,0,0],"split_type":[0,0,0,0,0,0,0],"sum_hessian":[6.182932E3,3.015661E3,3.1672715E3,2.4287373E3,5.869235E2,9.785559E2,2.1887156E3],"tree_param":{"num_deleted":"0","num_feature":"106","num_nodes":"7","size_leaf_vector":"0"}},{"base_weights":[1.1225155E-1,2.7417612E-1,-4.1959915E-2,2.117948E-1,5.315159E-1,1.7600621E-1,-1.3944657E-1],"categories":[],"categories_nodes":[],"categories_segments":[],"categories_sizes":[],"default_left":[1,1,1,0,0,0,0],"id":73,"left_children":[1,3,5,-1,-1,-1,-1],"loss_changes":[1.5442816E2,4.8314484E1,6.7346466E1,0E0,0E0,0E0,0E0],"parents":[2147483647,0,0,1,1,2,2],"right_children":[2,4,6,-1,-1,-1,-1],"split_conditions":[1.45E1,2.25E1,-2.05E0,2.117948E-3,5.315159E-3,1.7600621E-3,-1.3944657E-3],"split_indices":[51,80,77,0,0,0,0],"split_type":[0,0,0,0,0,0,0],"sum_hessian":[6.182932E3,3.015661E3,3.1672715E3,2.4287373E3,5.869235E2,9.785559E2,2.1887156E3],"tree_param":{"num_deleted":"0","num_feature":"106","num_nodes":"7","size_leaf_vector":"0"}},{"base_weights":[-1.1117139E-1,-1.947019E-1,1.833361E-1,-3.9139893E-2,-3.1049657E-1,2.3307814E-1,-1.2008038E-1],"categories":[],"categories_nodes":[],"categories_segments":[],"categories_sizes":[],"default_left":[1,1,1,0,0,0,0],"id":74,"left_children":[1,3,5,-1,-1,-1,-1],"loss_changes":[1.5210721E2,8.674455E1,2.0650547E1,0E0,0E0,0E0,0E0],"parents":[2147483647,0,0,1,1,2,2],"right_children":[2,4,6,-1,-1,-1,-1],"split_conditions":[2.35E1,1.05E1,2.55E1,-3.913989E-4,-3.1049657E-3,2.3307814E-3,-1.2008038E-3],"split_indices":[51,80,81,0,0,0,0],"split_type":[0,0,0,0,0,0,0],"sum_hessian":[6.180678E3,4.815272E3,1.3654062E3,2.055368E3,2.759904E3,1.1732892E3,1.9211699E2],"tree_param":{"num_deleted":"0","num_feature":"106","num_nodes":"7","size_leaf_vector":"0"}},{"base_weights":[1.1117139E-1,1.9470191E-1,-1.833361E-1,3.9139934E-2,3.1049657E-1,-2.3307814E-1,1.200804E-1],"categories":[],"categories_nodes":[],"categories_segments":[],"categories_sizes":[],"default_left":[1,1,1,0,0,0,0],"id":75,"left_children":[1,3,5,-1,-1,-1,-1],"loss_changes":[1.5210722E2,8.674454E1,2.065055E1,0E0,0E0,0E0,0E0],"parents":[2147483647,0,0,1,1,2,2],"right_children":[2,4,6,-1,-1,-1,-1],"split_conditions":[2.35E1,1.05E1,2.55E1,3.9139934E-4,3.1049657E-3,-2.3307814E-3,1.2008039E-3],"split_indices":[51,80,81,0,0,0,0],"split_type":[0,0,0,0,0,0,0],"sum_hessian":[6.180678E3,4.815272E3,1.3654062E3,2.055368E3,2.759904E3,1.1732892E3,1.9211699E2],"tree_param":{"num_deleted":"0","num_feature":"106","num_nodes":"7","size_leaf_vector":"0"}},{"base_weights":[-1.1009942E-1,-2.6982635E-1,4.190067E-2,-2.217456E-2,-3.3346525E-1,-9.304603E-2,1.957078E-1],"categories":[],"categories_nodes":[],"categories_segments":[],"categories_sizes":[],"default_left":[1,1,1,0,0,0,0],"id":76,"left_children":[1,3,5,-1,-1,-1,-1],"loss_changes":[1.5004013E2,4.7483017E1,6.575581E1,0E0,0E0,0E0,0E0],"parents":[2147483647,0,0,1,1,2,2],"right_children":[2,4,6,-1,-1,-1,-1],"split_conditions":[1.45E1,5.5E0,5.5E-1,-2.2174559E-4,-3.3346524E-3,-9.304603E-4,1.957078E-3],"split_indices":[51,103,77,0,0,0,0],"split_type":[0,0,0,0,0,0,0],"sum_hessian":[6.1784917E3,3.0122942E3,3.1661975E3,6.1609595E2,2.3961982E3,1.6867118E3,1.4794857E3],"tree_param":{"num_deleted":"0","num_feature":"106","num_nodes":"7","size_leaf_vector":"0"}},{"base_weights":[1.1009941E-1,2.6982635E-1,-4.1900683E-2,2.2174561E-2,3.3346528E-1,9.304604E-2,-1.9570783E-1],"categories":[],"categories_nodes":[],"categories_segments":[],"categories_sizes":[],"default_left":[1,1,1,0,0,0,0],"id":77,"left_children":[1,3,5,-1,-1,-1,-1],"loss_changes":[1.5004015E2,4.7483032E1,6.575584E1,0E0,0E0,0E0,0E0],"parents":[2147483647,0,0,1,1,2,2],"right_children":[2,4,6,-1,-1,-1,-1],"split_conditions":[1.45E1,5.5E0,5.5E-1,2.217456E-4,3.3346526E-3,9.3046034E-4,-1.9570782E-3],"split_indices":[51,103,77,0,0,0,0],"split_type":[0,0,0,0,0,0,0],"sum_hessian":[6.1784917E3,3.0122942E3,3.1661975E3,6.1609595E2,2.3961982E3,1.6867118E3,1.4794857E3],"tree_param":{"num_deleted":"0","num_feature":"106","num_nodes":"7","size_leaf_vector":"0"}},{"base_weights":[-1.0904072E-1,-2.1100202E-1,1.2597747E-1,-1.2675092E-1,-4.239476E-1,-1.3676709E-1,1.9370663E-1],"categories":[],"categories_nodes":[],"categories_segments":[],"categories_sizes":[],"default_left":[1,1,1,0,0,0,0],"id":78,"left_children":[1,3,5,-1,-1,-1,-1],"loss_changes":[1.4804807E2,7.724417E1,3.329816E1,0E0,0E0,0E0,0E0],"parents":[2147483647,0,0,1,1,2,2],"right_children":[2,4,6,-1,-1,-1,-1],"split_conditions":[1.95E1,1.95E1,3.585E-1,-1.2675092E-3,-4.239476E-3,-1.3676708E-3,1.9370663E-3],"split_indices":[28,80,55,0,0,0,0],"split_type":[0,0,0,0,0,0,0],"sum_hessian":[6.176146E3,4.3074746E3,1.868671E3,3.087509E3,1.2199658E3,3.8276718E2,1.4859039E3],"tree_param":{"num_deleted":"0","num_feature":"106","num_nodes":"7","size_leaf_vector":"0"}},{"base_weights":[1.0904071E-1,2.11002E-1,-1.259775E-1,1.2675093E-1,4.2394754E-1,1.3676709E-1,-1.9370666E-1],"categories":[],"categories_nodes":[],"categories_segments":[],"categories_sizes":[],"default_left":[1,1,1,0,0,0,0],"id":79,"left_children":[1,3,5,-1,-1,-1,-1],"loss_changes":[1.4804807E2,7.724414E1,3.3298172E1,0E0,0E0,0E0,0E0],"parents":[2147483647,0,0,1,1,2,2],"right_children":[2,4,6,-1,-1,-1,-1],"split_conditions":[1.95E1,1.95E1,3.585E-1,1.2675093E-3,4.2394754E-3,1.3676708E-3,-1.9370666E-3],"split_indices":[28,80,55,0,0,0,0],"split_type":[0,0,0,0,0,0,0],"sum_hessian":[6.176146E3,4.3074746E3,1.868671E3,3.087509E3,1.2199658E3,3.8276718E2,1.4859039E3],"tree_param":{"num_deleted":"0","num_feature":"106","num_nodes":"7","size_leaf_vector":"0"}},{"base_weights":[-1.0799094E-1,8.25641E-2,-2.3179176E-1,-1.5513851E-1,1.5110864E-1,-3.456445E-1,-7.3307015E-2],"categories":[],"categories_nodes":[],"categories_segments":[],"categories_sizes":[],"default_left":[1,1,1,0,0,0,0],"id":80,"left_children":[1,3,5,-1,-1,-1,-1],"loss_changes":[1.4569034E2,3.9657642E1,6.751915E1,0E0,0E0,0E0,0E0],"parents":[2147483647,0,0,1,1,2,2],"right_children":[2,4,6,-1,-1,-1,-1],"split_conditions":[4.6850002E-1,3.705E-1,1.55E0,-1.551385E-3,1.5110864E-3,-3.456445E-3,-7.3307013E-4],"split_indices":[3,55,77,0,0,0,0],"split_type":[0,0,0,0,0,0,0],"sum_hessian":[6.173897E3,2.4315588E3,3.7423381E3,5.439511E2,1.8876077E3,2.1771384E3,1.5651997E3],"tree_param":{"num_deleted":"0","num_feature":"106","num_nodes":"7","size_leaf_vector":"0"}},{"base_weights":[1.0799095E-1,-8.25641E-2,2.3179178E-1,1.551385E-1,-1.5110862E-1,3.4564447E-1,7.330706E-2],"categories":[],"categories_nodes":[],"categories_segments":[],"categories_sizes":[],"default_left":[1,1,1,0,0,0,0],"id":81,"left_children":[1,3,5,-1,-1,-1,-1],"loss_changes":[1.4569034E2,3.965764E1,6.751912E1,0E0,0E0,0E0,0E0],"parents":[2147483647,0,0,1,1,2,2],"right_children":[2,4,6,-1,-1,-1,-1],"split_conditions":[4.6850002E-1,3.705E-1,1.55E0,1.5513849E-3,-1.5110862E-3,3.4564447E-3,7.330706E-4],"split_indices":[3,55,77,0,0,0,0],"split_type":[0,0,0,0,0,0,0],"sum_hessian":[6.173897E3,2.4315588E3,3.7423381E3,5.439511E2,1.8876077E3,2.1771384E3,1.5651997E3],"tree_param":{"num_deleted":"0","num_feature":"106","num_nodes":"7","size_leaf_vector":"0"}},{"base_weights":[-1.0695404E-1,-1.882726E-1,1.794662E-1,3.0808939E-2,-2.6672634E-1,2.2774458E-1,-1.1495848E-1],"categories":[],"categories_nodes":[],"categories_segments":[],"categories_sizes":[],"default_left":[1,1,1,0,0,0,0],"id":82,"left_children":[1,3,5,-1,-1,-1,-1],"loss_changes":[1.4379889E2,8.2647766E1,1.9435047E1,0E0,0E0,0E0,0E0],"parents":[2147483647,0,0,1,1,2,2],"right_children":[2,4,6,-1,-1,-1,-1],"split_conditions":[2.35E1,7.5E0,2.55E1,3.0808937E-4,-2.6672634E-3,2.2774457E-3,-1.1495848E-3],"split_indices":[51,103,81,0,0,0,0],"split_type":[0,0,0,0,0,0,0],"sum_hessian":[6.171486E3,4.807044E3,1.3644419E3,1.2676757E3,3.5393682E3,1.1724203E3,1.9202148E2],"tree_param":{"num_deleted":"0","num_feature":"106","num_nodes":"7","size_leaf_vector":"0"}},{"base_weights":[1.06954016E-1,1.8827257E-1,-1.7946616E-1,-3.080894E-2,2.6672632E-1,-2.2774453E-1,1.1495849E-1],"categories":[],"categories_nodes":[],"categories_segments":[],"categories_sizes":[],"default_left":[1,1,1,0,0,0,0],"id":83,"left_children":[1,3,5,-1,-1,-1,-1],"loss_changes":[1.4379883E2,8.2647736E1,1.9435032E1,0E0,0E0,0E0,0E0],"parents":[2147483647,0,0,1,1,2,2],"right_children":[2,4,6,-1,-1,-1,-1],"split_conditions":[2.35E1,7.5E0,2.55E1,-3.080894E-4,2.6672632E-3,-2.2774453E-3,1.1495849E-3],"split_indices":[51,103,81,0,0,0,0],"split_type":[0,0,0,0,0,0,0],"sum_hessian":[6.171486E3,4.807044E3,1.3644419E3,1.2676757E3,3.5393682E3,1.1724204E3,1.9202148E2],"tree_param":{"num_deleted":"0","num_feature":"106","num_nodes":"7","size_leaf_vector":"0"}},{"base_weights":[-1.05922855E-1,-2.6168466E-1,4.2072713E-2,-2.0097788E-1,-5.1322675E-1,-8.754942E-2,1.9501428E-1],"categories":[],"categories_nodes":[],"categories_segments":[],"categories_sizes":[],"default_left":[1,1,1,0,0,0,0],"id":84,"left_children":[1,3,5,-1,-1,-1,-1],"loss_changes":[1.4224872E2,4.5805542E1,6.2759617E1,0E0,0E0,0E0,0E0],"parents":[2147483647,0,0,1,1,2,2],"right_children":[2,4,6,-1,-1,-1,-1],"split_conditions":[1.45E1,2.25E1,5.2250004E-1,-2.0097787E-3,-5.1322673E-3,-8.7549415E-4,1.9501428E-3],"split_indices":[51,80,55,0,0,0,0],"split_type":[0,0,0,0,0,0,0],"sum_hessian":[6.169282E3,3.0054011E3,3.163881E3,2.4225466E3,5.828546E2,1.7127266E3,1.4511547E3],"tree_param":{"num_deleted":"0","num_feature":"106","num_nodes":"7","size_leaf_vector":"0"}},{"base_weights":[1.0592285E-1,2.6168466E-1,-4.2072713E-2,2.0097786E-1,5.1322675E-1,8.75494E-2,-1.9501427E-1],"categories":[],"categories_nodes":[],"categories_segments":[],"categories_sizes":[],"default_left":[1,1,1,0,0,0,0],"id":85,"left_children":[1,3,5,-1,-1,-1,-1],"loss_changes":[1.422487E2,4.5805527E1,6.27596E1,0E0,0E0,0E0,0E0],"parents":[2147483647,0,0,1,1,2,2],"right_children":[2,4,6,-1,-1,-1,-1],"split_conditions":[1.45E1,2.25E1,5.2250004E-1,2.0097785E-3,5.1322673E-3,8.7549404E-4,-1.9501427E-3],"split_indices":[51,80,55,0,0,0,0],"split_type":[0,0,0,0,0,0,0],"sum_hessian":[6.169282E3,3.0054011E3,3.163881E3,2.4225466E3,5.828546E2,1.7127266E3,1.4511547E3],"tree_param":{"num_deleted":"0","num_feature":"106","num_nodes":"7","size_leaf_vector":"0"}},{"base_weights":[-1.0490609E-1,-1.8507628E-1,1.7733455E-1,-1.0168433E-1,-3.8734823E-1,2.1028817E-1,-2.4516922E-1],"categories":[],"categories_nodes":[],"categories_segments":[],"categories_sizes":[],"default_left":[1,1,1,0,0,0,0],"id":86,"left_children":[1,3,5,-1,-1,-1,-1],"loss_changes":[1.395951E2,8.0992874E1,1.9055504E1,0E0,0E0,0E0,0E0],"parents":[2147483647,0,0,1,1,2,2],"right_children":[2,4,6,-1,-1,-1,-1],"split_conditions":[2.35E1,1.95E1,2.75E1,-1.0168432E-3,-3.8734823E-3,2.1028817E-3,-2.4516922E-3],"split_indices":[51,80,80,0,0,0,0],"split_type":[0,0,0,0,0,0,0],"sum_hessian":[6.1668755E3,4.802947E3,1.3639285E3,3.4019187E3,1.4010281E3,1.2657103E3,9.821813E1],"tree_param":{"num_deleted":"0","num_feature":"106","num_nodes":"7","size_leaf_vector":"0"}},{"base_weights":[1.0490609E-1,1.850763E-1,-1.7733455E-1,1.0168435E-1,3.8734823E-1,-2.1028818E-1,2.4516922E-1],"categories":[],"categories_nodes":[],"categories_segments":[],"categories_sizes":[],"default_left":[1,1,1,0,0,0,0],"id":87,"left_children":[1,3,5,-1,-1,-1,-1],"loss_changes":[1.3959512E2,8.0992874E1,1.90555E1,0E0,0E0,0E0,0E0],"parents":[2147483647,0,0,1,1,2,2],"right_children":[2,4,6,-1,-1,-1,-1],"split_conditions":[2.35E1,1.95E1,2.75E1,1.0168435E-3,3.8734823E-3,-2.1028817E-3,2.4516922E-3],"split_indices":[51,80,80,0,0,0,0],"split_type":[0,0,0,0,0,0,0],"sum_hessian":[6.166875E3,4.802947E3,1.3639285E3,3.4019187E3,1.4010281E3,1.2657103E3,9.821813E1],"tree_param":{"num_deleted":"0","num_feature":"106","num_nodes":"7","size_leaf_vector":"0"}},{"base_weights":[-1.0389608E-1,-2.5756204E-1,4.1988324E-2,-3.0950105E-1,2.9810343E-2,-8.84083E-2,1.9056913E-1],"categories":[],"categories_nodes":[],"categories_segments":[],"categories_sizes":[],"default_left":[1,1,1,0,0,0,0],"id":88,"left_children":[1,3,5,-1,-1,-1,-1],"loss_changes":[1.3822876E2,4.482962E1,6.1312935E1,0E0,0E0,0E0,0E0],"parents":[2147483647,0,0,1,1,2,2],"right_children":[2,4,6,-1,-1,-1,-1],"split_conditions":[1.45E1,5.95E0,5.5E-1,-3.0950105E-3,2.9810343E-4,-8.84083E-4,1.9056912E-3],"split_indices":[51,77,77,0,0,0,0],"split_type":[0,0,0,0,0,0,0],"sum_hessian":[6.1646353E3,3.001874E3,3.1627612E3,2.5423066E3,4.5956747E2,1.6846732E3,1.4780881E3],"tree_param":{"num_deleted":"0","num_feature":"106","num_nodes":"7","size_leaf_vector":"0"}},{"base_weights":[1.0389609E-1,2.5756207E-1,-4.198832E-2,3.0950105E-1,-2.9810235E-2,8.8408306E-2,-1.9056913E-1],"categories":[],"categories_nodes":[],"categories_segments":[],"categories_sizes":[],"default_left":[1,1,1,0,0,0,0],"id":89,"left_children":[1,3,5,-1,-1,-1,-1],"loss_changes":[1.3822876E2,4.482959E1,6.131294E1,0E0,0E0,0E0,0E0],"parents":[2147483647,0,0,1,1,2,2],"right_children":[2,4,6,-1,-1,-1,-1],"split_conditions":[1.45E1,5.95E0,5.5E-1,3.0950105E-3,-2.9810233E-4,8.8408304E-4,-1.9056912E-3],"split_indices":[51,77,77,0,0,0,0],"split_type":[0,0,0,0,0,0,0],"sum_hessian":[6.1646353E3,3.001874E3,3.1627612E3,2.5423066E3,4.5956747E2,1.6846732E3,1.4780881E3],"tree_param":{"num_deleted":"0","num_feature":"106","num_nodes":"7","size_leaf_vector":"0"}},{"base_weights":[-1.0289899E-1,-2.0079039E-1,1.2233411E-1,-1.13899216E-1,-3.9400303E-1,1.0515442E-3,2.5777274E-1],"categories":[],"categories_nodes":[],"categories_segments":[],"categories_sizes":[],"default_left":[1,1,1,0,0,0,0],"id":90,"left_children":[1,3,5,-1,-1,-1,-1],"loss_changes":[1.3591254E2,7.208516E1,3.0680363E1,0E0,0E0,0E0,0E0],"parents":[2147483647,0,0,1,1,2,2],"right_children":[2,4,6,-1,-1,-1,-1],"split_conditions":[1.95E1,1.85E1,5.135E-1,-1.1389921E-3,-3.9400305E-3,1.0515442E-5,2.5777274E-3],"split_indices":[28,80,55,0,0,0,0],"split_type":[0,0,0,0,0,0,0],"sum_hessian":[6.1621724E3,4.2954023E3,1.8667703E3,2.9640193E3,1.3313829E3,9.853854E2,8.8138495E2],"tree_param":{"num_deleted":"0","num_feature":"106","num_nodes":"7","size_leaf_vector":"0"}},{"base_weights":[1.02899E-1,2.007904E-1,-1.22334145E-1,1.1389922E-1,3.9400306E-1,-1.0515699E-3,-2.5777277E-1],"categories":[],"categories_nodes":[],"categories_segments":[],"categories_sizes":[],"default_left":[1,1,1,0,0,0,0],"id":91,"left_children":[1,3,5,-1,-1,-1,-1],"loss_changes":[1.3591258E2,7.2085175E1,3.0680368E1,0E0,0E0,0E0,0E0],"parents":[2147483647,0,0,1,1,2,2],"right_children":[2,4,6,-1,-1,-1,-1],"split_conditions":[1.95E1,1.85E1,5.135E-1,1.1389923E-3,3.9400305E-3,-1.05157E-5,-2.5777277E-3],"split_indices":[28,80,55,0,0,0,0],"split_type":[0,0,0,0,0,0,0],"sum_hessian":[6.1621724E3,4.2954023E3,1.8667703E3,2.9640193E3,1.3313829E3,9.853854E2,8.8138495E2],"tree_param":{"num_deleted":"0","num_feature":"106","num_nodes":"7","size_leaf_vector":"0"}},{"base_weights":[-1.0191157E-1,-2.5336993E-1,4.1750055E-2,-3.1228423E-1,-5.3405147E-3,-1.7746457E-1,1.279588E-1],"categories":[],"categories_nodes":[],"categories_segments":[],"categories_sizes":[],"default_left":[1,1,1,0,0,0,0],"id":92,"left_children":[1,3,5,-1,-1,-1,-1],"loss_changes":[1.3406004E2,4.382289E1,5.9790127E1,0E0,0E0,0E0,0E0],"parents":[2147483647,0,0,1,1,2,2],"right_children":[2,4,6,-1,-1,-1,-1],"split_conditions":[1.45E1,5.05E0,-2.45E0,-3.1228422E-3,-5.3405147E-5,-1.7746458E-3,1.279588E-3],"split_indices":[51,77,77,0,0,0,0],"split_type":[0,0,0,0,0,0,0],"sum_hessian":[6.1597134E3,2.9981184E3,3.161595E3,2.4224548E3,5.756635E2,8.9209247E2,2.2695024E3],"tree_param":{"num_deleted":"0","num_feature":"106","num_nodes":"7","size_leaf_vector":"0"}},{"base_weights":[1.01911575E-1,2.5336996E-1,-4.175005E-2,3.1228426E-1,5.3405166E-3,1.7746457E-1,-1.279588E-1],"categories":[],"categories_nodes":[],"categories_segments":[],"categories_sizes":[],"default_left":[1,1,1,0,0,0,0],"id":93,"left_children":[1,3,5,-1,-1,-1,-1],"loss_changes":[1.3406004E2,4.382289E1,5.979012E1,0E0,0E0,0E0,0E0],"parents":[2147483647,0,0,1,1,2,2],"right_children":[2,4,6,-1,-1,-1,-1],"split_conditions":[1.45E1,5.05E0,-2.45E0,3.1228426E-3,5.3405165E-5,1.7746458E-3,-1.279588E-3],"split_indices":[51,77,77,0,0,0,0],"split_type":[0,0,0,0,0,0,0],"sum_hessian":[6.1597134E3,2.9981184E3,3.161595E3,2.4224548E3,5.756635E2,8.9209247E2,2.2695024E3],"tree_param":{"num_deleted":"0","num_feature":"106","num_nodes":"7","size_leaf_vector":"0"}},{"base_weights":[-1.00935556E-1,-1.7908968E-1,1.7391695E-1,3.3343837E-2,-2.5537905E-1,2.0619038E-1,-2.3981538E-1],"categories":[],"categories_nodes":[],"categories_segments":[],"categories_sizes":[],"default_left":[1,1,1,0,0,0,0],"id":94,"left_children":[1,3,5,-1,-1,-1,-1],"loss_changes":[1.3231354E2,7.772247E1,1.826094E1,0E0,0E0,0E0,0E0],"parents":[2147483647,0,0,1,1,2,2],"right_children":[2,4,6,-1,-1,-1,-1],"split_conditions":[2.35E1,7.5E0,2.75E1,3.3343837E-4,-2.5537903E-3,2.0619037E-3,-2.3981538E-3],"split_indices":[51,103,80,0,0,0,0],"split_type":[0,0,0,0,0,0,0],"sum_hessian":[6.1571523E3,4.794257E3,1.3628954E3,1.2669374E3,3.5273196E3,1.2647402E3,9.815515E1],"tree_param":{"num_deleted":"0","num_feature":"106","num_nodes":"7","size_leaf_vector":"0"}},{"base_weights":[1.0093555E-1,1.7908968E-1,-1.7391695E-1,-3.334382E-2,2.5537905E-1,-2.0619038E-1,2.3981538E-1],"categories":[],"categories_nodes":[],"categories_segments":[],"categories_sizes":[],"default_left":[1,1,1,0,0,0,0],"id":95,"left_children":[1,3,5,-1,-1,-1,-1],"loss_changes":[1.3231355E2,7.772243E1,1.826094E1,0E0,0E0,0E0,0E0],"parents":[2147483647,0,0,1,1,2,2],"right_children":[2,4,6,-1,-1,-1,-1],"split_conditions":[2.35E1,7.5E0,2.75E1,-3.3343822E-4,2.5537903E-3,-2.0619037E-3,2.3981538E-3],"split_indices":[51,103,80,0,0,0,0],"split_type":[0,0,0,0,0,0,0],"sum_hessian":[6.1571523E3,4.794257E3,1.3628954E3,1.2669373E3,3.5273196E3,1.2647402E3,9.815515E1],"tree_param":{"num_deleted":"0","num_feature":"106","num_nodes":"7","size_leaf_vector":"0"}},{"base_weights":[-9.996466E-2,8.028917E-2,-2.1739745E-1,-1.8797927E-2,2.292965E-1,-3.2685134E-1,-6.581602E-2],"categories":[],"categories_nodes":[],"categories_segments":[],"categories_sizes":[],"default_left":[1,1,1,0,0,0,0],"id":96,"left_children":[1,3,5,-1,-1,-1,-1],"loss_changes":[1.3032233E2,3.5869423E1,6.182576E1,0E0,0E0,0E0,0E0],"parents":[2147483647,0,0,1,1,2,2],"right_children":[2,4,6,-1,-1,-1,-1],"split_conditions":[4.6850002E-1,2.55E1,1.55E0,-1.8797927E-4,2.292965E-3,-3.2685134E-3,-6.581602E-4],"split_indices":[3,51,77,0,0,0,0],"split_type":[0,0,0,0,0,0,0],"sum_hessian":[6.154832E3,2.4281113E3,3.7267207E3,1.4588662E3,9.69245E2,2.16341E3,1.5633108E3],"tree_param":{"num_deleted":"0","num_feature":"106","num_nodes":"7","size_leaf_vector":"0"}},{"base_weights":[9.996467E-2,-8.0289155E-2,2.1739745E-1,1.8797938E-2,-2.2929649E-1,3.2685134E-1,6.581605E-2],"categories":[],"categories_nodes":[],"categories_segments":[],"categories_sizes":[],"default_left":[1,1,1,0,0,0,0],"id":97,"left_children":[1,3,5,-1,-1,-1,-1],"loss_changes":[1.3032233E2,3.586942E1,6.1825745E1,0E0,0E0,0E0,0E0],"parents":[2147483647,0,0,1,1,2,2],"right_children":[2,4,6,-1,-1,-1,-1],"split_conditions":[4.6850002E-1,2.55E1,1.55E0,1.8797937E-4,-2.2929648E-3,3.2685134E-3,6.581605E-4],"split_indices":[3,51,77,0,0,0,0],"split_type":[0,0,0,0,0,0,0],"sum_hessian":[6.154832E3,2.4281113E3,3.7267207E3,1.4588662E3,9.69245E2,2.16341E3,1.5633109E3],"tree_param":{"num_deleted":"0","num_feature":"106","num_nodes":"7","size_leaf_vector":"0"}},{"base_weights":[-9.900601E-2,-2.4749222E-1,4.164271E-2,-1.885837E-1,-4.930001E-1,-1.7445798E-1,1.265976E-1],"categories":[],"categories_nodes":[],"categories_segments":[],"categories_sizes":[],"default_left":[1,1,1,0,0,0,0],"id":98,"left_children":[1,3,5,-1,-1,-1,-1],"loss_changes":[1.2851898E2,4.3199265E1,5.805284E1,0E0,0E0,0E0,0E0],"parents":[2147483647,0,0,1,1,2,2],"right_children":[2,4,6,-1,-1,-1,-1],"split_conditions":[1.45E1,2.25E1,-2.45E0,-1.885837E-3,-4.9300008E-3,-1.7445798E-3,1.265976E-3],"split_indices":[51,80,77,0,0,0,0],"split_type":[0,0,0,0,0,0,0],"sum_hessian":[6.152335E3,2.992413E3,3.1599216E3,2.4147683E3,5.7764484E2,8.914012E2,2.2685205E3],"tree_param":{"num_deleted":"0","num_feature":"106","num_nodes":"7","size_leaf_vector":"0"}},{"base_weights":[9.9006005E-2,2.474922E-1,-4.1642692E-2,1.885837E-1,4.93E-1,1.7445797E-1,-1.2659757E-1],"categories":[],"categories_nodes":[],"categories_segments":[],"categories_sizes":[],"default_left":[1,1,1,0,0,0,0],"id":99,"left_children":[1,3,5,-1,-1,-1,-1],"loss_changes":[1.2851895E2,4.319925E1,5.805283E1,0E0,0E0,0E0,0E0],"parents":[2147483647,0,0,1,1,2,2],"right_children":[2,4,6,-1,-1,-1,-1],"split_conditions":[1.45E1,2.25E1,-2.45E0,1.885837E-3,4.93E-3,1.7445796E-3,-1.2659756E-3],"split_indices":[51,80,77,0,0,0,0],"split_type":[0,0,0,0,0,0,0],"sum_hessian":[6.152335E3,2.992413E3,3.1599216E3,2.4147683E3,5.776448E2,8.914012E2,2.2685205E3],"tree_param":{"num_deleted":"0","num_feature":"106","num_nodes":"7","size_leaf_vector":"0"}},{"base_weights":[-9.805893E-2,1.3061711E-1,-1.8775591E-1,-2.3188477E-2,2.2460605E-1,-3.7996465E-1,-1.0647357E-1],"categories":[],"categories_nodes":[],"categories_segments":[],"categories_sizes":[],"default_left":[1,1,1,0,0,0,0],"id":100,"left_children":[1,3,5,-1,-1,-1,-1],"loss_changes":[1.2618596E2,2.506436E1,6.8987045E1,0E0,0E0,0E0,0E0],"parents":[2147483647,0,0,1,1,2,2],"right_children":[2,4,6,-1,-1,-1,-1],"split_conditions":[-2.45E0,-1.25E0,-1.95E0,-2.3188477E-4,2.2460604E-3,-3.7996464E-3,-1.0647357E-3],"split_indices":[25,77,77,0,0,0,0],"split_type":[0,0,0,0,0,0,0],"sum_hessian":[6.1497515E3,1.7324747E3,4.417277E3,6.5741675E2,1.075058E3,1.3117352E3,3.1055415E3],"tree_param":{"num_deleted":"0","num_feature":"106","num_nodes":"7","size_leaf_vector":"0"}},{"base_weights":[9.8058924E-2,-1.3061711E-1,1.877559E-1,2.3188459E-2,-2.2460607E-1,3.7996465E-1,1.06473565E-1],"categories":[],"categories_nodes":[],"categories_segments":[],"categories_sizes":[],"default_left":[1,1,1,0,0,0,0],"id":101,"left_children":[1,3,5,-1,-1,-1,-1],"loss_changes":[1.2618596E2,2.5064365E1,6.8987045E1,0E0,0E0,0E0,0E0],"parents":[2147483647,0,0,1,1,2,2],"right_children":[2,4,6,-1,-1,-1,-1],"split_conditions":[-2.45E0,-1.25E0,-1.95E0,2.3188458E-4,-2.2460606E-3,3.7996464E-3,1.0647356E-3],"split_indices":[25,77,77,0,0,0,0],"split_type":[0,0,0,0,0,0,0],"sum_hessian":[6.1497515E3,1.7324747E3,4.417277E3,6.5741675E2,1.0750579E3,1.3117352E3,3.1055415E3],"tree_param":{"num_deleted":"0","num_feature":"106","num_nodes":"7","size_leaf_vector":"0"}},{"base_weights":[-9.711951E-2,-1.8636372E-3,-3.107201E-1,-2.0677663E-1,9.065465E-2,-3.6334935E-1,-3.68037E-2],"categories":[],"categories_nodes":[],"categories_segments":[],"categories_sizes":[],"default_left":[1,1,1,0,0,0,0],"id":102,"left_children":[1,3,5,-1,-1,-1,-1],"loss_changes":[1.2509514E2,8.0648224E1,2.7322144E1,0E0,0E0,0E0,0E0],"parents":[2147483647,0,0,1,1,2,2],"right_children":[2,4,6,-1,-1,-1,-1],"split_conditions":[2.85E0,-1.95E0,5.95E0,-2.0677664E-3,9.065465E-4,-3.6334933E-3,-3.68037E-4],"split_indices":[25,77,77,0,0,0,0],"split_type":[0,0,0,0,0,0,0],"sum_hessian":[6.1472046E3,4.2520137E3,1.8951908E3,1.3222374E3,2.9297764E3,1.5894696E3,3.0572116E2],"tree_param":{"num_deleted":"0","num_feature":"106","num_nodes":"7","size_leaf_vector":"0"}},{"base_weights":[9.71195E-2,1.8636325E-3,3.1072006E-1,2.067766E-1,-9.065465E-2,3.6334932E-1,3.6803704E-2],"categories":[],"categories_nodes":[],"categories_segments":[],"categories_sizes":[],"default_left":[1,1,1,0,0,0,0],"id":103,"left_children":[1,3,5,-1,-1,-1,-1],"loss_changes":[1.25095146E2,8.064821E1,2.7322128E1,0E0,0E0,0E0,0E0],"parents":[2147483647,0,0,1,1,2,2],"right_children":[2,4,6,-1,-1,-1,-1],"split_conditions":[2.85E0,-1.95E0,5.95E0,2.067766E-3,-9.065465E-4,3.633493E-3,3.6803703E-4],"split_indices":[25,77,77,0,0,0,0],"split_type":[0,0,0,0,0,0,0],"sum_hessian":[6.1472046E3,4.2520137E3,1.8951908E3,1.3222374E3,2.9297764E3,1.5894696E3,3.0572116E2],"tree_param":{"num_deleted":"0","num_feature":"106","num_nodes":"7","size_leaf_vector":"0"}},{"base_weights":[-9.6186385E-2,-1.8970856E-1,1.185204E-1,-1.1133272E-1,-3.8967884E-1,2.7954683E-1,2.2803614E-2],"categories":[],"categories_nodes":[],"categories_segments":[],"categories_sizes":[],"default_left":[1,1,1,0,0,0,0],"id":104,"left_children":[1,3,5,-1,-1,-1,-1],"loss_changes":[1.23430466E2,6.7059586E1,2.8744606E1,0E0,0E0,0E0,0E0],"parents":[2147483647,0,0,1,1,2,2],"right_children":[2,4,6,-1,-1,-1,-1],"split_conditions":[1.95E1,1.95E1,-6.25E0,-1.1133272E-3,-3.8967882E-3,2.7954683E-3,2.2803614E-4],"split_indices":[28,80,25,0,0,0,0],"split_type":[0,0,0,0,0,0,0],"sum_hessian":[6.144863E3,4.2804824E3,1.86438E3,3.076316E3,1.2041667E3,6.94346E2,1.170034E3],"tree_param":{"num_deleted":"0","num_feature":"106","num_nodes":"7","size_leaf_vector":"0"}},{"base_weights":[9.6186385E-2,1.8970855E-1,-1.1852039E-1,1.11332715E-1,3.896788E-1,-2.795468E-1,-2.280361E-2],"categories":[],"categories_nodes":[],"categories_segments":[],"categories_sizes":[],"default_left":[1,1,1,0,0,0,0],"id":105,"left_children":[1,3,5,-1,-1,-1,-1],"loss_changes":[1.23430435E2,6.705957E1,2.8744596E1,0E0,0E0,0E0,0E0],"parents":[2147483647,0,0,1,1,2,2],"right_children":[2,4,6,-1,-1,-1,-1],"split_conditions":[1.95E1,1.95E1,-6.25E0,1.1133271E-3,3.896788E-3,-2.7954679E-3,-2.280361E-4],"split_indices":[28,80,25,0,0,0,0],"split_type":[0,0,0,0,0,0,0],"sum_hessian":[6.1448623E3,4.2804824E3,1.86438E3,3.0763157E3,1.2041667E3,6.94346E2,1.170034E3],"tree_param":{"num_deleted":"0","num_feature":"106","num_nodes":"7","size_leaf_vector":"0"}},{"base_weights":[-9.5263004E-2,-1.2811434E-3,-3.0623275E-1,-2.0361394E-1,8.999787E-2,-3.583681E-1,-3.533243E-2],"categories":[],"categories_nodes":[],"categories_segments":[],"categories_sizes":[],"default_left":[1,1,1,0,0,0,0],"id":106,"left_children":[1,3,5,-1,-1,-1,-1],"loss_changes":[1.2180751E2,7.85311E1,2.672757E1,0E0,0E0,0E0,0E0],"parents":[2147483647,0,0,1,1,2,2],"right_children":[2,4,6,-1,-1,-1,-1],"split_conditions":[2.85E0,-1.95E0,5.95E0,-2.0361394E-3,8.999787E-4,-3.5836808E-3,-3.5332429E-4],"split_indices":[25,77,77,0,0,0,0],"split_type":[0,0,0,0,0,0,0],"sum_hessian":[6.142435E3,4.2501177E3,1.8923174E3,1.3209081E3,2.9292095E3,1.5866417E3,3.056756E2],"tree_param":{"num_deleted":"0","num_feature":"106","num_nodes":"7","size_leaf_vector":"0"}},{"base_weights":[9.5263004E-2,1.2811375E-3,3.0623275E-1,2.0361394E-1,-8.999788E-2,3.583681E-1,3.5332516E-2],"categories":[],"categories_nodes":[],"categories_segments":[],"categories_sizes":[],"default_left":[1,1,1,0,0,0,0],"id":107,"left_children":[1,3,5,-1,-1,-1,-1],"loss_changes":[1.21807526E2,7.8531105E1,2.6727554E1,0E0,0E0,0E0,0E0],"parents":[2147483647,0,0,1,1,2,2],"right_children":[2,4,6,-1,-1,-1,-1],"split_conditions":[2.85E0,-1.95E0,5.95E0,2.0361394E-3,-8.999788E-4,3.5836808E-3,3.5332516E-4],"split_indices":[25,77,77,0,0,0,0],"split_type":[0,0,0,0,0,0,0],"sum_hessian":[6.142435E3,4.2501177E3,1.8923174E3,1.3209081E3,2.9292095E3,1.5866417E3,3.0567557E2],"tree_param":{"num_deleted":"0","num_feature":"106","num_nodes":"7","size_leaf_vector":"0"}},{"base_weights":[-9.4348475E-2,-1.6904809E-1,1.6785954E-1,3.6603373E-2,-2.431679E-1,1.9918443E-1,-2.3351263E-1],"categories":[],"categories_nodes":[],"categories_segments":[],"categories_sizes":[],"default_left":[1,1,1,0,0,0,0],"id":108,"left_children":[1,3,5,-1,-1,-1,-1],"loss_changes":[1.2031207E2,7.286888E1,1.7172146E1,0E0,0E0,0E0,0E0],"parents":[2147483647,0,0,1,1,2,2],"right_children":[2,4,6,-1,-1,-1,-1],"split_conditions":[2.35E1,7.5E0,2.75E1,3.6603372E-4,-2.431679E-3,1.9918443E-3,-2.3351263E-3],"split_indices":[51,103,80,0,0,0,0],"split_type":[0,0,0,0,0,0,0],"sum_hessian":[6.1400474E3,4.7789443E3,1.361103E3,1.26622E3,3.5127244E3,1.2630339E3,9.80691E1],"tree_param":{"num_deleted":"0","num_feature":"106","num_nodes":"7","size_leaf_vector":"0"}},{"base_weights":[9.4348475E-2,1.6904809E-1,-1.6785954E-1,-3.660338E-2,2.431679E-1,-1.9918442E-1,2.3351261E-1],"categories":[],"categories_nodes":[],"categories_segments":[],"categories_sizes":[],"default_left":[1,1,1,0,0,0,0],"id":109,"left_children":[1,3,5,-1,-1,-1,-1],"loss_changes":[1.2031206E2,7.2868866E1,1.7172146E1,0E0,0E0,0E0,0E0],"parents":[2147483647,0,0,1,1,2,2],"right_children":[2,4,6,-1,-1,-1,-1],"split_conditions":[2.35E1,7.5E0,2.75E1,-3.6603378E-4,2.431679E-3,-1.991844E-3,2.335126E-3],"split_indices":[51,103,80,0,0,0,0],"split_type":[0,0,0,0,0,0,0],"sum_hessian":[6.1400474E3,4.7789443E3,1.361103E3,1.26622E3,3.5127244E3,1.2630339E3,9.80691E1],"tree_param":{"num_deleted":"0","num_feature":"106","num_nodes":"7","size_leaf_vector":"0"}},{"base_weights":[-9.3443096E-2,4.6147097E-2,-2.3240988E-1,-7.676135E-2,1.8824747E-1,-1.7487001E-1,-4.7230795E-1],"categories":[],"categories_nodes":[],"categories_segments":[],"categories_sizes":[],"default_left":[1,1,1,0,0,0,0],"id":110,"left_children":[1,3,5,-1,-1,-1,-1],"loss_changes":[1.1908964E2,5.351535E1,4.2382156E1,0E0,0E0,0E0,0E0],"parents":[2147483647,0,0,1,1,2,2],"right_children":[2,4,6,-1,-1,-1,-1],"split_conditions":[2.5E-1,5.5E-1,2.25E1,-7.6761347E-4,1.8824746E-3,-1.7487002E-3,-4.7230795E-3],"split_indices":[25,77,80,0,0,0,0],"split_type":[0,0,0,0,0,0,0],"sum_hessian":[6.1375938E3,3.062262E3,3.0753315E3,1.6422621E3,1.42E3,2.481798E3,5.935335E2],"tree_param":{"num_deleted":"0","num_feature":"106","num_nodes":"7","size_leaf_vector":"0"}},{"base_weights":[9.34431E-2,-4.6147082E-2,2.3240988E-1,7.676136E-2,-1.8824746E-1,1.7487001E-1,4.7230798E-1],"categories":[],"categories_nodes":[],"categories_segments":[],"categories_sizes":[],"default_left":[1,1,1,0,0,0,0],"id":111,"left_children":[1,3,5,-1,-1,-1,-1],"loss_changes":[1.190896E2,5.3515343E1,4.238217E1,0E0,0E0,0E0,0E0],"parents":[2147483647,0,0,1,1,2,2],"right_children":[2,4,6,-1,-1,-1,-1],"split_conditions":[2.5E-1,5.5E-1,2.25E1,7.676136E-4,-1.8824745E-3,1.7487002E-3,4.7230795E-3],"split_indices":[25,77,80,0,0,0,0],"split_type":[0,0,0,0,0,0,0],"sum_hessian":[6.1375933E3,3.062262E3,3.0753315E3,1.6422621E3,1.42E3,2.4817979E3,5.935335E2],"tree_param":{"num_deleted":"0","num_feature":"106","num_nodes":"7","size_leaf_vector":"0"}},{"base_weights":[-9.255002E-2,-3.1432798E-4,-2.9990956E-1,-1.989907E-1,8.922762E-2,-3.51293E-1,-3.357695E-2],"categories":[],"categories_nodes":[],"categories_segments":[],"categories_sizes":[],"default_left":[1,1,1,0,0,0,0],"id":112,"left_children":[1,3,5,-1,-1,-1,-1],"loss_changes":[1.1735571E2,7.558712E1,2.5840164E1,0E0,0E0,0E0,0E0],"parents":[2147483647,0,0,1,1,2,2],"right_children":[2,4,6,-1,-1,-1,-1],"split_conditions":[2.85E0,-1.95E0,5.95E0,-1.989907E-3,8.922761E-4,-3.51293E-3,-3.357695E-4],"split_indices":[25,77,77,0,0,0,0],"split_type":[0,0,0,0,0,0,0],"sum_hessian":[6.1349463E3,4.2468877E3,1.8880585E3,1.319018E3,2.9278696E3,1.58244E3,3.0561847E2],"tree_param":{"num_deleted":"0","num_feature":"106","num_nodes":"7","size_leaf_vector":"0"}},{"base_weights":[9.255002E-2,3.1432117E-4,2.9990956E-1,1.9899069E-1,-8.9227624E-2,3.51293E-1,3.3576947E-2],"categories":[],"categories_nodes":[],"categories_segments":[],"categories_sizes":[],"default_left":[1,1,1,0,0,0,0],"id":113,"left_children":[1,3,5,-1,-1,-1,-1],"loss_changes":[1.1735571E2,7.558712E1,2.5840134E1,0E0,0E0,0E0,0E0],"parents":[2147483647,0,0,1,1,2,2],"right_children":[2,4,6,-1,-1,-1,-1],"split_conditions":[2.85E0,-1.95E0,5.95E0,1.989907E-3,-8.9227624E-4,3.51293E-3,3.3576947E-4],"split_indices":[25,77,77,0,0,0,0],"split_type":[0,0,0,0,0,0,0],"sum_hessian":[6.1349463E3,4.2468877E3,1.8880585E3,1.319018E3,2.9278696E3,1.58244E3,3.0561847E2],"tree_param":{"num_deleted":"0","num_feature":"106","num_nodes":"7","size_leaf_vector":"0"}},{"base_weights":[-9.1662504E-2,-1.8253836E-1,1.1661873E-1,-1.0627466E-1,-3.7787947E-1,2.7493465E-1,2.2543602E-2],"categories":[],"categories_nodes":[],"categories_segments":[],"categories_sizes":[],"default_left":[1,1,1,0,0,0,0],"id":114,"left_children":[1,3,5,-1,-1,-1,-1],"loss_changes":[1.16114525E2,6.358229E1,2.77525E1,0E0,0E0,0E0,0E0],"parents":[2147483647,0,0,1,1,2,2],"right_children":[2,4,6,-1,-1,-1,-1],"split_conditions":[1.95E1,1.95E1,-6.25E0,-1.0627465E-3,-3.7787945E-3,2.7493464E-3,2.2543602E-4],"split_indices":[28,80,25,0,0,0,0],"split_type":[0,0,0,0,0,0,0],"sum_hessian":[6.1324985E3,4.269697E3,1.8628016E3,3.0719226E3,1.1977743E3,6.9361584E2,1.1691858E3],"tree_param":{"num_deleted":"0","num_feature":"106","num_nodes":"7","size_leaf_vector":"0"}},{"base_weights":[9.166251E-2,1.8253838E-1,-1.1661874E-1,1.06274664E-1,3.778795E-1,-2.7493465E-1,-2.2543617E-2],"categories":[],"categories_nodes":[],"categories_segments":[],"categories_sizes":[],"default_left":[1,1,1,0,0,0,0],"id":115,"left_children":[1,3,5,-1,-1,-1,-1],"loss_changes":[1.1611453E2,6.358229E1,2.7752497E1,0E0,0E0,0E0,0E0],"parents":[2147483647,0,0,1,1,2,2],"right_children":[2,4,6,-1,-1,-1,-1],"split_conditions":[1.95E1,1.95E1,-6.25E0,1.0627466E-3,3.778795E-3,-2.7493464E-3,-2.2543616E-4],"split_indices":[28,80,25,0,0,0,0],"split_type":[0,0,0,0,0,0,0],"sum_hessian":[6.1324985E3,4.269697E3,1.8628016E3,3.0719226E3,1.1977743E3,6.9361584E2,1.1691858E3],"tree_param":{"num_deleted":"0","num_feature":"106","num_nodes":"7","size_leaf_vector":"0"}},{"base_weights":[-9.0783864E-2,2.2059225E-4,-2.9560637E-1,-1.8498571E-1,9.3797736E-2,-3.487894E-1,-4.327066E-2],"categories":[],"categories_nodes":[],"categories_segments":[],"categories_sizes":[],"default_left":[1,1,1,0,0,0,0],"id":116,"left_children":[1,3,5,-1,-1,-1,-1],"loss_changes":[1.1428024E2,7.360386E1,2.5295776E1,0E0,0E0,0E0,0E0],"parents":[2147483647,0,0,1,1,2,2],"right_children":[2,4,6,-1,-1,-1,-1],"split_conditions":[2.85E0,-1.55E0,5.6499996E0,-1.849857E-3,9.3797734E-4,-3.4878938E-3,-4.3270658E-4],"split_indices":[25,77,77,0,0,0,0],"split_type":[0,0,0,0,0,0,0],"sum_hessian":[6.129989E3,4.244928E3,1.8850604E3,1.4245354E3,2.820393E3,1.5566038E3,3.2845673E2],"tree_param":{"num_deleted":"0","num_feature":"106","num_nodes":"7","size_leaf_vector":"0"}},{"base_weights":[9.078385E-2,-2.2059538E-4,2.9560634E-1,1.8498571E-1,-9.379774E-2,3.4878933E-1,4.327075E-2],"categories":[],"categories_nodes":[],"categories_segments":[],"categories_sizes":[],"default_left":[1,1,1,0,0,0,0],"id":117,"left_children":[1,3,5,-1,-1,-1,-1],"loss_changes":[1.1428021E2,7.360387E1,2.5295776E1,0E0,0E0,0E0,0E0],"parents":[2147483647,0,0,1,1,2,2],"right_children":[2,4,6,-1,-1,-1,-1],"split_conditions":[2.85E0,-1.55E0,5.6499996E0,1.849857E-3,-9.379774E-4,3.4878934E-3,4.3270751E-4],"split_indices":[25,77,77,0,0,0,0],"split_type":[0,0,0,0,0,0,0],"sum_hessian":[6.129989E3,4.244928E3,1.8850604E3,1.4245354E3,2.820393E3,1.5566038E3,3.2845673E2],"tree_param":{"num_deleted":"0","num_feature":"106","num_nodes":"7","size_leaf_vector":"0"}},{"base_weights":[-8.991391E-2,-1.6251622E-1,1.6456817E-1,3.8066138E-2,-2.3499644E-1,1.9517721E-1,-2.2761463E-1],"categories":[],"categories_nodes":[],"categories_segments":[],"categories_sizes":[],"default_left":[1,1,1,0,0,0,0],"id":118,"left_children":[1,3,5,-1,-1,-1,-1],"loss_changes":[1.1325682E2,6.9337105E1,1.6380268E1,0E0,0E0,0E0,0E0],"parents":[2147483647,0,0,1,1,2,2],"right_children":[2,4,6,-1,-1,-1,-1],"split_conditions":[2.35E1,7.5E0,2.75E1,3.8066137E-4,-2.3499643E-3,1.9517721E-3,-2.2761463E-3],"split_indices":[51,103,80,0,0,0,0],"split_type":[0,0,0,0,0,0,0],"sum_hessian":[6.1275005E3,4.767672E3,1.3598285E3,1.2656305E3,3.5020413E3,1.2618464E3,9.7982124E1],"tree_param":{"num_deleted":"0","num_feature":"106","num_nodes":"7","size_leaf_vector":"0"}},{"base_weights":[8.991393E-2,1.6251624E-1,-1.6456816E-1,-3.8066093E-2,2.3499645E-1,-1.951772E-1,2.2761464E-1],"categories":[],"categories_nodes":[],"categories_segments":[],"categories_sizes":[],"default_left":[1,1,1,0,0,0,0],"id":119,"left_children":[1,3,5,-1,-1,-1,-1],"loss_changes":[1.1325683E2,6.933709E1,1.6380272E1,0E0,0E0,0E0,0E0],"parents":[2147483647,0,0,1,1,2,2],"right_children":[2,4,6,-1,-1,-1,-1],"split_conditions":[2.35E1,7.5E0,2.75E1,-3.8066093E-4,2.3499646E-3,-1.9517719E-3,2.2761463E-3],"split_indices":[51,103,80,0,0,0,0],"split_type":[0,0,0,0,0,0,0],"sum_hessian":[6.1275E3,4.767672E3,1.3598285E3,1.2656305E3,3.5020413E3,1.2618464E3,9.7982124E1],"tree_param":{"num_deleted":"0","num_feature":"106","num_nodes":"7","size_leaf_vector":"0"}},{"base_weights":[-8.905224E-2,7.782722E-2,-1.9826673E-1,-1.5370509E-2,2.1806245E-1,-3.021743E-1,-5.553096E-2],"categories":[],"categories_nodes":[],"categories_segments":[],"categories_sizes":[],"default_left":[1,1,1,0,0,0,0],"id":120,"left_children":[1,3,5,-1,-1,-1,-1],"loss_changes":[1.1166533E2,3.1683676E1,5.490367E1,0E0,0E0,0E0,0E0],"parents":[2147483647,0,0,1,1,2,2],"right_children":[2,4,6,-1,-1,-1,-1],"split_conditions":[4.6850002E-1,2.55E1,1.55E0,-1.5370508E-4,2.1806245E-3,-3.021743E-3,-5.553096E-4],"split_indices":[3,51,77,0,0,0,0],"split_type":[0,0,0,0,0,0,0],"sum_hessian":[6.124973E3,2.4229695E3,3.7020037E3,1.4561377E3,9.668317E2,2.1417522E3,1.5602515E3],"tree_param":{"num_deleted":"0","num_feature":"106","num_nodes":"7","size_leaf_vector":"0"}},{"base_weights":[8.9052245E-2,-7.7827215E-2,1.9826673E-1,1.5370514E-2,-2.1806243E-1,3.021743E-1,5.553097E-2],"categories":[],"categories_nodes":[],"categories_segments":[],"categories_sizes":[],"default_left":[1,1,1,0,0,0,0],"id":121,"left_children":[1,3,5,-1,-1,-1,-1],"loss_changes":[1.11665306E2,3.1683672E1,5.4903656E1,0E0,0E0,0E0,0E0],"parents":[2147483647,0,0,1,1,2,2],"right_children":[2,4,6,-1,-1,-1,-1],"split_conditions":[4.6850002E-1,2.55E1,1.55E0,1.5370514E-4,-2.1806243E-3,3.021743E-3,5.553097E-4],"split_indices":[3,51,77,0,0,0,0],"split_type":[0,0,0,0,0,0,0],"sum_hessian":[6.124973E3,2.4229695E3,3.7020037E3,1.4561377E3,9.668317E2,2.1417522E3,1.5602515E3],"tree_param":{"num_deleted":"0","num_feature":"106","num_nodes":"7","size_leaf_vector":"0"}},{"base_weights":[-8.8201314E-2,1.2425707E-3,-2.8981885E-1,-1.9226816E-1,8.830587E-2,-3.3986554E-1,-3.1554643E-2],"categories":[],"categories_nodes":[],"categories_segments":[],"categories_sizes":[],"default_left":[1,1,1,0,0,0,0],"id":122,"left_children":[1,3,5,-1,-1,-1,-1],"loss_changes":[1.104242E2,7.149453E1,2.4310791E1,0E0,0E0,0E0,0E0],"parents":[2147483647,0,0,1,1,2,2],"right_children":[2,4,6,-1,-1,-1,-1],"split_conditions":[2.85E0,-1.95E0,5.95E0,-1.9226816E-3,8.8305864E-4,-3.3986552E-3,-3.1554644E-4],"split_indices":[25,77,77,0,0,0,0],"split_type":[0,0,0,0,0,0,0],"sum_hessian":[6.1222773E3,4.241575E3,1.8807025E3,1.3158035E3,2.9257715E3,1.5751521E3,3.0555048E2],"tree_param":{"num_deleted":"0","num_feature":"106","num_nodes":"7","size_leaf_vector":"0"}},{"base_weights":[8.820132E-2,-1.2425641E-3,2.8981882E-1,1.9226818E-1,-8.830586E-2,3.3986554E-1,3.155464E-2],"categories":[],"categories_nodes":[],"categories_segments":[],"categories_sizes":[],"default_left":[1,1,1,0,0,0,0],"id":123,"left_children":[1,3,5,-1,-1,-1,-1],"loss_changes":[1.104242E2,7.1494545E1,2.4310791E1,0E0,0E0,0E0,0E0],"parents":[2147483647,0,0,1,1,2,2],"right_children":[2,4,6,-1,-1,-1,-1],"split_conditions":[2.85E0,-1.95E0,5.95E0,1.9226817E-3,-8.830586E-4,3.3986552E-3,3.1554638E-4],"split_indices":[25,77,77,0,0,0,0],"split_type":[0,0,0,0,0,0,0],"sum_hessian":[6.1222773E3,4.241575E3,1.8807025E3,1.3158035E3,2.9257715E3,1.575152E3,3.0555048E2],"tree_param":{"num_deleted":"0","num_feature":"106","num_nodes":"7","size_leaf_vector":"0"}},{"base_weights":[-8.7356806E-2,-2.2469114E-1,4.196872E-2,-1.6915096E-1,-4.5904014E-1,-6.1694644E-2,1.9870783E-1],"categories":[],"categories_nodes":[],"categories_segments":[],"categories_sizes":[],"default_left":[1,1,1,0,0,0,0],"id":124,"left_children":[1,3,5,-1,-1,-1,-1],"loss_changes":[1.08719025E2,3.8561234E1,5.124466E1,0E0,0E0,0E0,0E0],"parents":[2147483647,0,0,1,1,2,2],"right_children":[2,4,6,-1,-1,-1,-1],"split_conditions":[1.45E1,2.25E1,5.535E-1,-1.6915096E-3,-4.5904014E-3,-6.1694643E-4,1.9870782E-3],"split_indices":[51,80,55,0,0,0,0],"split_type":[0,0,0,0,0,0,0],"sum_hessian":[6.119747E3,2.9676162E3,3.1521309E3,2.4004392E3,5.671769E2,1.8976672E3,1.2544636E3],"tree_param":{"num_deleted":"0","num_feature":"106","num_nodes":"7","size_leaf_vector":"0"}},{"base_weights":[8.73568E-2,2.2469114E-1,-4.1968714E-2,1.6915096E-1,4.590401E-1,6.169464E-2,-1.9870782E-1],"categories":[],"categories_nodes":[],"categories_segments":[],"categories_sizes":[],"default_left":[1,1,1,0,0,0,0],"id":125,"left_children":[1,3,5,-1,-1,-1,-1],"loss_changes":[1.0871898E2,3.8561234E1,5.124465E1,0E0,0E0,0E0,0E0],"parents":[2147483647,0,0,1,1,2,2],"right_children":[2,4,6,-1,-1,-1,-1],"split_conditions":[1.45E1,2.25E1,5.535E-1,1.6915096E-3,4.590401E-3,6.169464E-4,-1.9870782E-3],"split_indices":[51,80,55,0,0,0,0],"split_type":[0,0,0,0,0,0,0],"sum_hessian":[6.119747E3,2.9676162E3,3.1521309E3,2.4004392E3,5.671769E2,1.8976672E3,1.2544636E3],"tree_param":{"num_deleted":"0","num_feature":"106","num_nodes":"7","size_leaf_vector":"0"}},{"base_weights":[-8.652343E-2,-1.7410628E-1,1.1377025E-1,-1.00170724E-1,-3.6438987E-1,2.6836962E-1,2.1955328E-2],"categories":[],"categories_nodes":[],"categories_segments":[],"categories_sizes":[],"default_left":[1,1,1,0,0,0,0],"id":126,"left_children":[1,3,5,-1,-1,-1,-1],"loss_changes":[1.07343544E2,5.9855026E1,2.642333E1,0E0,0E0,0E0,0E0],"parents":[2147483647,0,0,1,1,2,2],"right_children":[2,4,6,-1,-1,-1,-1],"split_conditions":[1.95E1,1.95E1,-6.25E0,-1.0017072E-3,-3.6438985E-3,2.683696E-3,2.1955327E-4],"split_indices":[28,80,25,0,0,0,0],"split_type":[0,0,0,0,0,0,0],"sum_hessian":[6.1169995E3,4.2560693E3,1.86093E3,3.0662073E3,1.1898623E3,6.926733E2,1.1682568E3],"tree_param":{"num_deleted":"0","num_feature":"106","num_nodes":"7","size_leaf_vector":"0"}},{"base_weights":[8.652343E-2,1.7410628E-1,-1.13770254E-1,1.0017072E-1,3.643899E-1,-2.6836962E-1,-2.1955324E-2],"categories":[],"categories_nodes":[],"categories_segments":[],"categories_sizes":[],"default_left":[1,1,1,0,0,0,0],"id":127,"left_children":[1,3,5,-1,-1,-1,-1],"loss_changes":[1.0734352E2,5.9855057E1,2.6423332E1,0E0,0E0,0E0,0E0],"parents":[2147483647,0,0,1,1,2,2],"right_children":[2,4,6,-1,-1,-1,-1],"split_conditions":[1.95E1,1.95E1,-6.25E0,1.0017072E-3,3.643899E-3,-2.683696E-3,-2.1955324E-4],"split_indices":[28,80,25,0,0,0,0],"split_type":[0,0,0,0,0,0,0],"sum_hessian":[6.1169995E3,4.25607E3,1.86093E3,3.0662073E3,1.1898623E3,6.926733E2,1.1682568E3],"tree_param":{"num_deleted":"0","num_feature":"106","num_nodes":"7","size_leaf_vector":"0"}},{"base_weights":[-8.569529E-2,2.0007212E-3,-2.8370288E-1,8.657647E-2,-1.904521E-1,-3.3326945E-1,-2.8565839E-2],"categories":[],"categories_nodes":[],"categories_segments":[],"categories_sizes":[],"default_left":[1,1,1,0,0,0,0],"id":128,"left_children":[1,3,5,-1,-1,-1,